<?xml version="1.0"?>
<opencv_storage>
<opencv_ml_svm>
  <format>3</format>
  <svmType>C_SVC</svmType>
  <kernel>
    <type>RBF</type>
    <gamma>2.2500000000000003e-03</gamma></kernel>
  <C>1.2500000000000000e+01</C>
  <term_criteria><iterations>100</iterations></term_criteria>
  <var_count>5184</var_count>
  <class_count>3</class_count>
  <class_labels type_id="opencv-matrix">
    <rows>3</rows>
    <cols>1</cols>
    <dt>i</dt>
    <data>
      1 2 3</data></class_labels>
  <sv_total>24</sv_total>
  <support_vectors>
    <_>
      0. 0. 0. 0. 0. 0. 0. 0. 0. 0. 0. 0. 0. 0. 0. 0. 0. 0. 0. 0. 0. 0.
      0. 0. 0. 0. 0. 0. 0. 0. 0. 0. 0. 0. 0. 0. 0. 0. 0. 0. 0. 0. 0. 0.
      0. 0. 0. 0. 0. 0. 0. 0. 0. 0. 0. 0. 0. 0. 0. 0. 0. 0. 0. 0. 0. 0.
      0. 0. 0. 0. 0. 0. 0. 0. 0. 0. 0. 0. 0. 0. 0. 0. 0. 0. 0. 0. 0. 0.
      0. 0. 0. 0. 0. 0. 0. 0. 0. 0. 0. 0. 0. 0. 0. 0. 0. 0. 0. 0. 0. 0.
      0. 0. 0. 0. 0. 0. 0. 0. 0. 0. 0. 0. 0. 0. 0. 0. 0. 0. 0. 0. 0. 0.
      0. 0. 0. 0. 0. 0. 0. 0. 0. 0. 0. 0. 0. 0. 0. 0. 0. 0. 0. 0. 0. 0.
      0. 0. 0. 0. 0. 0. 0. 0. 0. 0. 0. 0. 0. 0. 0. 0. 0. 0. 0. 0. 0. 0.
      0. 0. 0. 0. 0. 0. 0. 0. 0. 0. 0. 0. 0. 0. 0. 0. 0. 0. 0. 0. 0. 0.
      0. 0. 0. 0. 0. 0. 0. 0. 0. 0. 0. 0. 0. 0. 0. 0. 0. 0. 0. 0. 0. 0.
      0. 0. 0. 0. 0. 0. 0. 0. 0. 0. 0. 0. 0. 0. 0. 0. 0. 0. 0. 0. 0. 0.
      0. 0. 0. 0. 0. 0. 0. 0. 0. 0. 0. 0. 0. 0. 0. 0. 0. 0. 0. 0. 0. 0.
      0. 0. 0. 0. 0. 0. 0. 0. 0. 0. 0. 0. 0. 0. 0. 0. 0. 0. 0. 0. 0. 0.
      0. 0. 0. 0. 0. 0. 0. 0. 0. 0. 0. 0. 0. 0. 0. 0. 0. 0. 0. 0. 0. 0.
      0. 0. 0. 0. 0. 0. 0. 0. 0. 0. 0. 0. 0. 0. 0. 0. 0. 0. 0. 0. 0. 0.
      0. 0. 0. 0. 0. 0. 0. 0. 0. 0. 0. 0. 0. 0. 0. 0. 0. 0. 0. 0. 0. 0.
      0. 0. 0. 0. 0. 0. 0. 0. 0. 0. 0. 0. 0. 0. 0. 0. 0. 0. 0. 0. 0. 0.
      0. 0. 0. 0. 0. 0. 0. 0. 0. 0. 0. 0. 0. 0. 0. 0. 0. 0. 0. 0. 0. 0.
      0. 0. 0. 0. 0. 0. 0. 0. 0. 0. 0. 0. 0. 0. 0. 0. 0. 0. 0. 0. 0. 0.
      0. 0. 0. 0. 0. 0. 0. 0. 0. 0. 0. 0. 0. 0. 0. 0. 0. 0. 0. 0. 0. 0.
      0. 0. 0. 0. 0. 0. 0. 0. 0. 0. 0. 0. 0. 0. 0. 0. 0. 0. 0. 0. 0. 0.
      0. 0. 0. 0. 0. 0. 0. 0. 0. 0. 0. 0. 0. 0. 0. 0. 0. 0. 0. 0. 0. 0.
      0. 0. 0. 0. 0. 0. 0. 0. 0. 0. 0. 0. 0. 0. 0. 0. 0. 0. 0. 0. 0. 0.
      0. 0. 0. 0. 0. 0. 0. 0. 0. 0. 0. 0. 0. 0. 0. 0. 0. 0. 0. 0. 0. 0.
      0. 0. 0. 0. 0. 0. 0. 0. 0. 0. 0. 0. 0. 0. 0. 0. 0. 0. 0. 0. 0. 0.
      0. 0. 0. 0. 0. 0. 0. 0. 0. 0. 0. 0. 0. 0. 0. 0. 0. 0. 0. 0. 0. 0.
      0. 0. 0. 0. 0. 0. 0. 0. 0. 0. 0. 0. 0. 0. 0. 0. 0. 0. 0. 0. 0. 0.
      0. 0. 0. 0. 0. 0. 0. 0. 0. 0. 0. 0. 0. 0. 0. 0. 0. 0. 0. 0. 0. 0.
      0. 0. 0. 0. 0. 0. 0. 0. 0. 0. 0. 0. 0. 0. 0. 0. 0. 0. 0. 0. 0. 0.
      0. 0. 0. 0. 0. 0. 0. 0. 0. 0. 2.80582216e-02 2.25459016e-03
      2.51302142e-02 1.28846169e-01 5.78990169e-02 0. 1.99289069e-01
      4.05061424e-01 2.42082834e-01 0. 0. 0. 0. 0. 0. 0. 0. 0.
      1.21585630e-01 9.52503905e-02 3.31155717e-01 3.18526536e-01
      1.27377838e-01 0. 4.05061424e-01 4.05061424e-01 3.77931535e-01 0.
      0. 0. 0. 0. 0. 0. 0. 0. 0. 0. 0. 0. 0. 0. 0. 0. 0. 0. 0. 0. 0. 0.
      0. 0. 0. 0. 0. 0. 0. 0. 0. 0. 0. 0. 0. 0. 0. 0. 0. 0. 0. 0. 0. 0.
      0. 0. 0. 0. 0. 0. 0. 0. 0. 2.04654455e-01 3.64101291e-01
      2.30343863e-01 0. 6.40235990e-02 4.32930179e-02 1.36504583e-02
      2.49308161e-03 3.20869572e-02 0. 0. 0. 0. 0. 0. 0. 0. 0.
      3.86846632e-01 4.57252562e-01 4.57252562e-01 0. 1.40851930e-01
      1.87603071e-01 3.42719972e-01 1.05326012e-01 1.39043495e-01
      1.58009846e-02 6.27358183e-02 1.92721725e-01 3.16691287e-02
      1.00403437e-02 0. 2.88521439e-01 2.16522962e-01 2.79816613e-02 0.
      0. 0. 0. 0. 0. 0. 0. 0. 2.56214499e-01 1.37473419e-01
      2.88521439e-01 1.26511410e-01 2.28068545e-01 0. 2.88521439e-01
      2.88521439e-01 2.88521439e-01 2.88521439e-01 2.11529344e-01
      8.22116584e-02 4.75658989e-03 2.88521439e-01 0. 9.86977741e-02
      1.92981765e-01 2.88521439e-01 0. 0. 0. 0. 0. 0. 0. 0. 0. 0. 0. 0.
      0. 0. 0. 0. 0. 0. 3.22588116e-01 2.55115658e-01 1.27148390e-01 0.
      3.22588116e-01 0. 1.08349569e-01 2.85758704e-01 3.22588116e-01
      3.22588116e-01 3.11093271e-01 1.18571058e-01 0. 3.22588116e-01 0.
      1.38316438e-01 2.78906971e-01 3.22588116e-01 0. 0. 0. 0. 0. 0. 0.
      0. 0. 2.47820038e-02 1.96428493e-01 2.86176890e-01 0.
      8.62609316e-03 1.89425554e-02 1.64397329e-01 5.38990423e-02
      1.40394224e-02 2.86176890e-01 1.74518764e-01 8.89225528e-02 0.
      2.86176890e-01 0. 7.37895444e-02 1.99186400e-01 2.86176890e-01
      2.86176890e-01 2.86176890e-01 2.86176890e-01 0. 2.81675071e-01
      1.23933665e-01 2.80112624e-01 1.59892142e-01 2.86176890e-01
      2.24923790e-01 9.68995541e-02 1.76643327e-01 1.77538633e-01
      2.93797284e-01 0. 1.96662277e-01 2.27888018e-01 2.93797284e-01
      2.93797284e-01 2.35448554e-01 1.39263555e-01 8.05749092e-03
      2.93797284e-01 0. 1.63988829e-01 2.19138250e-01 2.93797284e-01
      4.22115885e-02 2.54966188e-02 5.40246964e-02 6.80165738e-02
      2.93797284e-01 0. 3.48150358e-02 3.90508585e-02 5.22572137e-02
      6.00182377e-02 6.46365732e-02 6.33016154e-02 3.66249564e-03
      2.93797284e-01 0. 7.34359771e-02 6.24345019e-02 5.65622263e-02
      2.77104110e-01 1.81982622e-01 1.34989530e-01 0. 3.10117543e-01 0.
      1.15031414e-01 1.99097127e-01 2.91379094e-01 3.10117543e-01
      2.16834217e-01 1.25883237e-01 0. 3.10117543e-01 0. 1.46846280e-01
      1.98857784e-01 3.10117543e-01 5.15982620e-02 5.20651415e-02
      6.13588765e-02 0. 3.10117543e-01 0. 5.22870049e-02 5.45259230e-02
      5.48924915e-02 6.35543093e-02 5.94285652e-02 5.72196543e-02 0.
      3.10117543e-01 0. 6.67483136e-02 5.68438321e-02 6.00942597e-02
      2.67217398e-01 1.89986274e-01 1.43762469e-01 0. 2.95033634e-01 0.
      1.19296692e-01 2.10966170e-01 2.84716427e-01 2.95033634e-01
      2.52353728e-01 2.06447065e-01 0. 2.95033634e-01 1.69187054e-01
      1.88064113e-01 1.25653401e-01 2.80000716e-01 4.79558893e-02
      5.45665286e-02 6.53465763e-02 0. 2.95033634e-01 0. 5.42257763e-02
      5.75831011e-02 5.19941337e-02 6.38131946e-02 4.83966097e-02
      4.42229323e-02 0. 2.95033634e-01 6.61482215e-02 6.38943985e-02
      3.45407054e-02 5.34406416e-02 3.04211795e-01 3.04211795e-01
      4.15552333e-02 0. 8.81282464e-02 3.04211795e-01 1.44031897e-01
      1.60609633e-02 9.75416452e-02 2.88945615e-01 1.59827426e-01
      6.32651523e-02 0. 3.04211795e-01 3.04211795e-01 1.02804758e-01
      1.92007795e-02 2.05617398e-01 1.88346818e-01 3.04211795e-01
      7.71795288e-02 0. 3.35610844e-02 3.04211795e-01 2.53244758e-01
      5.10598831e-02 6.75206725e-03 2.01953966e-02 3.01139466e-02
      4.21767728e-03 0. 1.19929440e-01 1.62708238e-01 3.64861265e-02
      4.43094922e-03 2.95302621e-03 3.78544122e-01 2.47291699e-02
      2.64057536e-02 0. 3.82315457e-01 4.70038019e-02 2.12824941e-02
      4.86077601e-03 3.68978024e-01 3.82315457e-01 0. 5.48196398e-03
      3.84576432e-02 3.82315457e-01 0. 2.16047075e-02 7.20156869e-03
      3.82315457e-01 6.37738733e-04 1.64861139e-03 1.76038372e-03 0.
      2.43316233e-01 1.08470311e-02 4.91134496e-03 1.12171762e-03 0. 0.
      0. 1.26506865e-03 8.87484010e-03 2.76818067e-01 0. 1.44031388e-03
      4.80104645e-04 0. 1.92856908e-01 1.55680552e-02 7.76241422e-02
      2.16912955e-01 3.26144993e-01 0. 5.39602973e-02 1.01610214e-01
      2.43082151e-01 1.35072351e-01 2.10342947e-02 1.76977023e-01
      3.26144993e-01 1.43998459e-01 0. 5.28851151e-02 3.26144993e-01
      3.26144993e-01 2.06022593e-03 3.59262782e-03 2.40054429e-02
      9.27953497e-02 1.16899952e-01 0. 3.59735312e-03 1.34391095e-02
      9.41170938e-03 6.08529197e-03 4.76363674e-02 2.52822340e-01
      3.26144993e-01 5.09543642e-02 0. 6.69909567e-02 3.26144993e-01
      1.88908651e-01 1.45197794e-01 2.86324471e-01 2.73559928e-01 0.
      2.59135067e-01 3.82878333e-01 3.82878333e-01 3.59429538e-01
      2.79958975e-02 0. 0. 0. 0. 0. 2.89549269e-02 4.12738603e-03 0. 0.
      1.05205126e-01 5.20052612e-02 2.42575072e-02 0. 3.33173662e-01
      1.67839766e-01 3.82878333e-01 1.64572686e-01 9.94699374e-02 0. 0.
      0. 0. 0. 0. 0. 0. 0. 0. 0. 0. 0. 0. 0. 0. 0. 0. 0. 0. 0. 0. 0. 0.
      0. 0. 0. 0. 0. 0. 0. 0. 0. 0. 0. 0. 0. 0. 0. 0. 0. 0. 0. 0. 0. 0.
      0. 9.22514009e-04 6.47171540e-03 0. 0. 0. 0. 0. 0. 3.74085277e-01
      4.06779438e-01 4.06779438e-01 2.19641879e-01 0. 2.68786281e-01
      2.85499364e-01 1.17662221e-01 0. 0. 0. 0. 0. 0. 0. 0. 0.
      7.70036280e-02 1.70436502e-01 4.06779438e-01 1.70548901e-01
      2.82396734e-01 0. 2.38342099e-02 5.10977395e-02 8.19453448e-02
      1.25546783e-01 1.62315704e-02 5.84163293e-02 6.82001412e-02
      5.97162433e-02 0. 3.83390933e-01 2.43805215e-01 1.90189883e-01 0.
      0. 0. 0. 0. 0. 0. 0. 0. 5.70667237e-02 9.54519734e-02
      3.54778022e-01 3.83390933e-01 3.62712517e-02 0. 3.83390933e-01
      3.83390933e-01 3.83390933e-01 0. 0. 6.89196924e-04 4.83492482e-03
      0. 0. 0. 7.85209686e-02 4.71606292e-02 0. 0. 0. 0. 0. 0. 0. 0. 0.
      0. 0. 0. 0. 0. 0. 0. 0. 0. 0. 0. 0. 0. 0. 0. 0. 0. 0. 0. 0. 0. 0.
      0. 0. 0. 0. 0. 0. 0. 0. 0. 0. 0. 0. 0. 0. 1.61625475e-01
      2.35813573e-01 3.96395862e-01 0. 2.50785574e-02 6.29318431e-02
      5.39037734e-02 1.49777150e-02 9.99366790e-02 1.84519738e-02
      3.07220146e-02 0. 0. 0. 0. 0. 0. 0. 3.96395862e-01 3.96395862e-01
      3.96395862e-01 0. 0. 3.96395862e-01 3.31441671e-01 8.80784988e-02
      4.54257652e-02 0. 0. 0. 0. 0. 0. 0. 0. 0. 0. 0. 0. 0. 0. 0. 0. 0.
      0. 0. 0. 0. 0. 0. 0. 0. 0. 0. 0. 0. 0. 0. 0. 0. 0. 0. 0. 0. 0. 0.
      0. 0. 0. 0. 0. 0. 0. 0. 0. 0. 0. 0. 0. 0. 0. 0. 0. 0. 0. 0. 0. 0.
      0. 0. 0. 0. 0. 0. 0. 0. 0. 0. 0. 0. 0. 0. 0. 0. 0. 0. 0. 0. 0. 0.
      0. 0. 0. 0. 0. 0. 0. 0. 0. 0. 0. 0. 0. 0. 0. 0. 0. 0. 0. 0. 0. 0.
      0. 0. 0. 0. 0. 0. 0. 0. 0. 0. 0. 0. 0. 0. 0. 0. 0. 0. 0. 0. 0. 0.
      0. 0. 0. 0. 0. 0. 0. 0. 0. 0. 0. 0. 0. 0. 0. 0. 0. 0. 0. 0. 0. 0.
      0. 0. 0. 0. 0. 0. 0. 0. 0. 0. 0. 0. 0. 0. 0. 0. 0. 0. 0. 0. 0. 0.
      0. 0. 0. 0. 0. 0. 0. 0. 0. 0. 0. 0. 0. 0. 0. 0. 0. 0. 0. 0. 0. 0.
      0. 0. 0. 0. 0. 0. 0. 0. 0. 0. 0. 0. 0. 0. 0. 0. 0. 0. 0. 0. 0. 0.
      0. 0. 0. 0. 0. 0. 0. 0. 0. 0. 0. 0. 0. 0. 0. 0. 0. 0. 0. 0. 0. 0.
      0. 0. 0. 0. 0. 0. 0. 0. 0. 0. 0. 0. 0. 0. 0. 0. 0. 0. 0. 0. 0. 0.
      0. 0. 0. 0. 0. 0. 0. 0. 0. 0. 0. 0. 0. 0. 0. 0. 0. 0. 0. 0. 0. 0.
      0. 0. 0. 0. 0. 0. 0. 0. 0. 0. 0. 0. 0. 0. 0. 0. 0. 0. 0. 0. 0. 0.
      0. 0. 0. 0. 0. 0. 0. 0. 0. 0. 0. 0. 0. 0. 0. 0. 0. 0. 0. 0. 0.
      5.92121221e-02 8.19761381e-02 6.83564097e-02 0. 1.78306270e-02
      2.15720497e-02 1.43262781e-02 3.75042879e-03 2.36615650e-02
      2.70752251e-01 2.70752251e-01 1.79506883e-01 0. 1.73525959e-01
      2.55112499e-01 1.35802165e-01 3.31456922e-02 1.75522462e-01
      2.08601564e-01 2.70752251e-01 2.31866390e-01 0. 6.30101860e-02
      1.78552434e-01 1.12555541e-01 2.90345810e-02 5.82699850e-02
      2.70752251e-01 2.70752251e-01 2.70752251e-01 0. 2.25748882e-01
      2.70752251e-01 2.70752251e-01 1.12314373e-01 1.14074357e-01
      2.98466027e-01 1.52679712e-01 9.91513729e-02 0. 2.98466027e-01
      2.04741284e-01 9.14834887e-02 2.07661986e-02 2.98466027e-01
      2.98466027e-01 1.64637738e-03 1.71261523e-02 8.54956582e-02
      2.98466027e-01 7.32480176e-03 1.04411528e-03 1.86721645e-02
      2.98466027e-01 1.53652266e-01 1.27258942e-01 6.98307231e-02 0.
      2.98466027e-01 2.88907468e-01 1.93182483e-01 5.06666936e-02
      9.11995247e-02 9.76307839e-02 7.48353312e-04 1.30895767e-02
      7.60775730e-02 2.98466027e-01 5.69706736e-03 8.12089769e-04
      8.48734751e-03 1.02728389e-01 1.70483142e-01 9.51347974e-05
      4.15380597e-02 2.84592807e-01 1.95724711e-01 0. 0. 1.92906037e-01
      2.84592807e-01 4.60994318e-02 1.42702181e-03 4.79646027e-02
      2.84592807e-01 1.67263635e-02 0. 5.69031714e-03 2.84592807e-01
      2.74417013e-01 3.93422656e-02 6.14410685e-03 7.89174587e-02
      2.84592807e-01 1.56816900e-01 0. 0. 1.54678613e-01 1.32244080e-01
      2.87206788e-02 4.92635816e-02 2.51355320e-01 2.84592807e-01
      8.18080455e-02 0. 1.61009148e-01 2.84592807e-01 2.84592807e-01
      2.49427676e-01 2.57019043e-01 2.57019043e-01 0. 1.28499448e-01
      2.57019043e-01 2.07004011e-01 5.33344336e-02 7.08989128e-02
      1.74037024e-01 2.57019043e-01 1.15662880e-01 0. 1.22353122e-01
      2.57019043e-01 2.57019043e-01 8.26734602e-02 3.65819931e-02
      1.33798078e-01 2.57019043e-01 2.57019043e-01 0. 1.27025008e-01
      2.35941529e-01 2.57019043e-01 1.43660858e-01 7.50584304e-02
      4.52610366e-02 6.42868653e-02 4.51084971e-02 0. 6.26386032e-02
      1.85811192e-01 2.18145475e-01 7.66774341e-02 2.33630277e-02
      1.15439966e-01 1.70968518e-01 4.73860092e-02 0. 1.34352967e-01
      3.86473060e-01 3.86473060e-01 1.67410240e-01 2.22412627e-02 0. 0.
      3.28782434e-03 2.30650846e-02 0. 0. 0. 0. 0. 3.08148237e-03
      5.13058016e-03 0. 0. 2.16800570e-02 1.18738495e-01 3.20162214e-02
      5.03020640e-03 0. 3.86473060e-01 3.86473060e-01 3.86473060e-01 0.
      5.46350628e-02 1.24078140e-01 1.26955390e-01 3.64228860e-02
      3.40501636e-01 6.72108680e-03 1.61873810e-02 5.62363416e-02
      1.26474947e-01 6.71192538e-03 0. 0. 1.76221039e-02 1.52321747e-02
      7.50952065e-02 1.61626920e-01 2.65450478e-01 2.65450478e-01
      1.24219991e-01 8.30785092e-03 2.65450478e-01 2.52158761e-01
      1.41863391e-01 2.47999147e-01 1.99470431e-01 1.41716495e-01
      2.06785742e-03 7.88750127e-02 1.00646771e-01 6.62532747e-02
      1.73021853e-02 1.56508178e-01 2.65450478e-01 2.65450478e-01
      2.65450478e-01 3.10178604e-02 2.65450478e-01 2.65450478e-01
      2.65450478e-01 9.83910188e-02 2.11190179e-01 6.79867491e-02
      2.10822955e-01 2.90802062e-01 0. 1.48658916e-01 1.46327242e-01
      2.90802062e-01 2.62811005e-01 1.29732236e-01 1.56892482e-02
      2.08649021e-02 5.31016774e-02 0. 3.77414711e-02 6.65123835e-02
      2.36270115e-01 1.28558382e-01 4.55983318e-02 1.14675380e-01
      2.05044374e-01 2.90802062e-01 1.43485665e-01 2.00489670e-01
      1.40415475e-01 2.90802062e-01 2.90802062e-01 2.19925523e-01
      3.92945036e-02 2.32115760e-02 7.43547007e-02 3.31120752e-02
      4.62668464e-02 6.38252199e-02 2.90802062e-01 1.75709024e-01
      8.71354714e-02 0. 0. 0. 0. 0. 0. 0. 0. 0. 2.26818815e-01
      4.08206493e-01 4.08206493e-01 0. 5.11956774e-02 1.16267174e-01
      2.29354605e-01 7.09270909e-02 1.17377967e-01 0. 0. 0. 0. 0. 0. 0.
      0. 0. 2.89023872e-02 4.08206493e-01 4.08206493e-01 0.
      2.32707616e-02 5.28487191e-02 4.08206493e-01 1.71858087e-01
      7.82519765e-03 2.18872488e-01 2.58531749e-01 2.58531749e-01 0.
      1.53198510e-01 1.94401711e-01 2.48532116e-01 7.36070126e-02
      1.22160830e-01 2.44480491e-01 2.37345561e-01 1.54245421e-01 0.
      2.58531749e-01 2.58531749e-01 2.57683605e-01 6.97566569e-02
      1.32808656e-01 1.89806726e-02 1.84384361e-01 2.58531749e-01 0.
      5.28814048e-02 6.77154586e-02 2.58531749e-01 1.61277041e-01
      5.47583401e-03 2.09940579e-02 8.06895271e-02 1.88162819e-01
      7.95831624e-03 1.08487815e-01 5.34892865e-02 2.35805675e-01
      7.60603473e-02 9.97481216e-03 4.33748186e-01 4.33748186e-01
      3.61254439e-02 0. 2.63140760e-02 4.33748186e-01 4.33748186e-01
      6.57976791e-02 2.59762201e-02 1.71944685e-02 1.94503963e-02
      2.40836316e-03 0. 1.19609432e-02 1.60104558e-01 1.18278556e-01
      3.18188071e-02 5.99451270e-03 5.40957190e-02 9.00678337e-02 0. 0.
      0. 4.33748186e-01 7.33038187e-02 0. 0. 0. 0. 0. 0. 0.
      8.58047977e-03 1.22310629e-03 0. 0. 0. 0. 0. 0. 0. 0. 0. 0. 0.
      5.75974099e-02 3.35317284e-01 5.11905134e-01 5.11905134e-01
      5.11905134e-01 0. 1.35097414e-01 2.31775403e-01 1.69757441e-01 0.
      0. 0. 0. 0. 0. 0. 0. 0. 0. 0. 0. 0. 4.69290726e-02 0. 0. 0. 0.
      9.85344946e-02 7.27329850e-02 2.50659913e-01 2.27723539e-01
      3.32671463e-01 0. 8.00940767e-02 1.08713068e-01 1.47793710e-01
      2.76147515e-01 2.36260086e-01 3.25270563e-01 2.98548698e-01
      3.32671463e-01 1.68075845e-01 2.91595608e-01 2.60479510e-01
      2.93712527e-01 0. 2.30198319e-04 1.26041414e-03 3.99745395e-03
      4.03710008e-02 0. 0. 0. 0. 0. 3.45297507e-03 1.28281415e-02
      1.73222981e-02 1.37376934e-01 8.98669288e-03 9.60464031e-03
      2.77454336e-03 0. 0. 0. 0. 0. 0. 9.87691224e-01 1.40790656e-01 0.
      0. 0. 0. 0. 0. 0. 0. 0. 0. 0. 0. 0. 0. 0. 0. 0. 0. 0. 0. 0. 0. 0.
      0. 0. 0. 0. 0. 0. 0. 0. 0. 0. 0. 0. 0. 0. 0. 0. 0. 0. 0. 0. 0. 0.
      0. 0. 0. 0. 0. 0. 0. 0. 0. 0. 0. 0. 0. 0. 0. 0. 0. 0. 0. 0. 0. 0.
      0. 0. 0. 0. 0. 0. 0. 0. 0. 0. 0. 0. 0. 0. 0. 0. 0. 0. 0. 0. 0. 0.
      0. 0. 0. 0. 0. 0. 0. 0. 0. 0. 0. 0. 0. 0. 0. 0. 0. 0. 0. 0. 0. 0.
      0. 0. 0. 0. 0. 0. 0. 0. 0. 0. 0. 0. 0. 0. 0. 0. 0. 0. 0. 0. 0. 0.
      0. 0. 0. 0. 0. 0. 0. 0. 0. 0. 0. 0. 0. 0. 0. 0. 0. 0. 0. 0. 0. 0.
      0. 0. 0. 0. 0. 0. 0. 0. 0. 0. 0. 0. 0. 0. 0. 0. 0. 0. 0. 0. 0. 0.
      0. 0. 0. 0. 0. 0. 0. 0. 0. 0. 0. 0. 0. 0. 0. 0. 0. 0. 0. 0. 0. 0.
      0. 0. 0. 0. 0. 0. 0. 0. 0. 0. 0. 0. 0. 0. 0. 0. 0. 0. 0.
      1.32806495e-01 1.68620244e-01 9.00013447e-02 0. 3.17709818e-02
      3.26455869e-02 2.84258910e-02 7.92414043e-03 4.95499335e-02
      3.58702868e-01 0. 0. 0. 0. 0. 0. 0. 3.58702868e-01 3.58702868e-01
      3.58702868e-01 3.58702868e-01 0. 1.76602483e-01 2.61061430e-01
      2.52031058e-01 1.09470874e-01 3.58702868e-01 1.31087169e-01
      1.18658654e-01 7.40134865e-02 2.53451020e-02 2.62823831e-02
      6.39949888e-02 5.50405942e-02 2.84629427e-02 8.18160847e-02
      1.71353251e-01 8.09904635e-02 9.50848162e-02 8.11999440e-02
      3.93097103e-02 6.45553097e-02 1.00868866e-01 1.22059107e-01
      1.94386616e-01 2.39032775e-01 2.39032775e-01 2.39032775e-01
      5.99993393e-02 1.29237056e-01 2.39032775e-01 2.32339635e-01
      1.05523616e-01 1.60767466e-01 2.39032775e-01 2.13313684e-01
      2.39032775e-01 2.39032775e-01 2.39032775e-01 2.22533897e-01
      2.39032775e-01 2.39032775e-01 2.39032775e-01 1.29615486e-01
      1.54682072e-02 5.58985062e-02 6.66024536e-02 3.26743796e-02
      1.32323084e-02 1.24389432e-01 1.70514941e-01 2.07503170e-01
      1.01276888e-02 1.37371738e-02 1.64739974e-02 0. 8.29181517e-04 0.
      2.30501182e-02 1.51221640e-02 9.64297261e-03 2.97510296e-01
      1.51122034e-01 2.97510296e-01 2.97510296e-01 2.97510296e-01
      2.91110780e-02 2.97510296e-01 2.97510296e-01 2.97510296e-01
      2.93237716e-01 9.49043483e-02 1.39215901e-01 3.83398049e-02
      5.24915755e-02 0. 1.58285379e-01 1.29354119e-01 2.97510296e-01
      2.90840954e-01 0. 0. 0. 2.90840954e-01 0. 0. 0. 2.90840954e-01
      2.90840954e-01 1.59467265e-01 1.72925919e-01 0. 2.90840954e-01
      3.75714712e-02 8.90023112e-02 5.62802069e-02 2.90840954e-01
      2.48980984e-01 0. 0. 0. 2.90840954e-01 0. 0. 0. 2.48980984e-01
      2.65143335e-01 3.89393158e-02 1.81629825e-02 0. 2.90840954e-01 0.
      4.06271145e-02 2.64505446e-02 2.53145069e-01 2.03724086e-01
      2.21673191e-01 2.22097918e-01 1.87319163e-02 2.57745057e-01
      1.52934611e-01 2.57745057e-01 1.83955386e-01 1.67706847e-01
      1.27985552e-01 2.15330049e-01 2.57745057e-01 1.98494509e-01
      2.57745057e-01 1.02284841e-01 2.57745057e-01 2.21456647e-01
      1.45160437e-01 1.44577757e-01 4.48906943e-02 2.52322350e-02 0.
      2.57745057e-01 0. 1.45624340e-01 8.74653012e-02 1.46045640e-01
      8.90144929e-02 9.04997438e-02 1.55764729e-01 7.02483393e-03
      2.57745057e-01 0. 9.30910185e-02 6.30422905e-02 8.48703161e-02
      2.00517058e-01 1.38089687e-01 2.17621252e-01 1.33936778e-01
      2.89487809e-01 3.30525124e-03 1.74118847e-01 2.11295038e-01
      2.49466524e-01 2.89487809e-01 4.36609574e-02 5.43819629e-02
      2.80816667e-02 2.89487809e-01 0. 6.80041313e-02 7.13835508e-02
      2.89487809e-01 1.66454971e-01 6.95501715e-02 1.11484200e-01
      6.29460253e-03 2.89487809e-01 0. 1.92636196e-02 4.12989333e-02
      1.67770252e-01 2.73010433e-01 1.12078823e-02 6.88319374e-03
      5.44742402e-03 2.89487809e-01 0. 8.75619147e-03 1.87722426e-02
      2.77023256e-01 2.97657669e-01 0. 0. 0. 2.97657669e-01 0. 0. 0.
      2.97657669e-01 2.97657669e-01 1.85986627e-02 6.69353455e-02
      7.81459361e-02 2.97657669e-01 3.06742452e-02 6.00546487e-02
      2.09218450e-02 2.97657669e-01 1.47139370e-01 0. 0. 0.
      2.97657669e-01 0. 0. 0. 1.47139370e-01 2.00474307e-01
      8.42171833e-02 2.81378508e-01 2.01528117e-01 2.97657669e-01
      3.94383185e-02 1.00837819e-01 8.26659501e-02 2.31061831e-01
      2.00964153e-01 1.63243022e-02 5.78990951e-02 6.26199245e-02
      1.29441053e-01 6.68150932e-02 1.48649767e-01 5.15182316e-02
      2.04053119e-01 1.48734123e-01 6.37287498e-02 1.49990007e-01
      6.67945892e-02 5.16461879e-02 5.93678914e-02 1.02299131e-01
      3.36165838e-02 1.39984354e-01 1.62037238e-01 1.07921690e-01
      2.29989737e-01 2.29989737e-01 2.29989737e-01 9.52015519e-02
      2.29989737e-01 2.29989737e-01 2.29989737e-01 2.29989737e-01
      2.29989737e-01 2.29989737e-01 1.55782998e-01 1.89374208e-01
      2.29989737e-01 2.29989737e-01 1.99537545e-01 2.29989737e-01
      2.63661951e-01 5.91581464e-02 1.31985560e-01 6.81603402e-02
      2.22942159e-01 8.06542933e-02 5.86715937e-02 1.57249011e-02
      2.60688722e-01 2.63661951e-01 1.28385294e-02 1.59430671e-02
      1.91260166e-02 2.63661951e-01 3.48870307e-02 2.64160242e-02
      7.14768190e-03 2.63661951e-01 2.63661951e-01 2.05852360e-01
      2.15177506e-01 8.76347274e-02 2.63661951e-01 2.63661951e-01
      2.63661951e-01 8.57454389e-02 1.93570003e-01 1.79045767e-01
      4.35582697e-02 7.33728334e-02 4.35429290e-02 2.63661951e-01
      7.38079548e-02 9.59585309e-02 2.84791905e-02 1.66331068e-01 0. 0.
      0. 0. 0. 0. 0. 0. 0. 0. 0. 0. 0. 0. 0. 0. 0. 0. 0. 0. 0. 0. 0. 0.
      0. 0. 0. 0. 0. 0. 0. 0. 0. 0. 0. 0. 0. 0. 0. 0. 0. 0. 0. 0. 0. 0.
      0. 0. 0. 0. 0. 0. 0. 0. 0. 0. 0. 0. 0. 0. 0. 0. 0. 0. 0. 0. 0. 0.
      0. 0. 0. 0. 0. 0. 0. 0. 0. 0. 0. 0. 0. 0. 0. 0. 0. 0. 0. 0. 0. 0.
      0. 0. 0. 0. 0. 0. 0. 0. 0. 0. 3.16189200e-01 9.48567629e-01 0. 0.
      0. 0. 0. 0. 0. 0. 0. 0. 0. 0. 0. 0. 0. 0. 0. 0. 0. 0. 0. 0. 0. 0.
      0. 0. 0. 0. 0. 0. 0. 0. 0. 0. 0. 0. 0. 0. 0. 0. 0. 0. 0. 0. 0. 0.
      0. 0. 0. 0. 0. 0. 0. 0. 0. 0. 0. 0. 0. 0. 0. 0. 0. 0. 0. 0. 0. 0.
      0. 0. 0. 0. 0. 0. 0. 0. 0. 0. 0. 0. 0. 0. 0. 0. 0. 0. 0. 0.
      2.16535524e-01 6.49606586e-01 0. 0. 0. 0. 0. 0. 0. 0. 0. 0. 0. 0.
      0. 0. 0. 0. 2.30971232e-01 6.92913711e-01 0. 0. 0. 0. 0. 0. 0. 0.
      0. 0. 0. 0. 0. 0. 0. 0. 0. 0. 0. 0. 0. 0. 0. 0. 0. 0. 0. 0. 0. 0.
      0. 0. 0. 0. 0. 0. 0. 0. 0. 0. 0. 0. 0. 0. 0. 0. 0. 0. 0. 0. 0. 0.
      0. 0. 0. 0. 0. 0. 0. 0. 0. 0. 0. 0. 0. 0. 0. 0. 0. 0. 0. 0. 0. 0.
      0. 0. 0. 0. 0. 0. 0. 0. 0. 0. 0. 0. 0. 0. 3.15491736e-01
      9.46475267e-01 0. 0. 0. 0. 0. 0. 0. 0. 0. 0. 0. 0. 0. 0. 0. 0.
      2.10327860e-02 6.30983561e-02 0. 0. 0. 0. 0. 0. 0. 0. 0. 0. 0. 0.
      0. 0. 0. 0. 0. 0. 0. 0. 0. 0. 0. 0. 0. 0. 0. 0. 0. 0. 0. 0. 0. 0.
      0. 0. 0. 0. 0. 0. 0. 0. 0. 0. 0. 0. 0. 0. 0. 0. 0. 1.22769900e-01
      1.44967034e-01 2.97637675e-02 0. 0. 1.60637368e-02 2.28980905e-03
      0. 4.16599363e-02 0. 0. 0. 0. 0. 0. 0. 0. 0. 4.89440352e-01
      4.89440352e-01 4.89440352e-01 0. 6.13990538e-02 4.34569627e-01
      2.09840357e-01 4.92981859e-02 9.16518643e-02 9.24910828e-02
      8.53301212e-02 2.51813158e-02 8.43348168e-03 5.53867430e-04
      2.97173671e-02 2.71010045e-02 1.07634440e-02 4.79285978e-02
      1.86280861e-01 1.26717672e-01 7.85956085e-02 3.65450829e-02
      2.43599769e-02 5.96738420e-02 7.78989345e-02 7.02578872e-02
      1.53170079e-01 2.66101569e-01 2.66101569e-01 2.63410866e-01
      3.65450829e-02 2.66747251e-02 2.66101569e-01 2.05747485e-01
      5.76009825e-02 8.21330026e-02 2.66101569e-01 2.66101569e-01
      2.66101569e-01 1.58362031e-01 2.66101569e-01 2.66101569e-01
      2.66101569e-01 1.94000095e-01 2.57015109e-01 3.93170156e-02 0. 0.
      0. 0. 0. 0. 0. 3.93170156e-02 3.17026414e-02 0. 0. 0. 0. 0. 0. 0.
      3.17026414e-02 3.43710065e-01 1.41692549e-01 1.18505724e-01
      6.63485229e-02 3.43710065e-01 1.58885822e-01 1.19113415e-01
      7.17051476e-02 3.43710065e-01 3.43710065e-01 1.92794025e-01
      1.91452816e-01 1.45966753e-01 3.43710065e-01 8.14861581e-02
      2.22286329e-01 2.41607621e-01 3.43710065e-01 2.37006880e-02 0. 0.
      0. 0. 0. 0. 0. 2.37006880e-02 1.34450004e-01 2.39978552e-01
      2.94230491e-01 0. 4.15431932e-02 9.25581455e-02 9.76386443e-02
      2.81483084e-02 5.90123497e-02 2.94230491e-01 1.35668576e-01
      1.17749438e-01 2.33716425e-02 2.94230491e-01 9.64068919e-02
      8.95489529e-02 7.05120191e-02 2.94230491e-01 2.94230491e-01
      2.91216433e-01 2.94230491e-01 0. 2.94230491e-01 1.66632652e-01
      2.05567181e-01 6.06048331e-02 2.94230491e-01 1.90009236e-01
      2.51309514e-01 2.51309514e-01 1.38758076e-02 9.01574269e-02
      2.51309514e-01 2.51309514e-01 9.24595222e-02 5.59626855e-02
      1.14864834e-01 1.63138509e-01 1.37086540e-01 6.01285063e-02
      2.28563890e-01 2.51309514e-01 2.51309514e-01 1.03740975e-01
      5.69519550e-02 2.18001217e-01 2.39303708e-01 2.51309514e-01 0.
      2.51309514e-01 2.25932851e-01 2.51309514e-01 1.33065552e-01
      1.27710775e-01 2.20598560e-02 2.85801683e-02 2.66199969e-02 0.
      4.71791402e-02 8.00109953e-02 2.21418649e-01 7.00044855e-02
      1.02237156e-02 3.01025271e-01 1.35020360e-01 1.03310972e-01
      8.13687369e-02 3.01025271e-01 2.75018424e-01 1.38267964e-01
      6.24407530e-02 3.01025271e-01 3.01025271e-01 1.58715993e-01
      1.98375091e-01 1.79011196e-01 3.01025271e-01 9.99332815e-02
      2.07369775e-01 1.91857055e-01 3.01025271e-01 1.61157642e-02
      2.31507011e-02 1.32108489e-02 1.87773984e-02 1.70981556e-01
      1.22807778e-01 9.78081822e-02 3.75830419e-02 1.08161326e-02
      8.79464950e-03 1.69656090e-02 3.65660787e-02 4.13102806e-02
      2.84019291e-01 2.30615269e-02 3.13516185e-02 1.78535786e-02
      9.85114928e-03 3.43677759e-01 1.65765986e-01 1.60018638e-01
      4.52689528e-02 3.43677759e-01 1.86732247e-01 1.56951249e-01
      9.65961292e-02 3.34186673e-01 3.43677759e-01 1.30052105e-01
      1.07778177e-01 0. 3.43677759e-01 1.56534076e-01 1.23992927e-01
      3.38932499e-02 3.06496918e-01 7.85065722e-03 1.37129994e-02
      1.97126418e-02 1.04466816e-02 2.63352305e-01 4.30920608e-02
      3.20462026e-02 1.21779861e-02 5.39112929e-03 3.05850786e-04
      1.04719342e-03 1.61388144e-03 0. 2.47938454e-01 1.69447847e-02
      6.57439232e-03 1.38633163e-03 0. 3.47208709e-01 2.82959938e-01
      2.06804976e-01 0. 3.86795580e-01 3.86795580e-01 3.86795580e-01
      2.12310240e-01 2.18662992e-01 1.39164897e-02 1.88639965e-02
      1.37869976e-02 0. 1.09227277e-01 1.24658756e-01 3.07283491e-01
      9.65046585e-02 5.34677505e-03 0. 0. 0. 0. 2.94953287e-01
      2.85617504e-02 2.11916789e-02 5.70677966e-03 0. 0. 0. 0. 0.
      2.52062976e-02 6.59117335e-03 8.72151088e-03 2.59399065e-03 0. 0.
      0. 0. 0. 1.05938882e-01 2.56107718e-01 9.14984524e-01
      2.92825818e-01 0. 0. 0. 0. 0. 0. 0. 0. 0. 0. 0. 0. 0. 0. 0. 0. 0.
      0. 0. 0. 0. 0. 0. 0. 0. 0. 0. 0. 0. 0. 0. 0. 0. 0. 0. 0. 0. 0. 0.
      0. 0. 0. 0. 0. 0. 0. 7.54830688e-02 9.08375382e-02 0. 0. 0. 0. 0.
      0. 2.09250562e-02 5.54078996e-01 5.54078996e-01 1.48495927e-01 0.
      5.88150769e-02 1.33571133e-01 1.53927401e-01 4.49624956e-02
      5.54078996e-01 0. 0. 0. 0. 0. 0. 0. 0. 0. 0. 0. 0. 0. 0. 0. 0. 0.
      0. 4.13477838e-01 2.59938836e-01 1.15140632e-01 0. 2.06621796e-01
      1.03568256e-01 7.81995580e-02 2.11454649e-02 4.13477838e-01
      4.13477838e-01 4.90877479e-02 5.52967303e-02 2.07658503e-02
      4.13477838e-01 4.70764823e-02 4.44358625e-02 1.25751114e-02
      4.13477838e-01 0. 0. 0. 0. 0. 0. 0. 0. 0. 4.78828400e-02
      8.89060050e-02 2.75473129e-02 0. 0. 0. 0. 0. 0. 0. 0. 0. 0. 0. 0.
      0. 0. 0. 5.34190655e-01 5.34190655e-01 5.34190655e-01 0.
      2.41282031e-01 1.95376977e-01 1.37596279e-01 3.65820788e-02
      1.44805193e-01 7.91764632e-02 1.28555059e-01 4.21233010e-03 0. 0.
      4.79615517e-02 6.83669001e-03 0. 2.80822022e-03 3.19861948e-01
      3.19861948e-01 2.18434036e-02 0. 4.49474044e-02 3.19861948e-01
      7.82612860e-02 9.94860567e-03 9.67202261e-02 2.61078119e-01
      3.19861948e-01 1.27884373e-01 0. 6.08296655e-02 3.19861948e-01
      7.88920373e-02 9.22271516e-03 2.34189946e-02 3.19861948e-01
      3.19861948e-01 5.27095832e-02 0. 9.84913632e-02 3.19861948e-01
      1.86712682e-01 1.49110276e-02 4.93851937e-02 2.88454682e-01
      2.55474329e-01 7.15799406e-02 0. 2.81349391e-01 2.88454682e-01
      1.13331966e-01 2.16734055e-02 2.45840982e-01 2.88454682e-01
      3.05165835e-02 3.55703197e-02 2.12843157e-02 2.88454682e-01
      5.35742864e-02 3.69935036e-02 9.78558045e-03 2.88454682e-01
      1.98040828e-01 2.16878399e-01 3.25363390e-02 0. 2.54163802e-01
      2.88454682e-01 1.31928548e-01 1.68570951e-02 7.42951781e-02
      9.18377563e-02 1.38711734e-02 1.71490125e-02 1.65544692e-02
      2.88454682e-01 4.43723537e-02 2.45190319e-02 6.06465526e-03
      8.64674449e-02 6.52523264e-02 6.73016906e-02 8.86796881e-03 0.
      1.84170180e-03 1.81955043e-02 1.14616510e-02 2.95598968e-03
      2.66055949e-02 2.35774070e-01 2.18121350e-01 1.71566889e-01 0.
      8.93774256e-02 9.31049213e-02 7.35126138e-02 2.00803149e-02
      1.39116287e-01 3.15541714e-01 3.15541714e-01 3.64607722e-02 0.
      2.43000686e-02 3.15541714e-01 1.20713443e-01 1.28092887e-02
      4.84987162e-02 3.15541714e-01 3.15541714e-01 1.39919668e-01 0.
      3.15541714e-01 3.15541714e-01 2.29343802e-01 4.20185439e-02
      1.80203706e-01 2.68075556e-01 2.68075556e-01 2.68075556e-01 0.
      1.77641168e-01 2.68075556e-01 2.67950535e-01 6.92903548e-02
      1.24260508e-01 1.56508759e-01 2.44167060e-01 7.24618584e-02 0.
      9.04640704e-02 2.68075556e-01 2.44245484e-01 5.26372530e-02
      2.43665054e-02 1.83663949e-01 1.66317418e-01 1.36139795e-01 0.
      2.68075556e-01 2.68075556e-01 2.68075556e-01 7.59707689e-02
      1.11027598e-01 2.04597954e-02 2.86923610e-02 2.34343503e-02 0.
      8.98657814e-02 8.61025825e-02 1.73220500e-01 5.36489971e-02
      7.91849289e-03 2.27407515e-01 3.78627032e-01 0. 0. 2.35647082e-01
      7.76550055e-01 3.80766541e-01 0. 0. 0. 0. 0. 0. 5.43801002e-02
      1.80284493e-02 2.56986916e-03 0. 0. 0. 0. 0. 0. 0. 1.80284493e-02
      2.56986916e-03 0. 0. 0. 0. 0. 0. 0. 0. 0. 0. 0. 1.94397107e-01
      3.66847008e-01 2.83317149e-01 0. 8.59117787e-03 3.66847008e-01
      3.66847008e-01 3.07881594e-01 1.11426096e-02 0. 0. 0. 0. 0.
      2.43619829e-03 6.19235858e-02 2.05254406e-02 0. 1.63415417e-01
      2.64074117e-01 2.42118929e-02 0. 3.72284390e-02 3.66847008e-01
      3.66847008e-01 1.29506335e-01 2.53239032e-02 0. 0. 0. 0. 0. 0.
      1.70496814e-02 5.68322651e-03 0. 0. 0. 0. 0. 0. 0. 0. 0. 0. 0. 0.
      0. 0. 0. 0. 0. 0. 0. 0. 0. 0. 0. 0. 0. 0. 0. 0. 0. 0. 0. 0. 0. 0.
      0. 0. 0. 0. 0. 0. 0. 0. 0. 0. 0. 0. 0. 0. 0. 0. 0. 0. 0. 0. 0. 0.
      0. 0. 0. 0. 0. 0. 0. 0. 0. 0. 0. 0. 0. 0. 0. 0. 0. 1.45943925e-01
      9.53960046e-02 0. 0. 2.02727497e-01 4.86488074e-01 4.86488074e-01
      3.94399852e-01 1.75878480e-01 0. 0. 0. 0. 0. 0. 0. 0. 0.
      5.27185947e-02 0. 0. 0. 1.62608668e-01 1.51729181e-01
      4.29416835e-01 1.76683187e-01 7.71957412e-02 0. 0. 0. 0. 0. 0. 0.
      0. 0. 0. 0. 0. 0. 0. 0. 0. 0. 0. 0. 0. 0. 0. 0. 0. 0. 0. 0. 0. 0.
      0. 0. 0. 0. 0. 0. 0. 0. 0. 0. 0. 0. 0. 0. 0. 0. 0. 0. 0. 0. 0. 0.
      0. 0. 0. 0. 0. 0. 0. 0. 0. 0. 0. 0. 0. 0. 0. 0. 0. 0. 0. 0. 0. 0.
      0. 0. 0. 0. 0. 0. 0. 0. 5.53212315e-02 0. 0. 0. 6.91175461e-02
      3.73501219e-02 3.48741055e-01 2.09918559e-01 1.12647384e-01 0. 0.
      0. 0. 0. 0. 0. 0. 0. 7.69937783e-02 0. 5.43847606e-02
      3.81525576e-01 1.21516980e-01 1.61850527e-01 4.55469996e-01
      4.55469996e-01 4.55469996e-01 0. 0. 0. 0. 0. 0. 8.28524865e-03
      2.76174955e-03 0. 0. 0. 0. 0. 0. 0. 0. 0. 0. 0. 0. 0. 0. 0. 0. 0.
      0. 0. 0. 0. 0. 0. 0. 0. 0. 0. 0. 0. 0. 0. 0. 0. 0. 0. 0. 0. 0. 0.
      0. 0. 0. 0. 0. 0. 0. 0. 0. 0. 0. 0. 0. 0. 0. 0. 0. 0. 0. 0. 0. 0.
      0. 0. 0. 0. 0. 0. 0. 0. 0. 0. 0. 0. 2.33033970e-02 3.46562192e-02
      9.99598503e-02 0. 0. 0. 2.13841483e-01 7.41391554e-02
      2.42177621e-02 2.19322499e-02 1.98898494e-01 2.78650671e-01 0. 0.
      0. 2.78650671e-01 1.04552954e-01 1.97473634e-02 2.78650671e-01
      4.54994999e-02 7.63661191e-02 0. 2.78650671e-01 0. 1.45311221e-01
      9.13169235e-02 2.78650671e-01 2.78650671e-01 2.44982600e-01
      2.78650671e-01 0. 2.78650671e-01 0. 2.70914376e-01 1.50775090e-01
      2.78650671e-01 9.57920682e-03 1.99581116e-01 3.36199045e-01 0. 0.
      0. 3.36199045e-01 2.85179824e-01 1.15615390e-02 0. 0. 0. 0. 0. 0.
      1.89819589e-01 6.58107251e-02 1.52407039e-03 1.43688098e-01
      2.45823428e-01 3.36199045e-01 0. 3.36199045e-01 0. 3.36199045e-01
      3.36199045e-01 1.73423097e-01 0. 0. 0. 0. 3.79821099e-02 0.
      2.05536470e-01 1.06575094e-01 2.28610560e-02 2.22240342e-03
      9.59654972e-02 2.76795775e-01 0. 0. 0. 4.31137457e-02
      1.49475988e-02 3.46162269e-04 1.37761952e-02 2.11124063e-01
      3.02750319e-01 0. 0. 0. 3.02750319e-01 2.24213988e-01
      1.40793426e-02 3.33360508e-02 1.49047121e-01 2.80630648e-01 0.
      8.37804228e-02 0. 2.92969868e-02 1.84109043e-02 5.19243442e-03
      2.06642941e-01 3.02750319e-01 3.02750319e-01 0. 3.02750319e-01 0.
      3.02750319e-01 2.76163548e-01 2.11190134e-01 2.22273707e-01
      1.76535379e-02 1.88697986e-02 0. 3.10637563e-01 0. 2.34897900e-02
      3.21397819e-02 2.30049357e-01 2.12154001e-01 8.62237662e-02
      6.30177632e-02 0. 3.10637563e-01 0. 9.48098674e-02 6.58856705e-02
      1.93573877e-01 3.10637563e-01 5.38847223e-03 1.81320980e-02
      1.37968678e-02 3.10637563e-01 2.95152869e-02 2.07864512e-02
      5.52639598e-03 3.10637563e-01 3.10637563e-01 1.48260649e-02
      5.57653457e-02 7.91827887e-02 3.10637563e-01 4.16232273e-02
      9.51097980e-02 2.97255367e-02 3.10637563e-01 1.57267675e-01
      1.34223223e-01 9.80987921e-02 0. 3.44200373e-01 0. 3.44200373e-01
      2.99961865e-01 1.83419958e-01 2.64001172e-03 0. 0. 0.
      8.20845664e-02 0. 1.43348634e-01 8.12596753e-02 2.27465779e-02
      3.44200373e-01 2.30795071e-02 8.68090540e-02 1.23262636e-01
      3.12156588e-01 1.76128983e-01 3.44200373e-01 1.48361042e-01
      3.44200373e-01 4.63223048e-02 0. 0. 0. 1.67363547e-02
      4.06451561e-02 1.47025958e-01 4.70773913e-02 4.63223048e-02
      3.37733924e-02 1.07006192e-01 1.77603245e-01 0. 1.70747906e-01 0.
      7.19494140e-03 9.84443910e-03 9.53336153e-03 2.11129263e-01
      2.11748317e-01 3.19731265e-01 0. 3.33199203e-01 0. 1.07924104e-01
      1.47666588e-01 2.15045735e-01 9.54962224e-02 5.75914532e-02
      1.81047902e-01 5.80414906e-02 3.29773463e-02 9.04055499e-03
      6.36690576e-03 1.69273932e-03 9.54962224e-02 3.33199203e-01
      1.01458192e-01 3.22576404e-01 1.27691284e-01 3.33199203e-01
      1.35608315e-01 9.55035761e-02 2.53910888e-02 3.33199203e-01
      2.54784822e-01 2.04198994e-02 6.48584962e-02 2.52466910e-02
      2.86424279e-01 5.40096015e-02 1.20017655e-01 3.74396220e-02
      2.54784822e-01 2.86424279e-01 1.00441977e-01 2.86424279e-01
      1.44895464e-01 2.86424279e-01 7.61657432e-02 2.37713888e-01
      7.56189451e-02 2.86424279e-01 7.60101073e-04 3.87630463e-02
      1.17119640e-01 5.82615938e-03 1.40056267e-01 1.24637540e-02
      2.49302179e-01 8.25085118e-02 7.60101073e-04 2.90693995e-03
      2.21351579e-01 2.86424279e-01 3.34374160e-02 1.07846171e-01
      1.75767113e-02 2.86424279e-01 1.17877021e-01 2.90693995e-03
      2.74821073e-01 1.01379976e-01 3.24987024e-01 1.46248609e-01
      1.34497687e-01 2.08973497e-01 3.40394497e-01 2.22705156e-01
      2.74821073e-01 2.21222322e-02 0. 0. 0. 0. 4.82246540e-02
      1.87043026e-01 6.00562766e-02 2.21222322e-02 4.83749295e-03
      2.23418742e-01 3.40394497e-01 3.37496772e-02 3.10379229e-02
      4.82246540e-02 3.40394497e-01 3.24430823e-01 4.83749295e-03
      3.22499516e-04 0. 0. 0. 0. 1.11287665e-02 2.27924854e-01
      7.54461661e-02 3.22499516e-04 4.84297760e-02 8.12799409e-02
      2.53906369e-01 7.06199557e-02 0. 1.09997792e-02 2.44432017e-02
      7.62507832e-03 4.84297760e-02 2.85171270e-01 1.61351472e-01
      3.06902736e-01 1.55363902e-01 2.42139801e-01 1.64996684e-01
      3.06902736e-01 1.14376180e-01 2.85171270e-01 9.63267405e-04
      1.10038623e-01 3.06902736e-01 1.62969120e-02 0. 2.53841071e-03
      5.07737212e-02 1.68039594e-02 9.63267405e-04 4.17415891e-03
      2.40920722e-01 3.06902736e-01 3.58532071e-02 5.58784157e-02
      3.80761586e-02 3.06902736e-01 2.52059430e-01 4.17415891e-03
      2.60499101e-02 6.66808337e-02 1.25947818e-01 0. 6.30801693e-02
      7.34512359e-02 3.39834273e-01 1.52006224e-01 1.12158898e-02
      7.12322965e-02 2.21607417e-01 3.39834273e-01 3.39834273e-01
      1.64382219e-01 0. 1.29497245e-01 3.39834273e-01 2.72671998e-01
      2.59580035e-02 2.50448249e-02 1.75052825e-02 0. 7.92276412e-02
      1.12011984e-01 1.83171526e-01 5.57349250e-02 1.44204302e-02
      4.74881986e-03 1.67007729e-01 3.39834273e-01 3.30954581e-01 0. 0.
      8.69717915e-03 7.73941651e-02 4.94914688e-02 4.11152504e-02
      8.19282010e-02 2.69140512e-01 2.69140512e-01 5.75484447e-02 0.
      2.28041142e-01 2.69140512e-01 2.42364973e-01 2.70221364e-02
      6.76040128e-02 1.34586439e-01 1.35783061e-01 3.83656332e-03 0.
      2.07256541e-01 2.51410306e-01 1.18994564e-01 2.74101668e-03
      1.40834585e-01 2.69140512e-01 2.55681545e-01 0. 0. 2.69140512e-01
      2.19239086e-01 6.41045496e-02 1.12849707e-02 1.34901136e-01
      2.69140512e-01 9.70629305e-02 0. 0. 2.69140512e-01 2.20342085e-01
      4.39564660e-02 1.72675759e-01 2.66374201e-01 2.36229762e-01 0.
      1.60778668e-02 2.50376254e-01 1.45966738e-01 3.67589295e-02
      1.94942988e-02 2.15793014e-01 2.66374201e-01 1.69583082e-01 0.
      6.96707591e-02 2.66374201e-01 2.66374201e-01 9.86179113e-02
      4.28874530e-02 5.65653257e-02 2.46196046e-01 2.66374201e-01 0. 0.
      1.58114865e-01 2.66374201e-01 1.10994175e-01 1.29961979e-03
      5.06339408e-02 1.51037097e-01 2.14480415e-01 0. 0. 2.41028681e-01
      2.66374201e-01 1.29223734e-01 2.85916380e-03 2.09772866e-03 0. 0.
      0. 1.45374360e-02 2.02850737e-02 1.48946010e-02 4.00101999e-03
      2.09772866e-03 1.37558784e-02 1.71608672e-01 3.53560239e-01
      1.52257485e-02 0. 0. 0. 0. 9.71048418e-03 1.70439005e-01
      1.70400321e-01 1.41385794e-01 0. 3.42979208e-02 3.30947898e-02
      2.51757372e-02 6.81941165e-03 9.64006707e-02 3.53560239e-01
      3.53560239e-01 3.53560239e-01 0. 3.53560239e-01 2.79796302e-01
      2.30176687e-01 6.34310171e-02 3.53560239e-01 7.37921335e-03
      1.66236565e-01 2.80029595e-01 1.47491153e-02 0. 0. 2.80029595e-01
      1.18646771e-01 3.46045964e-03 2.01194920e-03 1.36091873e-01
      2.80029595e-01 6.70414325e-03 0. 0. 2.80029595e-01 1.52545825e-01
      2.30697304e-04 2.28182346e-01 2.80029595e-01 2.80029595e-01 0.
      1.71591386e-01 1.89869285e-01 2.80029595e-01 1.28100768e-01
      1.27146915e-01 4.05606180e-02 1.63894907e-01 2.80029595e-01
      2.20891815e-02 6.41577393e-02 1.09757319e-01 2.80029595e-01
      1.48799673e-01 1.38418386e-02 9.84324957e-04 1.60834059e-01
      2.74260551e-01 0. 0. 1.03961518e-02 2.74260551e-01 1.37354702e-01
      3.74652422e-03 4.26540803e-03 7.31064007e-02 2.19319180e-01 0. 0.
      1.33664794e-02 2.74260551e-01 1.50652885e-01 7.81680644e-03
      3.64814699e-02 1.57990783e-01 2.74260551e-01 1.47569582e-01
      8.63714516e-02 0. 2.74260551e-01 1.88255787e-01 8.15045238e-02
      1.79198608e-01 9.22686160e-02 2.74260551e-01 1.80196360e-01
      1.95795193e-01 0. 2.74260551e-01 2.74260551e-01 2.74260551e-01
      9.97597054e-02 1.29037976e-01 1.48399904e-01 2.16972306e-02
      6.59794211e-02 5.82982115e-02 2.63809562e-02 2.90997624e-02
      6.52089119e-02 2.75460720e-01 2.75460720e-01 1.95958301e-01
      3.11666206e-02 2.75460720e-01 2.33444035e-01 1.58393204e-01
      1.10975482e-01 2.03238666e-01 7.33387396e-02 9.98797417e-02
      2.07801208e-01 2.21270621e-01 8.75581354e-02 5.40682897e-02
      1.93617512e-02 9.28258151e-02 1.02056772e-01 1.28373563e-01
      1.23025678e-01 2.68730253e-01 2.75460720e-01 2.12907031e-01
      1.52379423e-01 8.30264241e-02 2.75460720e-01 2.75460720e-01
      2.67232627e-01 2.55832613e-01 1.90607950e-01 8.30840226e-03
      2.85121053e-01 2.85121053e-01 2.85121053e-01 1.27184227e-01
      1.73546046e-01 3.80578004e-02 8.91349763e-02 1.64190561e-01
      2.93057691e-02 1.51900843e-01 1.73810303e-01 2.39413872e-01
      7.15460181e-02 1.65575799e-02 1.02098063e-01 3.03429179e-02
      8.94044787e-02 2.85121053e-01 1.91306800e-01 1.11387901e-01
      6.44435063e-02 2.85121053e-01 2.85121053e-01 1.67577282e-01
      1.61857728e-03 6.96346629e-03 1.47863887e-02 4.16311361e-02
      2.33465284e-02 8.80181324e-03 5.66980727e-02 2.00534895e-01
      2.98195258e-02 5.69798946e-02 1.94284439e-01 1.73820004e-01
      1.57405317e-01 0. 1.04840353e-01 8.09893310e-02 5.71864247e-02
      2.02032611e-01 1.27326488e-01 2.57013649e-01 2.90008098e-01
      2.90008098e-01 1.63747445e-02 1.78544924e-01 2.71917552e-01
      2.90008098e-01 1.53134272e-01 1.07736923e-01 8.94280802e-03
      2.48221047e-02 4.78648841e-02 3.66636030e-02 8.77209008e-03
      1.56564440e-03 8.97387639e-02 2.90008098e-01 2.90008098e-01
      8.38372707e-02 1.38779670e-01 2.05640286e-01 2.90008098e-01
      1.59057125e-01 6.29673898e-02 1.01284720e-01 0. 0. 0. 0. 0. 0. 0.
      0. 0. 0. 0. 0. 0. 5.42874783e-02 0. 0. 0. 0. 3.25397015e-01
      2.56856531e-01 2.47094885e-01 1.29829779e-01 0. 1.28246844e-01
      2.46199578e-01 2.61884451e-01 3.25397015e-01 3.25397015e-01
      2.78903127e-01 2.64396995e-01 8.42594430e-02 1.55565441e-01
      1.69522822e-01 2.07950801e-01 1.99426517e-01 3.25397015e-01 0. 0.
      0. 0. 1.88894272e-01 0. 0. 0. 0. 0. 0. 0. 0. 3.32192123e-01 0. 0.
      0. 0. 3.76425683e-01 7.34757408e-02 7.94629976e-02 1.04635777e-02
      3.64995778e-01 5.89964017e-02 4.20113131e-02 3.79660800e-02
      3.76425683e-01 3.76425683e-01 0. 0. 0. 3.76425683e-01 0. 0. 0.
      3.76425683e-01 0. 0. 0. 0. 2.89766192e-01 0. 0. 0. 0. 0. 0. 0. 0.
      1.53019428e-01 0. 0. 0. 0. 3.74500811e-01 0. 9.65514802e-04
      6.77337963e-03 3.74500811e-01 0. 7.53021659e-03 2.51007220e-03
      3.74500811e-01 3.74500811e-01 9.83116105e-02 1.02064975e-01
      1.19066134e-01 3.27694207e-01 3.20451409e-02 1.69299066e-01
      1.61831766e-01 3.74500811e-01 2.39744216e-01 1.82283506e-01
      2.08384588e-01 1.41650185e-01 2.39744216e-01 1.39923170e-01
      2.06652254e-01 1.85263127e-01 2.39744216e-01 2.39744216e-01
      1.93711862e-01 2.07562551e-01 9.19308960e-02 2.39744216e-01
      1.84957102e-01 1.86670050e-01 1.44865811e-01 2.39744216e-01
      8.26471448e-02 9.29671153e-02 1.31579757e-01 1.10172376e-01
      2.39744216e-01 1.08829133e-01 1.29855976e-01 9.40358788e-02
      8.35958794e-02 9.09816548e-02 9.55650508e-02 1.21124968e-01
      7.15018064e-02 2.39744216e-01 1.43855557e-01 1.25150904e-01
      7.64410645e-02 8.07544515e-02 3.40363562e-01 7.27866068e-02
      8.45526159e-02 1.64888129e-02 3.40363562e-01 9.29682553e-02
      5.89898787e-02 4.08280902e-02 3.40363562e-01 3.40363562e-01 0. 0.
      0. 3.40363562e-01 0. 0. 0. 3.40363562e-01 9.85261351e-02
      3.51872854e-02 4.55001220e-02 1.28246322e-02 3.40363562e-01
      7.23086372e-02 4.22871746e-02 2.22882424e-02 9.31196436e-02
      1.09440893e-01 0. 0. 0. 3.40363562e-01 0. 0. 0. 1.09440893e-01
      3.18534762e-01 0. 1.41112052e-03 9.89943836e-03 3.18534762e-01 0.
      6.67521730e-03 2.22507236e-03 3.18534762e-01 3.18534762e-01
      9.66312736e-02 1.28683075e-01 1.74017698e-01 3.18534762e-01
      4.68346588e-02 1.71312869e-01 1.49660200e-01 3.18534762e-01
      9.25214067e-02 0. 1.09753804e-03 7.69956224e-03 3.18534762e-01 0.
      3.03418958e-03 1.01139653e-03 9.25214067e-02 1.02253072e-01
      5.17128706e-02 8.98789167e-02 1.35347098e-01 3.18534762e-01
      3.64269577e-02 9.53150690e-02 7.31232539e-02 1.11201078e-01 0. 0.
      0. 0. 7.08138645e-01 0. 0. 0. 0. 0. 0. 0. 0. 7.08138645e-01 0. 0.
      0. 0. 0. 0. 0. 0. 0. 0. 0. 0. 0. 0. 0. 0. 0. 0. 0. 0. 0. 0. 0. 0.
      0. 0. 9.96845841e-01 0. 0. 0. 0. 0. 0. 0. 0. 0. 0. 0. 0. 0. 0. 0.
      0. 0. 0. 0. 0. 0. 0. 0. 0. 0. 0. 0. 0. 0. 0. 0. 0. 0. 0. 0. 0. 0.
      0. 0. 0. 0. 0. 0. 0. 1. 0. 0. 0. 0. 0. 0. 0. 0. 0. 0. 0. 0. 0. 0.
      0. 0. 0. 0. 0. 0. 0. 0. 0. 0. 0. 0. 0. 0. 0. 0. 0. 0. 0. 0. 0. 0.
      0. 0. 0. 0. 0. 0. 0. 0. 0. 0. 0. 0. 0. 0. 0. 0. 0. 0. 0. 0. 0. 0.
      0. 0. 0. 0. 0. 0. 0. 0. 0. 0. 0. 0. 0. 0. 0. 0. 0. 0. 0. 0. 0. 0.
      0. 0. 0. 0. 0. 0. 0. 0. 0. 0. 0. 0. 0. 0. 0. 0. 0. 0. 0. 0. 0. 0.
      0. 0. 0. 0. 0. 0. 0. 0. 0. 0. 0. 0. 0. 0. 0. 0. 0. 0. 0. 0. 0. 0.
      0. 0. 0. 0. 0. 0. 0. 0. 0. 0. 0. 0. 0. 0. 0. 0. 0. 0. 0. 0. 0. 0.
      0. 0. 0. 0. 0. 0. 0. 0. 0. 0. 0. 0. 0. 0. 0. 0. 0. 0. 0. 0. 0. 0.
      0. 0. 0. 0. 0. 0. 0. 0. 0. 0. 0. 0. 0. 0. 0. 0. 0. 0. 0. 0. 0. 0.
      0. 0. 0. 0. 0. 0. 0. 0. 0. 0. 0. 0. 0. 0. 0. 0. 0. 0. 0. 0. 0. 0.
      0. 0. 0. 0. 0. 0. 0. 0. 0. 0. 0. 0. 0. 0. 0. 0. 0. 0. 0. 0. 0. 0.
      0. 0. 0. 0. 0. 0. 0. 0. 0. 0. 0. 0. 0. 0. 0. 0. 0. 0. 0. 0. 0. 0.
      0. 0. 0. 0. 0. 0. 0. 0. 0. 0. 0. 0. 0. 0. 0. 0. 0. 0. 0. 0. 0. 0.
      0. 0. 0. 0. 0. 0. 0. 0. 0. 0. 0. 0. 0. 0. 0. 0. 0. 0. 0. 0. 0. 0.
      0. 0. 0. 0. 0. 0. 0. 0. 0. 0. 0. 0. 0. 0. 0. 0. 0. 0. 0. 0. 0. 0.
      0. 0. 0. 0. 0. 0. 0. 0. 0. 0. 0. 0. 0. 0. 0. 0. 0. 0. 0. 0. 0. 0.
      0. 0.</_>
    <_>
      2.05700427e-01 1.04717232e-01 6.14836179e-02 3.48387263e-03
      8.80818292e-02 6.98625594e-02 8.20313841e-02 2.86319777e-02
      1.57783374e-01 2.61712551e-01 2.50493288e-01 2.15306673e-02 0.
      2.41184995e-01 1.93372190e-01 4.78249118e-02 6.75354479e-03
      2.11373314e-01 2.61712551e-01 1.84425414e-01 1.34502262e-01
      5.22580929e-02 2.61712551e-01 2.61712551e-01 1.67788371e-01
      5.16358763e-02 2.32883766e-01 2.61712551e-01 2.10644320e-01
      3.09250373e-02 0. 2.61712551e-01 2.61712551e-01 8.65912661e-02
      1.30780339e-02 1.64674923e-01 2.50507027e-01 2.50507027e-01
      4.04992253e-02 8.76289904e-02 1.81400925e-01 2.50507027e-01
      9.28970203e-02 7.79415891e-02 1.60959855e-01 1.99977934e-01
      1.30260468e-01 1.11008890e-01 2.50507027e-01 2.03077063e-01
      1.41894296e-01 5.94376959e-02 2.50507027e-01 2.50507027e-01
      1.50987193e-01 1.68497860e-01 2.41406001e-02 8.00420940e-02
      2.50507027e-01 2.50507027e-01 6.68543503e-02 2.94569880e-02
      6.54387176e-02 7.44181797e-02 5.44377565e-02 7.77750760e-02
      2.50507027e-01 2.50507027e-01 1.33688688e-01 3.68800201e-02
      1.90592319e-01 1.58233270e-01 1.78007692e-01 6.60136482e-03
      4.79623936e-02 1.97539002e-01 2.21157238e-01 0. 1.21922949e-02
      2.49751344e-01 2.60307372e-01 1.88768163e-01 8.73411726e-03
      3.83842029e-02 8.54593739e-02 1.21507980e-01 2.92684254e-03
      6.90969154e-02 1.27925232e-01 2.51851618e-01 1.27339974e-01
      8.96268431e-03 6.94180354e-02 2.60307372e-01 2.60307372e-01 0.
      1.56758074e-02 1.86950818e-01 2.36486465e-01 2.49801457e-01
      3.78478467e-02 1.63268164e-01 2.60307372e-01 2.60307372e-01
      4.39026393e-02 1.42854467e-01 2.17886895e-01 2.60307372e-01
      1.83687553e-01 1.24004133e-01 1.25272736e-01 1.05054885e-01
      3.12487006e-01 3.12487006e-01 1.92264080e-01 5.16160429e-02
      1.35793969e-01 3.91532965e-02 5.43477722e-02 1.74255259e-02 0.
      3.12487006e-01 2.38529623e-01 7.49009997e-02 1.36332484e-02
      1.00000910e-02 3.12487006e-01 8.87767822e-02 8.11181590e-02
      6.84842169e-02 2.29411796e-01 8.59287102e-03 1.10462904e-01
      2.92361617e-01 3.12487006e-01 2.15753704e-01 1.58568984e-03
      9.19439550e-03 3.11291907e-02 1.63637884e-02 0. 3.46074738e-02
      1.28885865e-01 2.86235482e-01 0. 0. 7.30830804e-03 5.12699895e-02
      3.97749394e-01 3.30002367e-01 4.70402576e-02 0. 0. 0. 0.
      4.89644594e-02 3.43500525e-01 3.97749394e-01 1.00616336e-01
      1.43423770e-02 0. 0. 3.22289765e-01 0. 0. 0. 0. 0. 0.
      2.09364668e-02 3.34864497e-01 3.38129550e-01 0. 0. 0. 0. 0. 0. 0.
      3.38129550e-01 2.72221770e-03 8.46945494e-03 5.24827242e-02
      1.89934865e-01 3.25567722e-01 0. 7.33277155e-03 3.51285338e-02
      2.23527811e-02 1.31622419e-01 4.81253415e-02 2.13324472e-01
      3.25567722e-01 3.25567722e-01 9.20387283e-02 1.32209510e-01
      1.47595212e-01 1.96427584e-01 2.25209638e-01 9.00265202e-02
      2.14993861e-02 0. 4.45453869e-03 1.93385575e-02 2.75661866e-03 0.
      1.75442994e-01 3.25567722e-01 3.25567722e-01 1.22164339e-01 0.
      2.28457674e-01 8.38004127e-02 8.58268216e-02 8.15661922e-02
      3.25567722e-01 2.16289312e-01 6.79968372e-02 1.28442183e-01
      1.62123501e-01 2.62870133e-01 1.18192276e-02 1.05337024e-01
      2.21168935e-01 2.62870133e-01 2.46172234e-01 8.26264359e-03
      5.42180240e-02 2.06461012e-01 2.39392623e-01 0. 3.23451199e-02
      2.04310626e-01 2.62870133e-01 8.16954598e-02 3.62383686e-02
      1.08840331e-01 1.60597965e-01 2.62870133e-01 9.19273309e-03
      9.44767073e-02 1.15690470e-01 1.27970159e-01 1.75362065e-01
      9.52385738e-03 8.92628431e-02 2.62870133e-01 2.62870133e-01 0.
      2.81746984e-02 1.97508022e-01 2.62870133e-01 1.44852832e-01
      4.39481363e-02 2.81401128e-02 1.44750461e-01 6.27911910e-02
      1.57619920e-02 1.57586504e-02 1.67570516e-01 2.17899650e-01
      2.38026068e-01 1.89418137e-01 2.15675384e-02 3.54486965e-02
      5.27136177e-02 1.61599010e-01 3.35443839e-02 7.31188729e-02
      1.69377789e-01 1.64753824e-01 8.70155171e-02 1.04697719e-01
      2.60879874e-01 2.60879874e-01 9.84432474e-02 7.25839734e-02
      2.60879874e-01 2.60879874e-01 2.60879874e-01 2.60879874e-01
      9.68927592e-02 1.77697495e-01 2.60879874e-01 2.60879874e-01
      1.28116265e-01 1.38881132e-01 2.06558928e-01 2.63651758e-01
      1.79514781e-01 2.15031281e-02 0. 1.82830736e-01 1.83591932e-01
      3.86239886e-02 4.15128004e-03 2.08107531e-01 2.63651758e-01
      2.47475401e-01 9.81362686e-02 0. 2.63651758e-01 1.97017983e-01
      1.41400635e-01 6.55148551e-02 2.46332854e-01 2.63651758e-01
      1.97959051e-01 2.61906497e-02 0. 2.63651758e-01 2.63651758e-01
      7.70246983e-02 5.33736032e-03 1.58816203e-01 1.63082480e-01
      1.16762273e-01 4.46073934e-02 0. 2.63651758e-01 1.99914128e-01
      1.24859758e-01 3.85231376e-02 1.05729535e-01 1.33985221e-01
      2.58870870e-02 5.73415905e-02 9.73573253e-02 5.33957444e-02
      8.87183007e-03 1.11061208e-01 2.23018080e-01 2.39104345e-01
      3.85219306e-02 1.62909999e-02 1.91522706e-02 4.98267170e-03
      5.55939041e-04 2.20823451e-03 3.57735157e-02 4.06819992e-02
      4.97646406e-02 1.77098721e-01 9.48822498e-02 2.72398263e-01
      2.72398263e-01 2.72398263e-01 1.95180271e-02 2.72398263e-01
      2.72398263e-01 2.72398263e-01 2.37887532e-01 2.10201293e-01
      2.24921644e-01 9.25280377e-02 4.02290337e-02 8.01507905e-02
      2.60055542e-01 2.46753752e-01 2.52454311e-01 1.11776426e-01
      3.71575467e-02 3.07336990e-02 5.41777583e-03 6.32236153e-03
      9.75199882e-03 3.69482534e-03 8.17834865e-03 9.99081805e-02
      1.30148828e-01 1.46549093e-02 8.61318875e-03 1.19191064e-02
      8.12875014e-03 7.58488895e-03 3.56520526e-02 4.36340831e-02
      1.42017111e-01 2.72891313e-01 2.72891313e-01 2.72891313e-01
      1.05077244e-01 9.48354155e-02 2.53894597e-01 2.03563243e-01
      1.00099102e-01 2.65391260e-01 2.72891313e-01 1.59596860e-01
      2.72891313e-01 2.72891313e-01 1.21931240e-01 1.56358987e-01
      2.72891313e-01 2.72891313e-01 2.72891313e-01 3.90508585e-02
      1.87184457e-02 2.09567193e-02 2.79827602e-03 1.15750614e-03
      8.87904200e-04 2.21889112e-02 1.97832398e-02 3.93891893e-02
      2.49842390e-01 2.36678302e-01 1.09088726e-01 0. 4.75874320e-02
      9.58009809e-02 5.21385670e-02 1.28275333e-02 1.29530802e-01
      2.06258848e-01 1.67356029e-01 2.08305538e-01 9.90921631e-02
      3.72007005e-02 4.27508205e-02 2.28495717e-01 2.36881763e-01
      2.42366850e-01 2.88232088e-01 2.88232088e-01 2.88232088e-01 0.
      2.85643131e-01 2.88232088e-01 2.88232088e-01 9.46777761e-02
      2.02352375e-01 8.82002860e-02 7.14579150e-02 2.58675486e-01
      2.58675486e-01 2.58675486e-01 3.36803077e-03 1.85619712e-01
      2.58675486e-01 2.18367666e-01 2.58675486e-01 2.29479387e-01
      1.61792636e-01 1.39633358e-01 2.58675486e-01 1.52391016e-01
      1.59354895e-01 1.94142163e-01 2.58675486e-01 3.51623185e-02
      2.79578418e-02 1.05377100e-01 1.50854066e-01 2.23244280e-01 0.
      1.44690588e-01 1.53806970e-01 9.85729843e-02 1.23182915e-01
      7.56842867e-02 3.90594825e-02 7.61364773e-02 2.58675486e-01
      9.34169739e-02 2.61991154e-02 4.99921218e-02 1.10819817e-01
      2.32000440e-01 2.42084160e-01 2.26458564e-01 9.26541314e-02
      2.42084160e-01 2.42084160e-01 2.16053620e-01 8.40559676e-02
      1.05156913e-01 1.20299563e-01 1.25309989e-01 2.42084160e-01
      2.42084160e-01 2.42084160e-01 1.54323727e-01 2.42084160e-01
      2.42084160e-01 2.42084160e-01 7.24273399e-02 8.75301883e-02
      3.12986672e-02 3.63316201e-02 2.42084160e-01 1.83168024e-01
      6.66313097e-02 2.12761667e-02 2.97511742e-02 2.93377936e-02
      2.99563091e-02 8.06213543e-02 2.14525044e-01 2.42084160e-01
      6.76887333e-02 4.52886522e-02 9.82230380e-02 7.32229203e-02
      2.31156096e-01 1.48736432e-01 1.45932615e-01 1.82688087e-01
      2.61216074e-01 8.67698938e-02 1.38851121e-01 2.45511010e-01
      2.61216074e-01 2.61216074e-01 2.61216074e-01 1.73310250e-01 0.
      2.61216074e-01 2.61216074e-01 2.61216074e-01 8.73117447e-02
      1.28265858e-01 9.12403986e-02 4.02963683e-02 3.04318462e-02
      1.11312859e-01 2.61216074e-01 5.28527349e-02 2.49937586e-02
      7.86295086e-02 1.13684148e-01 1.05375379e-01 1.29181981e-01
      1.15936354e-01 0. 2.61216074e-01 1.45834655e-01 1.00088723e-01
      2.86994148e-02 5.23590557e-02 1.24168552e-01 3.35793681e-02
      1.16335176e-01 1.09418198e-01 1.01415388e-01 0. 2.96779513e-01
      2.78531939e-01 2.26141959e-01 2.00397633e-02 2.34388001e-03
      7.94634502e-03 6.41693268e-03 1.22458547e-01 0. 3.05212382e-02
      4.14779000e-02 3.88414115e-02 1.93276376e-01 1.38979033e-01
      2.96779513e-01 2.96779513e-01 2.41606817e-01 0. 2.96779513e-01
      2.96779513e-01 2.96779513e-01 4.10522744e-02 2.83655357e-02
      9.40911621e-02 6.30994886e-02 0. 0. 2.96779513e-01 2.20849216e-01
      1.03097506e-01 0. 0. 0. 0. 7.08138645e-01 0. 0. 0. 0. 0. 0. 0. 0.
      7.08138645e-01 0. 0. 0. 0. 0. 0. 0. 0. 0. 0. 0. 0. 0. 0. 0. 0. 0.
      0. 0. 0. 0. 0. 1.98646672e-02 2.22848281e-02 2.03422438e-02 0.
      1.12313390e-01 1.16014911e-03 2.63092015e-03 8.21848924e-04
      1.05527490e-02 2.39825487e-01 2.83073217e-01 3.12524498e-01 0.
      1.17532007e-01 8.56516808e-02 4.91924360e-02 1.23277334e-02
      1.32377163e-01 5.67553416e-02 1.42262042e-01 2.59260178e-01 0. 0.
      1.74022354e-02 3.23185436e-02 9.94597841e-03 2.32160483e-02
      3.19217473e-01 3.19217473e-01 3.19217473e-01 0. 2.16451228e-01
      3.19217473e-01 3.19217473e-01 1.49189696e-01 2.12008178e-01
      1.59581751e-01 2.78000146e-01 2.78000146e-01 9.51229781e-03
      9.47593227e-02 2.49091253e-01 2.78000146e-01 1.78452060e-01
      7.41302520e-02 2.00225897e-02 4.28593718e-02 4.52912748e-02
      6.34153199e-04 4.30724211e-02 8.66913199e-02 2.78000146e-01
      1.00608207e-01 9.88338515e-03 4.85628620e-02 1.81557313e-01
      2.78000146e-01 2.78000146e-01 7.37016946e-02 1.51547268e-01
      2.78000146e-01 2.78000146e-01 2.62078404e-01 5.40301856e-03
      1.15960855e-02 2.08136346e-02 6.43612072e-02 3.35007720e-02
      4.82491478e-02 2.02834338e-01 2.05445737e-01 8.49303380e-02 0. 0.
      0. 0. 0. 0. 0. 0. 0. 0. 0. 0. 0. 0. 0. 0. 0. 0. 0. 0. 0. 0. 0. 0.
      0. 0. 0. 0. 0. 0. 0. 0. 0. 0. 0. 0. 2.69424054e-03 6.52989969e-02
      1.88772514e-01 4.44281884e-02 2.56756842e-02 0. 1.49691487e-02
      1.22658135e-02 4.37010964e-03 7.74654150e-02 2.11949706e-01
      2.92974889e-01 2.89174497e-01 1.11261308e-01 9.45054926e-03
      2.92974889e-01 2.92974889e-01 1.67286113e-01 4.20479625e-02
      1.11647785e-01 1.28213510e-01 2.31234897e-02 1.99699774e-02
      1.56330429e-02 6.08297344e-03 2.96395202e-03 1.00848696e-03
      2.92974889e-01 2.92974889e-01 2.92974889e-01 1.75375834e-01
      8.65365639e-02 2.92974889e-01 2.92974889e-01 1.72651485e-01
      5.02646118e-02 0. 1.22168086e-01 2.92910010e-01 2.92910010e-01 0.
      0. 2.92910010e-01 2.92910010e-01 1.58591583e-01 0. 2.16010828e-02
      7.52990767e-02 7.36313909e-02 0. 0. 2.92910010e-01 1.99015141e-01
      5.74489012e-02 1.40875563e-01 2.92910010e-01 2.92910010e-01
      4.72456813e-02 0. 2.05560043e-01 2.92910010e-01 1.82729095e-01
      3.53981974e-03 2.39619203e-02 7.43083507e-02 1.04610473e-01
      9.63299721e-03 0. 7.64461011e-02 2.92910010e-01 1.40217602e-01
      1.60900888e-03 0. 0. 0. 0. 0. 0. 0. 0. 0. 0. 0. 0. 0. 0. 0. 0. 0.
      0. 0. 0. 0. 0. 0. 0. 0. 0. 0. 0. 0. 0. 0. 0. 0. 0. 0. 0.
      2.97885407e-02 1.20979771e-01 2.14148089e-01 0. 0. 1.95865370e-02
      2.39281096e-02 7.04538031e-03 0. 1.81601673e-01 3.08570266e-01
      3.08570266e-01 0. 0. 3.08570266e-01 3.08570266e-01 1.29902810e-01
      0. 9.44625004e-04 9.77000967e-02 2.94127792e-01 4.03086320e-02 0.
      2.97362846e-03 3.40956263e-02 2.23505534e-02 6.68279035e-03
      4.09337506e-03 2.18295500e-01 3.08570266e-01 2.35627517e-01 0.
      5.21760359e-02 3.08570266e-01 3.08570266e-01 1.51209086e-01
      1.94658861e-01 2.75539458e-01 2.75539458e-01 4.79603559e-02 0.
      2.75539458e-01 2.75539458e-01 1.88109547e-01 5.71180955e-02
      2.93000098e-02 5.71808591e-02 2.58639324e-02 4.71704919e-03 0.
      1.59865722e-01 2.11346596e-01 9.13948119e-02 1.71426497e-02
      4.76617664e-02 1.81183755e-01 2.75539458e-01 2.75539458e-01 0.
      2.18405440e-01 2.75539458e-01 2.75539458e-01 2.35028297e-01
      5.65557275e-03 1.59748364e-02 3.03804632e-02 7.50991628e-02 0.
      6.85350597e-02 2.03867972e-01 1.99194089e-01 8.07790309e-02 0. 0.
      0. 0. 0. 0. 0. 0. 0. 0. 0. 0. 0. 0. 0. 0. 0. 0. 0. 0. 0. 0. 0. 0.
      0. 0. 0. 0. 0. 0. 0. 0. 0. 0. 0. 0. 7.78049370e-03 5.58853634e-02
      1.40364289e-01 8.11747983e-02 0. 7.05145765e-04 8.41270480e-03
      1.53809674e-02 7.57385744e-03 6.57285526e-02 2.20790118e-01
      2.91676581e-01 2.91676581e-01 0. 4.88852374e-02 2.78596431e-01
      2.91676581e-01 2.07836539e-01 4.08850349e-02 1.11877918e-01
      1.36026025e-01 3.23368534e-02 0. 1.90761928e-02 9.21131019e-03
      4.07851674e-03 1.14986312e-03 2.71725565e-01 2.91676581e-01
      2.91676581e-01 2.51699328e-01 0. 2.91676581e-01 2.91676581e-01
      1.77818224e-01 4.94791456e-02 4.09640223e-01 4.09640223e-01
      2.20436510e-02 0. 4.09640223e-01 4.09640223e-01 4.09640223e-01
      7.06912875e-02 6.31018505e-02 2.82777790e-02 4.87773605e-02
      5.08699566e-03 0. 0. 2.93875247e-01 1.39709115e-01 3.26062031e-02
      0. 1.14584500e-02 1.46118477e-02 0. 0. 1.59340203e-01
      1.44956976e-01 2.06629243e-02 0. 2.68241507e-03 0. 0. 0. 0. 0.
      9.48098674e-03 1.35146920e-03 0. 0. 0. 0. 0. 0. 0. 0. 0. 0. 0. 0.
      0. 0. 0. 0. 0. 0. 0. 0. 0. 0. 0. 0. 0. 0. 0. 0. 0. 0. 0. 0. 0. 0.
      0. 0. 0. 0. 0. 2.47356649e-02 9.32874158e-02 1.33854836e-01 0. 0.
      1.80090801e-03 1.20953303e-02 6.90405024e-03 4.02644239e-02
      8.06605518e-02 4.40638661e-01 4.40638661e-01 3.89744610e-01 0.
      2.70136185e-02 4.40638661e-01 4.40638661e-01 0. 0. 2.10971863e-04
      1.48003141e-03 0. 0. 0. 0. 0. 1.54160778e-03 0. 2.14118678e-02
      1.50210738e-01 1.32173955e-01 0. 0. 1.33284004e-02 9.54680424e-03
      0. 0. 0. 0. 0. 0. 0. 0. 0. 0. 0. 0. 0. 0. 0. 0. 0. 0. 0. 0. 0. 0.
      0. 0. 0. 0. 0. 0. 0. 0. 0. 0. 0. 0. 0. 0. 0. 0. 0. 0. 0. 0. 0. 0.
      0. 0. 0. 0. 0. 0. 0. 0. 0. 0. 0. 0. 0. 0. 0. 0. 0. 0. 0. 0. 0. 0.
      0. 0. 0. 0. 0. 0. 0. 0. 0. 0. 0. 0. 0. 0. 0. 0. 0. 0. 0. 0. 0. 0.
      0. 0. 0. 0. 0. 0. 0. 0. 0. 0. 0. 0. 0. 0. 0. 0. 0. 0. 0. 0. 0. 0.
      0. 0. 0. 0. 0. 0. 0. 0. 0. 0. 0. 0. 0. 0. 0. 0. 0. 0. 0. 0. 0. 0.
      0. 0. 0. 0. 0. 0. 0. 0. 0. 0. 0. 0. 0. 0. 0. 0. 0. 0. 0. 0. 0. 0.
      0. 0. 0. 0. 0. 0. 0. 0. 0. 0. 0. 0. 0. 0. 0. 0. 0. 0. 0. 0. 0. 0.
      0. 0. 0. 0. 0. 0. 0. 0. 0. 0. 0. 0. 0. 0. 0. 0. 0. 0. 0. 0. 0. 0.
      0. 0. 0. 0. 0. 0. 0. 0. 0. 0. 0. 0. 0. 0. 0. 0. 0. 0.
      1.68309249e-02 1.24599896e-01 2.89730698e-01 0. 6.55480772e-02 0.
      4.14218068e-01 4.14218068e-01 5.83199225e-02 0. 0. 0. 0. 0. 0. 0.
      0. 0. 3.70280333e-02 9.93939564e-02 1.13230027e-01 0.
      4.14218068e-01 0. 4.14218068e-01 4.14218068e-01 1.28303811e-01 0.
      0. 0. 0. 0. 0. 0. 0. 0. 0. 0. 0. 0. 0. 0. 0. 0. 0. 0. 0. 0. 0. 0.
      0. 0. 0. 0. 0. 0. 0. 0. 0. 0. 0. 0. 0. 0. 0. 0. 0. 0. 0. 0. 0. 0.
      0. 0. 0. 0. 0. 0. 0. 0. 0. 0. 0. 0. 0. 0. 0. 0. 0. 0. 0. 0. 0. 0.
      0. 0. 0. 0. 0. 0. 0. 0. 0. 0. 0. 0. 0. 0. 2.18174979e-02
      4.15880717e-02 1.57876723e-02 0. 4.29844201e-01 0. 4.29844201e-01
      3.10102910e-01 7.55986273e-02 0. 0. 0. 0. 0. 0. 0. 0. 0.
      3.90362293e-01 0. 5.93509106e-03 4.16364595e-02 0. 1.44272134e-01
      4.29844201e-01 1.40460327e-01 3.90362293e-01 0. 0. 0. 0. 0. 0. 0.
      0. 0. 0. 0. 0. 0. 0. 0. 0. 0. 0. 0. 0. 0. 0. 0. 0. 0. 0. 0. 0. 0.
      0. 0. 0. 0. 0. 0. 0. 0. 0. 0. 0. 0. 0. 0. 0. 0. 0. 0. 0. 0. 0. 0.
      0. 0. 0. 0. 0. 0. 0. 0. 0. 0. 0. 0. 0. 0. 0. 0. 0. 0. 0. 0. 0. 0.
      0. 0. 0. 0. 0. 0. 0. 0. 2.82358348e-01 2.62723770e-02
      8.94242749e-02 7.44122863e-02 0. 2.57841736e-01 4.19053108e-01
      2.43291900e-01 2.82358348e-01 0. 0. 0. 0. 0. 0. 0. 0. 0.
      7.97796398e-02 1.08587086e-01 3.34011257e-01 5.78762218e-02 0.
      2.00543568e-01 4.19053108e-01 4.19053108e-01 7.97796398e-02 0. 0.
      0. 0. 0. 0. 0. 0. 0. 0. 0. 0. 0. 0. 0. 0. 0. 0. 0. 0. 0. 0. 0. 0.
      0. 0. 0. 0. 0. 0. 0. 0. 0. 0. 0. 0. 0. 0. 0. 0. 0. 0. 0. 0. 0. 0.
      0. 0. 0. 0. 0. 0. 0. 0. 0. 0. 0. 0. 0. 0. 0. 0. 0. 0. 0. 0. 0. 0.
      0. 0. 0. 0. 0. 0. 0. 0. 0. 0. 0. 0. 0. 2.08042845e-01
      2.68499758e-02 1.09846696e-01 2.05525637e-01 2.68144310e-01 0.
      9.44281965e-02 1.68023318e-01 2.68144310e-01 1.82872683e-01
      2.23649703e-02 1.28042802e-01 2.68144310e-01 1.86962873e-01 0.
      9.53943357e-02 2.68144310e-01 2.68144310e-01 2.03291196e-02
      2.61327773e-02 9.65824798e-02 1.27567321e-01 2.12186217e-01 0.
      1.68217197e-01 1.00966625e-01 4.72931229e-02 5.32898121e-02
      3.93679626e-02 1.97006628e-01 2.68144310e-01 2.68144310e-01 0.
      4.91973124e-02 2.68144310e-01 2.10236967e-01 1.15010671e-01
      6.30806154e-03 4.52168062e-02 1.84450746e-01 4.71080579e-02 0.
      7.23328814e-02 2.69304425e-01 2.62276769e-01 1.13876276e-01 0.
      2.90739466e-03 2.03962550e-02 2.23014206e-02 0. 1.04135824e-02
      6.99770451e-02 1.53820455e-01 1.71486035e-01 1.90624334e-02
      1.10396437e-01 2.86286533e-01 2.86286533e-01 0. 6.42971471e-02
      2.74883896e-01 2.86286533e-01 2.50527769e-01 0. 9.04352888e-02
      2.86286533e-01 2.86286533e-01 0. 1.33888926e-02 2.86286533e-01
      2.86286533e-01 7.18694106e-02 0. 2.98267906e-03 2.09243950e-02
      5.48392488e-03 0. 0. 1.00905016e-01 1.32474169e-01 0. 0. 0. 0. 0.
      0. 0. 6.73311763e-03 4.04398981e-03 1.58112705e-01 0.
      1.74241379e-01 4.54143405e-01 8.22588652e-02 0. 1.42887067e-02
      4.54143405e-01 4.54143405e-01 0. 0. 2.43203267e-02 1.70614451e-01
      0. 0. 3.14351581e-02 4.40102190e-01 2.58037180e-01 2.61271317e-02
      7.30695128e-02 1.25684872e-01 2.78856531e-02 1.50476480e-02
      6.93275630e-02 3.01396668e-01 1.78330362e-01 1.05274236e-02
      1.67306755e-02 3.04554347e-02 1.33241087e-01 2.93764234e-01
      3.01396668e-01 0. 1.38606122e-02 6.14716969e-02 5.08763529e-02
      3.01396668e-01 1.04963385e-01 2.03155994e-01 3.01396668e-01
      4.51429449e-02 2.53758937e-01 3.01396668e-01 3.01396668e-01
      3.01396668e-01 7.90440440e-02 0. 6.81977347e-03 4.78427894e-02
      3.00953002e-03 0. 3.34926620e-02 1.90758646e-01 1.86910570e-01
      7.21700713e-02 1.30541492e-02 7.04636946e-02 2.19587699e-01
      3.89858067e-01 0. 1.61495563e-02 6.52513504e-02 1.08127601e-01
      1.14973322e-01 4.24830010e-03 2.18331113e-01 3.89858067e-01
      3.89858067e-01 0. 3.72682116e-03 3.89858067e-01 3.89858067e-01
      3.91816581e-03 0. 1.45529266e-04 1.02093176e-03 0. 0.
      3.20325652e-03 8.43805261e-03 8.34485423e-03 0. 9.34626162e-03
      7.36328661e-02 3.19856346e-01 0. 0. 0. 4.27530445e-02
      2.56779864e-02 1.75558235e-02 8.73988681e-03 1.34757027e-01
      2.83875227e-01 4.30953838e-02 0. 4.69753854e-02 2.83875227e-01
      2.83875227e-01 1.03746271e-02 7.29091838e-03 5.65678999e-02
      2.43396953e-01 3.20617966e-02 0. 1.13940284e-01 2.83875227e-01
      1.96178496e-01 2.14256663e-02 5.81155419e-02 2.30368614e-01
      2.83875227e-01 5.48612997e-02 0. 9.74131301e-02 1.82873920e-01
      1.11759409e-01 8.68150890e-02 6.60386086e-02 2.36684307e-01
      2.70569503e-01 7.05359578e-02 0. 2.83875227e-01 2.83875227e-01
      2.09599793e-01 1.18278518e-01 2.70095672e-02 1.24844514e-01
      2.95670539e-01 1.45740420e-01 2.52829138e-02 7.50244409e-02
      2.94024110e-01 2.78948188e-01 7.48175755e-02 7.62627320e-03
      5.42980283e-02 2.20415249e-01 5.85200451e-02 0. 4.11818773e-02
      2.95670539e-01 2.55063623e-01 4.09462787e-02 1.87955052e-02
      1.09963760e-01 2.95670539e-01 1.59186572e-01 0. 4.64630872e-02
      1.45695120e-01 1.19150408e-01 6.55581355e-02 2.04942990e-02
      1.81910500e-01 2.95670539e-01 1.25014484e-01 0. 5.10421954e-02
      2.95670539e-01 2.95670539e-01 3.68488394e-02 3.03749624e-03
      2.57809721e-02 1.16934463e-01 0. 0. 1.64024793e-02 2.97494650e-01
      2.12243810e-01 3.42792878e-03 2.38271593e-03 8.00914411e-03
      6.04015449e-03 0. 0. 0. 6.86176447e-03 7.54918577e-03
      1.40688121e-01 2.47157142e-02 2.34395295e-01 4.29005086e-01
      2.21709549e-01 0. 2.63517499e-01 4.29005086e-01 4.29005086e-01
      5.14189303e-02 4.16151341e-03 1.93835441e-02 4.83986028e-02
      5.75441271e-02 0. 1.95035547e-01 2.09797174e-01 1.38378710e-01
      2.09491756e-02 1.24505579e-01 3.05338949e-01 1.53901339e-01
      1.12196349e-01 0. 9.65134352e-02 8.17805603e-02 5.07451780e-02
      2.67375827e-01 1.56104371e-01 3.05338949e-01 2.59950042e-01
      3.05338949e-01 0. 3.05338949e-01 3.05338949e-01 3.05338949e-01
      2.51166103e-03 3.71303186e-02 1.20140247e-01 6.13789186e-02
      1.11961953e-01 0. 8.59784428e-03 1.84327625e-02 1.18612750e-02
      1.06110945e-01 4.77389805e-02 1.62465379e-01 1.35033622e-01
      3.05338949e-01 0. 3.72573249e-02 7.98753053e-02 1.46625951e-01 0.
      0. 0. 0. 0. 0. 0. 0. 0. 9.09772143e-02 4.11061287e-01
      4.13805962e-01 0. 3.12655307e-02 6.29715025e-02 3.01167846e-01
      9.73971784e-02 5.11833839e-02 2.79594399e-03 0. 0. 0. 0. 0. 0. 0.
      2.79594399e-03 9.90361199e-02 4.13805962e-01 4.13805962e-01 0. 0.
      0. 4.13805962e-01 1.42775550e-01 7.56382123e-02 5.81874847e-02
      1.77062273e-01 3.00935388e-01 9.97404568e-03 4.13001627e-02
      7.98457414e-02 2.59505212e-01 8.38520527e-02 3.52539383e-02
      4.58567739e-02 1.71298012e-01 3.00935388e-01 4.32208665e-02
      5.31002060e-02 7.54972920e-02 3.00935388e-01 1.89842701e-01
      4.28612642e-02 4.15684246e-02 2.04470113e-01 3.00935388e-01 0.
      1.05953950e-03 7.00604776e-03 3.00935388e-01 1.21242337e-01
      2.16055103e-02 6.56958669e-02 2.45942205e-01 3.00935388e-01 0.
      1.58930924e-02 5.60262166e-02 3.00935388e-01 2.17559487e-01
      2.33066902e-02 2.04626173e-02 1.43540487e-01 3.89898509e-01
      5.04465811e-02 2.29724608e-02 1.45587260e-02 3.89898509e-01
      3.76797318e-01 4.02992107e-02 0. 0. 0. 0. 0. 0. 6.87539950e-02
      2.29180027e-02 0. 5.70135303e-02 2.30225191e-01 3.89898509e-01 0.
      3.05839796e-02 9.27220657e-02 3.89898509e-01 3.89898509e-01
      1.61981806e-02 0. 0. 0. 0. 0. 0. 7.82140270e-02 2.60713417e-02 0.
      4.63299938e-02 5.75764105e-02 5.14650159e-02 0. 0. 1.43762240e-02
      1.41583383e-02 4.03635902e-03 2.20524538e-02 2.43855894e-01
      2.64619410e-01 2.64619410e-01 0. 9.82539356e-02 1.48573220e-01
      1.67468980e-01 4.87635173e-02 1.37603715e-01 7.01529011e-02
      1.66900486e-01 2.64619410e-01 7.69181401e-02 5.61064621e-03
      5.17797060e-02 5.49095385e-02 5.84952459e-02 5.21499179e-02
      2.64619410e-01 2.64619410e-01 2.64619410e-01 2.21747339e-01
      2.40471452e-01 2.64619410e-01 2.64619410e-01 2.64619410e-01
      2.64619410e-01 1.26060992e-01 2.25698918e-01 2.47141510e-01 0.
      8.81681889e-02 1.07295737e-01 2.47141510e-01 8.78354385e-02
      6.17457852e-02 1.09306142e-01 2.28726849e-01 2.47141510e-01 0.
      8.13656673e-02 1.80950910e-01 2.47141510e-01 1.47081956e-01
      3.33533362e-02 1.15525350e-01 1.86751127e-01 2.47141510e-01
      8.40246305e-02 1.93272084e-01 1.73004001e-01 2.25604519e-01
      1.75844237e-01 1.30247459e-01 4.07435894e-02 1.44772723e-01
      2.47141510e-01 1.23823501e-01 9.37516168e-02 1.25836298e-01
      2.47141510e-01 2.47141510e-01 1.04728721e-01 1.32720172e-01
      2.66990751e-01 3.06606829e-01 0. 1.73200920e-01 3.49360019e-01
      3.49360019e-01 3.31280947e-01 3.37464400e-02 0. 0. 0. 0. 0. 0.
      5.69528304e-02 1.89842768e-02 0. 3.85564417e-02 1.13565221e-01
      2.10443899e-01 1.64408699e-01 1.34711832e-01 2.10916951e-01
      3.49360019e-01 3.49360019e-01 2.05581427e-01 0. 0. 0. 0. 0. 0.
      1.68361161e-02 5.61203947e-03 0. 1.33940140e-02 8.85199085e-02
      2.44788200e-01 1.95128888e-01 2.86931731e-02 1.99450180e-02
      2.56539714e-02 7.06950575e-02 4.15603183e-02 1.08815201e-01
      1.67489305e-01 3.16070348e-01 3.16070348e-01 2.39327893e-01
      1.22573949e-01 1.85062826e-01 3.16070348e-01 3.16070348e-01 0.
      8.35254230e-03 3.58344503e-02 7.56026879e-02 2.23169122e-02 0. 0.
      1.02204913e-02 6.13854825e-03 2.78501678e-02 6.08870201e-02
      2.67044604e-01 3.16070348e-01 2.94839591e-01 0. 4.07951884e-02
      2.24361420e-01 1.54436946e-01 7.12127462e-02 6.67319670e-02
      2.08071530e-01 2.35419035e-01 9.36199948e-02 3.54233161e-02
      1.18179701e-01 2.35419035e-01 2.14819625e-01 5.01956642e-02
      8.81299600e-02 2.25791305e-01 2.35419035e-01 2.13420577e-02
      3.11986376e-02 2.35419035e-01 2.35419035e-01 1.93580464e-01
      7.06294850e-02 5.03895953e-02 1.60888433e-01 2.35419035e-01
      2.21611053e-01 2.73887441e-02 9.07188430e-02 1.94607973e-01
      1.61554188e-01 1.08641796e-01 1.02940321e-01 1.61719605e-01
      2.35419035e-01 2.05285907e-01 1.84165686e-01 2.35419035e-01
      2.00846821e-01 1.43991247e-01 4.13039960e-02 9.37465876e-02
      2.02955216e-01 3.31818610e-01 1.26289306e-02 6.44328147e-02
      3.31818610e-01 3.31818610e-01 2.91355014e-01 0. 0. 0. 0. 0. 0.
      3.64873819e-02 1.21624628e-02 0. 1.07235283e-01 1.51609764e-01
      1.97330773e-01 2.31987119e-01 2.42161378e-01 3.31818610e-01
      3.31818610e-01 3.31818610e-01 1.24009073e-01 0. 0. 0. 0. 0. 0.
      4.69123498e-02 1.56374518e-02 0. 3.62188846e-01 0. 0. 0.
      3.68070096e-01 0. 0. 0. 3.62188846e-01 3.68070096e-01
      1.21772764e-02 5.12524731e-02 1.03269763e-01 3.68070096e-01 0.
      1.34393107e-02 4.91906814e-02 3.68070096e-01 1.91409774e-02 0. 0.
      0. 2.78499603e-01 0. 0. 0. 1.91409774e-02 2.13804003e-02
      9.47121531e-03 3.67716365e-02 5.86338304e-02 3.18248749e-01 0.
      3.10137914e-03 1.48565210e-02 2.96824910e-02 3.17489535e-01
      1.99882798e-02 8.96188840e-02 2.08032072e-01 3.17489535e-01 0.
      9.49890092e-02 1.80160046e-01 3.17489535e-01 3.17489535e-01
      4.61268052e-03 2.38041393e-02 6.99152052e-02 3.17489535e-01 0.
      1.04770347e-01 1.25010580e-01 3.17489535e-01 4.36891355e-02
      1.55464420e-02 6.46292269e-02 1.26204640e-01 3.17489535e-01 0.
      1.38380406e-02 5.45194075e-02 7.36637115e-02 1.31938159e-01
      3.58764036e-03 1.73433255e-02 4.61635403e-02 3.17489535e-01 0.
      1.07629197e-02 3.65400091e-02 1.51729733e-01 3.27729166e-01 0. 0.
      0. 3.27729166e-01 0. 1.31204221e-02 4.37347451e-03 3.27729166e-01
      3.27729166e-01 9.42766480e-03 3.52835692e-02 4.91111316e-02
      3.27729166e-01 0. 2.69237421e-02 2.62616277e-02 3.27729166e-01
      1.71040118e-01 0. 0. 0. 3.27729166e-01 0. 0. 0. 1.71040118e-01
      1.91051140e-01 6.31646020e-03 2.97035780e-02 7.54439607e-02
      3.27729166e-01 0. 2.09406894e-02 2.04257108e-02 1.99126646e-01 0.
      0. 0. 0. 0. 0. 0. 0. 0. 0. 0. 0. 0. 9.95455861e-01 0. 0. 0. 0. 0.
      0. 0. 0. 0. 0. 0. 0. 0. 0. 0. 0. 0. 0. 0. 0. 0. 0. 0. 0. 0. 0.
      7.08138645e-01 0. 0. 0. 0. 0. 0. 0. 0. 7.08138645e-01 0. 0. 0. 0.
      0. 0. 0. 0. 0. 0. 0. 0. 0. 0. 0. 0. 0. 0. 0. 0. 0. 0. 0. 0. 0. 0.
      6.90022230e-01 0. 0. 0. 0. 0. 1.14929033e-02 6.52029291e-02
      2.15539679e-01 6.90022230e-01 0. 0. 0. 0. 0. 0. 0. 0. 0. 0. 0. 0.
      0. 0. 0. 0. 0. 0. 0. 0. 0. 0. 0. 0. 0. 0. 0. 0. 0. 0. 0. 0. 0. 0.
      0. 0. 0. 0. 0. 0. 0. 0. 0. 0. 0. 0. 0. 0. 0. 6.48110092e-01
      4.32572901e-01 4.15861249e-01 0. 0. 0. 0. 0. 4.71559048e-01 0. 0.
      0. 0. 0. 0. 0. 0. 0. 0. 0. 0. 0. 0. 0. 0. 0. 0. 4.86004204e-01
      1.92249730e-01 1.28274634e-01 0. 0. 0. 0. 0. 4.86004204e-01
      4.86004204e-01 7.78179765e-02 2.96018366e-02 0. 0. 0. 0. 0.
      4.86004204e-01 0. 0. 0. 0. 0. 0. 0. 0. 0. 0. 0. 0. 0. 0. 0. 0. 0.
      0. 4.91590619e-01 0. 0. 0. 0. 0. 0. 0. 4.91590619e-01
      4.91590619e-01 1.81999370e-01 4.08234932e-02 0. 0. 3.67204621e-02
      4.60578166e-02 1.36078307e-02 4.91590619e-01 0. 0. 0. 0. 0. 0. 0.
      0. 0. 0. 0. 0. 0. 0. 0. 0. 0. 0. 0. 0. 0. 0. 0. 0. 0. 0. 0. 0. 0.
      0. 0. 0. 0. 0. 0. 0. 0. 0. 0. 0. 0. 0. 0. 0. 0. 0. 0. 0. 0. 0. 0.
      0. 0. 0. 0. 0. 0. 0. 0. 0. 0. 0. 0. 0. 0. 0. 0. 0. 0. 0. 0. 0. 0.
      0. 0. 0. 0. 0. 0. 0. 0. 0. 0. 0. 0. 0. 0. 0. 0. 0. 0. 0. 0. 0. 0.
      0. 0. 0. 0. 0. 0. 0. 0. 0. 0. 0. 0. 0. 0. 0. 0. 0. 0. 0. 0. 0. 0.
      0. 0. 0. 0. 0. 0. 0. 0. 0. 0. 0. 0. 0. 0. 0. 0. 0. 0. 0. 0. 0. 0.
      0. 0. 0. 0. 0. 0. 0. 0. 0. 0. 0. 0. 0. 0. 0. 0. 0. 0. 0. 0. 0. 0.
      0. 0. 0. 0. 0. 0. 0. 0. 0. 0. 0. 0. 0. 0. 0. 0. 0. 0. 0. 0. 0. 0.
      0. 0. 0. 0. 0. 0. 0. 0. 0. 0. 0. 0. 0. 0. 0. 0. 0. 0. 0. 0. 0. 0.
      0. 0. 0. 0. 0. 0. 0. 0. 0. 0. 0. 0. 0. 0. 0. 0. 0. 0. 0. 0. 0. 0.
      0. 0. 0. 0. 0. 0. 0. 0. 0. 0. 0. 0. 0. 0. 0. 0. 0. 0. 0. 0. 0. 0.
      0. 0. 0. 0. 0. 0. 0. 0. 0. 0. 0. 0. 0. 0. 0. 0. 0. 0. 0. 0. 0. 0.
      0. 0. 0. 0. 0. 0. 0. 0. 0. 0. 0. 0. 0. 0. 0. 0. 0. 0. 0. 0. 0. 0.
      0. 0. 0. 0. 0. 0. 0. 0. 0. 0. 0. 0. 0. 0. 0. 0. 0. 0. 0. 0. 0. 0.
      0. 0. 0. 0. 0. 0. 0. 0. 0. 0. 0. 0. 0. 0. 0. 0. 0. 0. 0. 0. 0. 0.
      0. 0. 0. 0. 0. 0. 0. 0. 0. 0. 0. 0. 0. 0. 0. 0. 0. 0. 0. 0. 0. 0.
      0. 0. 0. 0. 0. 0. 0. 0. 0. 0. 0. 0. 0. 0. 0. 0. 0. 0. 0. 0. 0. 0.
      0. 0. 0. 0. 0. 0. 0. 0. 0. 0. 0. 0. 0. 0. 0. 0. 0. 0. 0. 0. 0. 0.
      0. 0. 0. 0. 0. 0. 0. 0. 0. 0. 0. 0. 0. 0. 0. 0. 0. 0. 0. 0. 0. 0.
      0. 0. 0. 0. 0. 0. 0. 0. 0. 0. 0. 0. 0. 0. 0. 0. 0. 0. 0. 0. 0. 0.
      0. 0. 0. 4.71946537e-01 0. 0. 0. 0. 0. 0. 6.24908388e-01
      6.24908388e-01 0. 0. 0. 0. 0. 0. 0. 0. 0. 0. 0. 0. 0. 0. 0. 0. 0.
      0. 0. 0. 0. 0. 0. 0. 0. 0. 0. 0. 0. 0. 0. 0. 0. 0. 0. 0. 0. 0. 0.
      0. 0. 0. 0. 0. 0. 0. 0. 0. 0. 0. 0. 0. 0. 0. 0. 0. 0. 0. 0. 0. 0.
      0. 0. 0. 0. 0. 0. 0. 0. 0. 0. 0. 0. 0. 0. 0. 0. 0. 0. 0. 0.
      1.04971901e-01 9.93144512e-03 6.23271838e-02 2.28227854e-01
      2.35876925e-02 0. 2.87849993e-01 3.66963834e-01 3.17544609e-01 0.
      0. 0. 0. 0. 0. 1.91899985e-02 6.39666570e-03 0. 4.77144979e-02
      1.26575410e-01 3.66963834e-01 3.57470840e-01 3.03270351e-02 0.
      3.66963834e-01 3.66963834e-01 2.48896673e-01 0. 0. 0. 0. 0. 0.
      7.93147087e-02 2.64382344e-02 0. 0. 0. 0. 0. 0. 0. 0. 0. 0. 0. 0.
      0. 0. 0. 0. 0. 0. 0. 0. 0. 0. 0. 0. 0. 0. 0. 0. 0. 0. 0. 0. 0. 0.
      0. 0. 0. 0. 0. 0. 0. 0. 0. 0. 0. 0. 0. 0. 0. 0. 0. 0. 0. 0. 0. 0.
      0. 0. 0. 0. 0. 0. 0. 0. 0. 0. 0. 0. 0. 0. 0. 0. 0. 2.22770609e-02
      1.08409286e-01 2.61180818e-01 0. 4.93710767e-03 4.23072092e-03
      2.73648977e-01 1.43573776e-01 9.45461076e-03 2.66491771e-01
      2.26973385e-01 2.09803298e-01 0. 1.67539313e-01 1.55246779e-01
      1.22350335e-01 3.34068798e-02 1.72172457e-01 2.74516717e-02
      1.66505411e-01 2.73648977e-01 0. 6.34770934e-03 9.30758566e-03
      2.73648977e-01 1.81966290e-01 2.27659922e-02 1.66850805e-01
      2.73648977e-01 2.73648977e-01 0. 1.67924419e-01 2.11002886e-01
      2.73648977e-01 1.45436674e-01 9.14669558e-02 2.45556414e-01
      8.64752606e-02 9.21441317e-02 1.32702857e-01 2.14984983e-01
      1.01801507e-01 6.86802715e-02 8.35321993e-02 2.47604519e-01
      1.20833561e-01 1.45834880e-02 8.15891623e-02 2.65449822e-01
      8.57383981e-02 4.78158379e-03 1.02954961e-01 2.66555935e-01
      2.66555935e-01 8.92269537e-02 9.57178101e-02 1.80727884e-01
      1.80525169e-01 1.85038984e-01 1.21956162e-01 2.31819972e-01
      1.15175620e-01 8.90132859e-02 4.08170410e-02 5.22382781e-02
      2.56712914e-01 2.66555935e-01 1.27121270e-01 3.71900969e-03
      1.60721868e-01 2.66555935e-01 2.66555935e-01 3.74343060e-02
      9.45327524e-03 5.36488518e-02 1.77410215e-01 0. 0. 1.83561698e-01
      3.80940676e-01 2.43756175e-01 0. 0. 0. 0. 0. 0. 2.71932501e-03
      4.77391621e-03 2.32285121e-03 7.05810860e-02 5.45416996e-02
      2.89526492e-01 3.80940676e-01 1.75572813e-01 0. 3.80940676e-01
      3.80940676e-01 3.80940676e-01 1.42944008e-02 1.77463633e-03
      6.67494768e-03 9.47794598e-03 1.17048537e-02 0. 1.21300705e-01
      1.04956649e-01 5.30477241e-02 1.29523743e-02 9.42723602e-02
      2.49053970e-01 1.45689726e-01 5.68830234e-04 2.90555065e-03
      2.05528155e-01 2.49053970e-01 1.24278270e-01 3.65476049e-02
      1.30318612e-01 2.49053970e-01 1.19315553e-02 8.53245333e-03
      2.72589829e-02 2.49053970e-01 1.65066808e-01 4.90244143e-02
      4.30964492e-02 7.07335472e-02 1.94163010e-01 2.49053970e-01
      1.85324997e-01 2.29560118e-02 5.38189858e-02 2.49053970e-01
      2.38738582e-01 1.44859940e-01 2.39969403e-01 2.49053970e-01
      8.80713835e-02 2.38274992e-01 1.54195324e-01 2.49053970e-01
      2.28232116e-01 1.26904622e-01 5.13421260e-02 5.52684665e-02
      1.13548689e-01 4.61364314e-02 6.59033097e-03 1.90389585e-02
      2.48420075e-01 9.19670686e-02 4.16462496e-02 1.09719560e-01
      1.14498124e-01 2.35318989e-01 2.48420075e-01 8.79393443e-02
      2.20639762e-02 1.23136267e-01 1.99930504e-01 1.72703132e-01
      2.48420075e-01 2.48420075e-01 1.58048213e-01 4.46481950e-04
      1.65336877e-01 2.48420075e-01 2.48420075e-01 8.70096087e-02
      1.54302701e-01 2.48420075e-01 2.48420075e-01 1.19769946e-01
      2.67889183e-02 2.48420075e-01 2.48420075e-01 1.65728301e-01
      4.38811481e-02 2.39247933e-01 1.21284924e-01 1.36743575e-01
      2.58007169e-01 2.58007169e-01 1.52599007e-01 4.76050414e-02
      2.58007169e-01 2.58007169e-01 2.28906125e-01 1.57758929e-02
      7.55590387e-03 1.47747574e-02 8.62594321e-03 1.93107389e-02
      9.35246423e-03 1.71833858e-01 8.51049125e-02 3.09296325e-02
      2.53736794e-01 2.57900059e-01 1.89962924e-01 3.58958431e-02
      2.58007169e-01 2.58007169e-01 2.58007169e-01 1.33592308e-01
      1.39544249e-01 2.27947608e-01 1.55448258e-01 1.11688331e-01
      1.20644718e-02 7.49808550e-02 1.26632884e-01 2.14597523e-01
      6.69364706e-02 1.57453254e-01 4.26666103e-02 3.15506086e-02
      5.95228225e-02 2.51592517e-01 2.51592517e-01 1.99417230e-02
      1.12732565e-02 1.14597306e-01 9.48769003e-02 1.84327498e-01
      2.51592517e-01 2.51592517e-01 6.31858781e-02 2.51592517e-01
      2.00288475e-01 2.17039987e-01 1.13416985e-01 1.02638982e-01
      1.14776626e-01 1.34498209e-01 1.60137132e-01 4.43074815e-02
      6.39445335e-02 9.08926874e-03 4.90233786e-02 1.59092490e-02
      6.47911206e-02 2.51592517e-01 2.51592517e-01 2.51592517e-01
      8.19506198e-02 2.51592517e-01 2.21114948e-01 2.51592517e-01
      9.00018886e-02 2.51592517e-01 2.04141483e-01 2.41811246e-01
      2.41811246e-01 0. 1.83897942e-01 2.41811246e-01 2.41811246e-01
      8.69008750e-02 7.66765401e-02 1.49494886e-01 1.08432651e-01
      2.33696047e-02 0. 2.41811246e-01 2.41811246e-01 1.57024652e-01
      4.08195965e-02 8.90477300e-02 2.41811246e-01 1.78946018e-01
      1.92644149e-01 1.05288893e-01 2.41811246e-01 2.26984575e-01
      2.41811246e-01 2.07619265e-01 2.41811246e-01 7.76169002e-02
      4.46740538e-02 1.88467465e-02 7.18130544e-02 6.07422180e-02
      4.72778492e-02 1.21683210e-01 1.88556984e-01 1.42746270e-01
      8.59483406e-02 1.08382724e-01 1.15708888e-01 0. 2.16737598e-01
      1.23639062e-01 9.97722447e-02 2.73826923e-02 4.40178178e-02
      2.47936428e-01 2.69727230e-01 2.69727230e-01 2.11449601e-02
      9.34413597e-02 2.24726915e-01 2.57900298e-01 7.52888471e-02
      1.36640623e-01 1.81880251e-01 2.69727230e-01 1.39485508e-01
      2.65310542e-03 1.30421007e-02 1.64192244e-01 5.20517975e-02
      3.58625241e-02 1.85144767e-02 2.68213928e-01 2.69727230e-01
      2.69727230e-01 9.61134583e-03 3.83242406e-02 2.69727230e-01
      2.69727230e-01 1.44231170e-01 1.73838399e-02 2.91039079e-01
      1.03714140e-02 4.35425490e-02 8.71884003e-02 2.15763792e-01
      4.90054935e-02 5.56825958e-02 4.63703983e-02 2.91039079e-01
      2.91039079e-01 0. 9.52689350e-03 6.68340400e-02 2.27124840e-01
      9.36230570e-02 1.33455181e-02 0. 2.91039079e-01 2.57010698e-01
      7.09126750e-03 4.08770107e-02 1.37522459e-01 2.91039079e-01
      6.30070567e-02 2.02191453e-02 5.79120032e-02 2.89543480e-01
      2.91039079e-01 0. 1.22488616e-02 8.59294832e-02 2.91039079e-01
      1.20372504e-01 1.71585213e-02 0. 2.91039079e-01 2.73142725e-01
      2.83631217e-03 1.41307386e-02 3.94386426e-02 2.62991607e-01
      3.30059268e-02 7.82663468e-03 7.21552642e-03 2.73142725e-01
      2.49087483e-01 2.52770558e-02 4.37028632e-02 7.26258457e-02
      2.73142725e-01 2.76938993e-02 9.00612995e-02 6.78286329e-02
      2.64081061e-01 2.73142725e-01 6.11414807e-03 2.81654559e-02
      6.89114183e-02 2.73142725e-01 4.24361937e-02 8.17964692e-03
      1.97847765e-02 2.73142725e-01 2.73142725e-01 5.12168743e-02
      1.33209497e-01 1.91723779e-01 2.73142725e-01 7.95380771e-03
      1.02049507e-01 1.87513560e-01 2.73142725e-01 1.97629482e-01
      3.43979336e-02 3.28470543e-02 3.07998415e-02 2.77541190e-01
      9.03339386e-02 1.31593972e-01 6.76287562e-02 1.99517801e-01
      1.58647969e-01 3.60720861e-03 1.47578923e-03 0. 4.19732407e-02
      3.50009277e-02 2.00417805e-02 5.01752272e-03 1.56776890e-01
      2.79938191e-01 1.31982878e-01 2.08060160e-01 1.67403191e-01
      2.79938191e-01 5.39345182e-02 2.07255810e-01 2.58984655e-01
      2.79938191e-01 2.79938191e-01 1.54077053e-01 1.52228966e-01
      5.93967251e-02 2.79938191e-01 9.82013419e-02 1.30552784e-01
      1.26056999e-01 2.79938191e-01 2.00090766e-01 0. 2.26426404e-02
      1.58844993e-01 6.02066398e-01 5.10320514e-02 7.27437483e-03
      6.33634254e-02 2.38147601e-01 2.60007441e-01 0. 9.92086530e-03
      6.95978776e-02 6.02066398e-01 9.74947065e-02 1.38974059e-02 0.
      2.60007441e-01 0. 0. 0. 0. 0. 0. 0. 0. 0. 0. 0. 0. 0. 0. 0. 0. 0.
      0. 1.39442921e-01 2.07417216e-02 8.22341591e-02 1.40369192e-01
      3.79384398e-01 1.94830205e-02 2.77721114e-03 2.71962881e-02
      1.55777320e-01 1.79654181e-01 1.53521076e-01 3.79384398e-01
      3.79384398e-01 3.79384398e-01 4.44868021e-02 1.72617525e-01
      3.55239183e-01 3.27281475e-01 0. 1.38278119e-03 4.68148850e-03
      3.74016864e-03 1.44982254e-02 0. 0. 0. 0. 2.16296292e-03
      1.35393450e-02 3.89648564e-02 6.41944185e-02 1.76207229e-01
      1.02661848e-02 2.06645913e-02 1.24023845e-02 3.60486400e-03
      1.47460908e-01 1.69959009e-01 2.74244696e-01 2.88847595e-01
      2.94665158e-01 1.16242334e-01 2.21559152e-01 2.60594368e-01
      2.07519665e-01 2.41206869e-01 2.13895857e-01 2.43624985e-01
      1.28014743e-01 2.94665158e-01 2.11648360e-01 2.29137659e-01
      1.80319846e-01 2.26328030e-01 4.57537593e-03 1.71031002e-02
      4.04076800e-02 5.29804528e-02 1.61977276e-01 2.68251561e-02
      3.13527137e-02 1.77950170e-02 6.05736906e-03 9.37355496e-03
      1.99221019e-02 3.62233371e-02 2.95418631e-02 2.22782880e-01
      4.88419309e-02 4.10763212e-02 1.89711861e-02 8.38163309e-03
      4.10005450e-02 0. 0. 0. 0. 0. 0. 0. 4.10005450e-02 4.78500091e-02
      0. 0. 0. 0. 0. 0. 0. 4.78500091e-02 3.98154408e-01 1.39431715e-01
      1.58431642e-02 0. 3.98154408e-01 1.06102347e-01 1.51243815e-02
      4.91814651e-02 3.98154408e-01 3.98154408e-01 6.70740977e-02 0. 0.
      3.98154408e-01 0. 0. 9.39592347e-02 3.98154408e-01 4.08574007e-02
      1.42647065e-02 1.08658737e-02 0. 0. 7.96382374e-04 1.13520502e-04
      0. 3.44652496e-02 1.63340315e-01 9.98869911e-02 5.45803495e-02
      1.32147223e-02 0. 3.39698046e-02 3.98981869e-02 2.10961308e-02
      1.19549409e-01 3.18255961e-01 1.09219469e-01 4.70854603e-02 0.
      3.18255961e-01 4.56116758e-02 7.74599891e-03 2.48833932e-02
      3.18255961e-01 3.18255961e-01 3.18255961e-01 2.54502922e-01
      5.72637916e-02 3.18255961e-01 3.18255961e-01 2.14243859e-01
      7.21378699e-02 3.18255961e-01 1.46631315e-01 8.44007656e-02
      6.41726255e-02 2.74293181e-02 5.60764503e-03 4.35655452e-02
      6.22056052e-02 4.85471897e-02 1.25951603e-01 1.66497365e-01
      5.38475551e-02 6.86981604e-02 4.12530862e-02 2.42997967e-02
      3.38886790e-02 6.58465177e-02 7.47463033e-02 1.79410204e-01
      2.60954291e-01 2.47875780e-01 2.36811414e-01 1.18860371e-01
      2.60954291e-01 2.60954291e-01 2.36527115e-01 1.31204218e-01
      2.60954291e-01 2.60954291e-01 1.37510151e-01 2.20817402e-01
      1.78763390e-01 2.60954291e-01 1.46850958e-01 1.88432246e-01
      1.75530046e-01 2.60954291e-01 0. 0. 0. 0. 0. 0. 0. 0. 0. 0. 0. 0.
      0. 0. 0. 0. 0. 0. 0. 0. 0. 0. 0. 0. 0. 0. 0. 0. 0. 0. 0. 0. 0. 0.
      0. 0. 0. 0. 0. 0. 0. 0. 0. 0. 0. 0. 0. 0. 0. 0. 0. 0. 0. 0. 0. 0.
      0. 0. 0. 0. 0. 0. 0. 0. 0. 0. 0. 0. 0. 0. 0. 0. 0. 0. 0. 0. 0. 0.
      0. 0. 0. 0. 0. 0. 0. 0. 0. 0. 0. 0. 0. 0. 0. 0. 0. 0. 0. 0. 0. 0.
      0. 0. 0. 0. 0. 0. 0. 0. 0. 0. 0. 0. 0. 0. 0. 0. 0. 0. 0. 0. 0. 0.
      0. 0. 0. 0. 0. 0. 0. 0. 0. 0. 0. 0. 0. 0. 0. 0. 0. 0. 0. 0. 0. 0.
      0. 0. 0. 0. 0. 0. 0. 0. 0. 0. 0. 0. 0. 0. 0. 0. 0. 0. 0. 0. 0. 0.
      0. 0. 0. 0. 0. 0. 0. 0. 0. 0. 0. 0. 0. 0. 0. 0. 0. 0. 0. 0. 0. 0.
      0. 0. 0. 0. 0. 0. 0. 0. 0. 0. 0. 0. 0. 0. 0. 0. 0. 0. 0. 0. 0. 0.
      0. 0. 0. 0. 0. 0. 0. 0. 0. 0. 0. 0. 0. 0. 0. 0. 0. 0. 0. 0. 0. 0.
      0. 0. 0. 0. 0. 0. 0. 0. 0. 0. 0. 0. 0. 0. 0. 0. 0. 0. 0. 0. 0. 0.
      0. 0. 0. 0. 0. 0. 0. 0. 0. 0. 0. 0. 0. 0. 0. 0. 0. 0. 0. 0. 0. 0.
      0. 0. 0. 0. 0. 0. 0. 0. 0. 0. 0. 0. 0. 0. 0. 0. 0. 0. 0. 0. 0. 0.
      0. 0. 0. 0. 0. 0. 0. 0. 0. 0. 0. 0. 0. 0. 0. 0. 0. 0. 0. 0. 0. 0.
      0. 0. 0. 0. 0. 0. 0. 0. 0. 0. 0. 0. 0. 0. 0. 0. 0. 0. 0. 0. 0. 0.
      0. 0. 0. 0. 0. 0. 0. 0. 0. 0. 0. 0. 0. 0. 0. 0. 0. 0. 0. 0. 0. 0.
      0. 0. 0. 0. 0. 0. 0. 0. 0. 0. 0. 0. 0. 0. 0. 0. 0. 0. 0. 0. 0. 0.
      0. 0. 0. 0. 0. 0. 0. 0. 0. 0. 0. 0. 0. 0. 0. 0. 0. 0. 0. 0. 0. 0.
      0. 0. 0. 0. 0. 0. 0. 0. 0. 0. 0. 0. 0. 0. 0. 0. 0. 0. 0. 0. 0. 0.
      0. 0. 0. 0. 0. 0. 0. 0. 0. 0. 0. 0. 0. 0. 0. 0. 0. 0. 0. 0. 0. 0.
      0. 0. 0. 0. 0. 0. 0. 0. 0. 0. 0. 0. 0. 0. 0. 0. 0. 0. 0. 0. 0. 0.
      0. 0. 0. 0. 0. 0. 0. 0. 0. 0. 0. 0. 0. 0. 0. 0. 0. 0. 0. 0. 0. 0.
      0. 0. 0. 0. 0. 0. 0. 0. 0. 0. 0. 0. 0. 0. 0. 0. 0. 0. 0. 0. 0. 0.
      0. 0. 0. 0. 0. 0. 0. 0. 0. 0. 0. 0. 0. 0. 0. 0. 0. 0. 0. 0. 0. 0.
      0. 0. 0. 0. 0. 0. 0. 0. 0. 0. 0. 0. 0. 0. 0. 0. 0. 0. 0. 0. 0. 0.
      0. 0. 0. 0. 0. 0. 0. 0. 0. 0. 0. 0. 0. 0. 0. 0. 0. 0. 0. 0. 0. 0.
      0. 0. 0. 0. 0. 0. 0. 0. 0. 0. 0. 0. 0. 0. 0. 0. 0. 0. 0. 0. 0. 0.
      0. 0. 0. 0. 0. 0. 0. 0. 0. 0. 0. 0. 0. 0. 0. 0. 0. 0. 0. 0. 0. 0.
      0. 0. 0. 0. 0. 0. 0. 0. 0. 0. 0. 0. 0. 0. 0. 0. 0. 0. 0. 0. 0. 0.
      0. 0. 0. 0. 0. 0. 0. 0. 0. 0. 0. 0. 0. 0. 0. 0. 0. 0. 0. 0. 0. 0.
      0. 0. 0. 0. 0. 0. 0. 0. 0. 0. 0. 0. 0. 0. 0. 0. 0. 0. 0. 0. 0. 0.
      0. 0. 0. 0. 0. 0. 0. 0. 0. 0. 0. 0. 0. 0. 0. 0. 0. 0. 0. 0. 0. 0.
      0. 0. 0. 0. 0. 0. 0. 0. 0. 0. 0. 0. 0. 0. 0. 0. 0. 0. 0. 0. 0. 0.
      0. 0. 0. 0. 0. 0. 0. 0. 0. 0. 0. 0. 0. 0. 0. 0. 0. 0. 0. 0. 0. 0.
      0. 0. 0. 0. 0. 0. 0. 0. 0. 0. 0. 0. 0. 0. 1.52501583e-01
      2.34249830e-02 9.68840867e-02 1.86671227e-01 0. 0. 0.
      5.31428397e-01 5.31428397e-01 4.31173354e-01 0. 0. 0. 0. 0. 0. 0.
      4.31173354e-01 0. 0. 0. 0. 0. 0. 0. 0. 0. 0. 0. 0. 0. 0. 0. 0. 0.
      0. 5.01246870e-01 0. 0. 0. 0. 0. 0. 0. 5.01246870e-01
      5.01246870e-01 0. 0. 0. 0. 0. 0. 0. 5.01246870e-01 0. 0. 0. 0. 0.
      0. 0. 0. 0. 0. 0. 0. 0. 0. 0. 0. 0. 0. 5.01246870e-01 0. 0. 0. 0.
      0. 0. 0. 5.01246870e-01 5.01246870e-01 0. 0. 0. 0. 0. 0. 0.
      5.01246870e-01 1.17832767e-02 7.37088965e-03 4.65810187e-02
      1.82078898e-01 0. 0. 5.97373173e-02 2.82489538e-01 1.83072284e-01
      1.25993162e-01 1.03173524e-01 1.21114679e-01 0. 2.63122059e-02
      3.51319537e-02 3.37385722e-02 1.58238895e-02 9.20256227e-02
      7.75258616e-02 1.88997880e-01 2.44825721e-01 2.82489538e-01 0.
      3.80368978e-02 2.82489538e-01 2.82489538e-01 2.12433651e-01
      2.82489538e-01 2.82489538e-01 2.73301482e-01 1.43792061e-03
      5.78868575e-02 2.82489538e-01 2.82489538e-01 9.96715352e-02
      8.35924745e-02 2.49287322e-01 8.03706944e-02 6.99820071e-02 0.
      1.53005391e-01 5.51805906e-02 3.13395709e-02 7.82461464e-03
      2.15026453e-01 2.74233818e-01 3.51664447e-03 0. 0. 2.74233818e-01
      1.27339819e-02 7.23220874e-03 1.80568022e-03 2.74233818e-01
      2.74233818e-01 2.74233818e-01 1.51996166e-01 0. 2.74233818e-01
      2.74233818e-01 2.74233818e-01 7.33469427e-02 1.67242780e-01
      2.47878581e-01 4.52140020e-03 0. 0. 2.74233818e-01 3.86066474e-02
      5.62818423e-02 1.69262178e-02 2.45162979e-01 2.70195723e-01
      3.83884041e-03 1.53755415e-02 2.70721931e-02 2.66397178e-01 0.
      7.64151104e-03 1.82651971e-02 2.78358877e-01 1.83605462e-01
      8.44544917e-03 3.38261910e-02 5.95588163e-02 1.04111023e-01 0.
      1.14622667e-01 1.11319959e-01 2.27517635e-01 2.10152209e-01
      3.59848104e-02 1.24172464e-01 1.13774531e-01 2.78358877e-01 0.
      1.64148342e-02 3.77611369e-02 2.29545653e-01 1.42804265e-01
      7.91665614e-02 2.78358877e-01 2.78358877e-01 2.29044244e-01 0.
      2.51077503e-01 2.78358877e-01 2.78358877e-01 1.64074585e-01
      2.97522382e-03 1.10482648e-02 1.48906363e-02 9.42686126e-02
      1.06221735e-02 9.53472033e-03 2.67352676e-03 1.64074585e-01
      1.84010044e-01 1.35237456e-03 4.54695290e-03 3.43630067e-03
      8.76309425e-02 1.36570791e-02 1.92121305e-02 5.75512648e-03
      1.84010044e-01 3.69183838e-01 2.08036173e-02 5.37053458e-02
      6.74615726e-02 3.69183838e-01 0. 6.58755526e-02 1.01353168e-01
      3.69183838e-01 3.69183838e-01 1.03176251e-01 3.53420451e-02
      4.49743820e-03 3.69183838e-01 2.64803637e-02 1.06596500e-01
      5.25957905e-02 3.69183838e-01 1.21417150e-01 2.34375466e-02 0. 0.
      2.02390403e-02 3.97229893e-03 3.42954509e-02 1.12430723e-02
      1.07340306e-01 1.26448423e-01 6.09926023e-02 4.67879744e-03
      7.83451367e-03 9.45265312e-03 9.87926591e-03 2.18997449e-02
      4.51305471e-02 1.13532178e-01 2.81079710e-01 2.50463814e-01
      6.10496327e-02 0. 2.81079710e-01 1.77887350e-01 1.99771076e-01
      5.81380390e-02 2.81079710e-01 2.81079710e-01 2.81079710e-01
      8.22028518e-02 2.73720145e-01 2.81079710e-01 2.81079710e-01
      1.46937773e-01 2.58005053e-01 2.81079710e-01 9.63266045e-02
      2.72419844e-02 3.12825143e-02 8.19919538e-03 9.07820929e-03
      3.80355213e-03 5.42178168e-04 5.52258715e-02 1.19162962e-01
      1.51188329e-01 1.06488829e-02 3.27648446e-02 5.73984254e-03
      4.24401462e-02 0. 0. 1.07732415e-02 1.57658875e-01 3.07294637e-01
      1.43813759e-01 1.87645629e-01 3.07294637e-01 3.07294637e-01
      1.28737092e-01 6.44225702e-02 3.07294637e-01 3.07294637e-01
      3.07294637e-01 5.99184185e-02 1.94485739e-01 1.03338733e-01
      3.07294637e-01 0. 5.92350625e-02 2.00036883e-01 3.07294637e-01
      2.64689147e-01 3.41763683e-02 9.97497439e-02 1.25299886e-01
      3.79934788e-01 0. 7.66900331e-02 1.15004659e-01 3.14276397e-01
      3.79934788e-01 1.18710786e-01 4.77183349e-02 8.35332461e-03
      3.79934788e-01 4.91833538e-02 1.25993967e-01 6.03013374e-02
      3.70367795e-01 1.15970243e-02 6.75781164e-03 2.30191704e-02
      2.89153587e-02 2.55306661e-01 0. 6.14637369e-03 8.01154505e-03
      1.49028394e-02 2.07351670e-02 8.94775707e-03 6.47773826e-03
      1.92769070e-03 3.37908715e-01 1.13500059e-02 2.37354469e-02
      8.74854065e-03 1.74293555e-02 3.11136425e-01 2.26301327e-01
      8.46374035e-02 0. 3.11136425e-01 2.87243128e-01 1.80070847e-01
      4.63752411e-02 2.11735100e-01 2.65911996e-01 2.73350954e-01
      9.12987888e-02 3.11136425e-01 3.11136425e-01 3.11136425e-01
      1.18211187e-01 1.60638183e-01 1.98427036e-01 9.65617970e-03
      6.58336375e-03 5.64249326e-03 0. 2.23964527e-01 4.19560969e-02
      2.08840966e-02 4.96781850e-03 6.83178706e-03 8.77505459e-04
      8.54923215e-04 4.62269457e-03 1.44369639e-02 1.24232315e-01
      3.70361805e-02 5.27933054e-03 0. 8.77505459e-04 1.52379796e-01
      8.10078830e-02 1.35884881e-01 3.42293292e-01 3.42293292e-01
      1.37593552e-01 7.92545527e-02 2.63407379e-01 2.63821125e-01
      3.00979376e-01 5.54798692e-02 1.92569137e-01 1.83306500e-01
      3.42293292e-01 0. 7.66816139e-02 2.03165561e-01 3.42293292e-01
      1.83512014e-03 5.33597893e-04 7.62008689e-03 4.22271676e-02
      1.28378063e-01 6.18645921e-03 4.85793361e-03 1.83046423e-03
      2.13849079e-03 1.18255997e-02 8.00396781e-03 2.88856588e-02
      3.41908783e-02 3.04949224e-01 0. 5.11210784e-03 9.28057916e-03
      1.63761638e-02 1.99960053e-01 4.46666256e-02 3.16423811e-02
      2.17305007e-03 7.65753686e-02 2.82496605e-02 2.23071259e-02
      6.09342428e-03 1.79405689e-01 2.35627636e-01 6.76816236e-03
      1.81063842e-02 3.25957537e-02 1.13587543e-01 6.51915185e-03
      3.81402969e-02 2.58368216e-02 2.42325440e-01 3.44069481e-01
      9.82665643e-02 7.02740476e-02 9.41654854e-03 3.44069481e-01
      1.22415185e-01 9.15224478e-02 2.46909168e-02 3.44069481e-01
      3.44069481e-01 1.93197541e-02 6.30357042e-02 1.41248241e-01
      3.44069481e-01 2.82496605e-02 1.21222563e-01 6.86181635e-02
      3.44069481e-01 1.44204140e-01 5.54277422e-03 2.07567941e-02
      2.89624743e-02 4.59466204e-02 0. 2.15330292e-02 5.96802197e-02
      1.75737783e-01 1.13169551e-01 3.81236784e-02 9.81731992e-03
      1.58475116e-02 1.08574554e-02 7.67568965e-03 1.09413278e-03
      6.75648525e-02 1.32365495e-01 2.75646061e-01 2.40186900e-02
      1.14841171e-01 2.75646061e-01 2.75646061e-01 0. 1.55862942e-01
      2.19217122e-01 2.75646061e-01 2.75646061e-01 2.24856317e-01
      1.08746029e-01 2.75646061e-01 2.75646061e-01 2.61340588e-01
      1.03163928e-01 2.75646061e-01 2.75646061e-01 1.35474488e-01
      7.04670623e-02 2.79696169e-03 2.91680521e-03 1.68503877e-02
      1.79762486e-02 1.46259060e-02 1.98623668e-02 1.03142336e-01
      2.19435260e-01 5.15322201e-02 3.57177630e-02 0. 7.62028620e-02
      3.76178063e-02 2.08724234e-02 5.17006218e-03 1.95635274e-01
      2.94748724e-01 2.94748724e-01 1.13785192e-01 1.08253412e-01
      2.94748724e-01 2.94748724e-01 1.13794029e-01 1.12128995e-01
      2.94748724e-01 2.94748724e-01 1.61459669e-01 1.72059044e-01 0.
      2.94748724e-01 2.48826057e-01 1.02679767e-01 2.24036034e-02
      2.94748724e-01</_>
    <_>
      0. 0. 0. 0. 0. 0. 0. 0. 0. 0. 0. 0. 0. 0. 0. 0. 0. 0. 0. 0. 0. 0.
      0. 0. 0. 0. 0. 0. 0. 0. 0. 0. 0. 0. 0. 0. 0. 0. 0. 0. 0. 0. 0. 0.
      0. 0. 0. 0. 0. 0. 0. 0. 0. 0. 0. 0. 0. 0. 0. 0. 0. 0. 0. 0. 0. 0.
      0. 0. 0. 0. 0. 0. 0. 0. 0. 0. 0. 0. 0. 0. 0. 0. 0. 0. 0. 0. 0. 0.
      0. 0. 0. 0. 0. 0. 0. 0. 0. 0. 0. 0. 0. 0. 0. 0. 0. 0. 0. 0. 0. 0.
      0. 0. 0. 0. 0. 0. 0. 0. 0. 0. 0. 0. 0. 0. 0. 0. 0. 0. 0. 0. 0. 0.
      0. 0. 0. 0. 0. 0. 0. 0. 0. 0. 0. 0. 0. 0. 0. 0. 0. 0. 0. 0. 0. 0.
      0. 0. 0. 0. 0. 0. 0. 0. 0. 0. 0. 0. 0. 0. 0. 0. 0. 0. 0. 0. 0. 0.
      0. 0. 0. 0. 0. 0. 0. 0. 0. 0. 0. 0. 0. 0. 0. 0. 0. 0. 0. 0. 0. 0.
      0. 0. 0. 0. 0. 0. 0. 0. 0. 0. 0. 0. 0. 0. 0. 0. 0. 0. 0. 0. 0. 0.
      0. 0. 0. 0. 0. 0. 0. 0. 0. 0. 0. 0. 0. 0. 0. 0. 0. 0. 0. 0. 0. 0.
      0. 0. 0. 0. 0. 0. 0. 0. 0. 0. 0. 0. 0. 0. 0. 0. 0. 0. 0. 0. 0. 0.
      0. 0. 0. 0. 0. 0. 0. 0. 0. 0. 0. 0. 0. 0. 0. 0. 0. 0. 0. 0. 0. 0.
      0. 0. 0. 0. 0. 0. 0. 0. 0. 0. 0. 0. 0. 0. 0. 0. 0. 0. 0. 0. 0. 0.
      0. 0. 0. 0. 0. 0. 0. 0. 0. 0. 0. 0. 0. 0. 0. 0. 0. 0. 0. 0. 0. 0.
      0. 0. 0. 0. 0. 0. 0. 0. 0. 0. 0. 0. 0. 0. 0. 0. 0. 0. 0. 0. 0. 0.
      0. 0. 0. 0. 0. 0. 0. 0. 0. 0. 0. 0. 0. 0. 0. 0. 0. 0. 0. 0. 0. 0.
      0. 0. 0. 0. 0. 0. 0. 0. 0. 0. 0. 0. 0. 0. 0. 0. 0. 0. 0. 0. 0. 0.
      0. 0. 0. 0. 0. 0. 0. 0. 0. 0. 0. 0. 0. 0. 0. 0. 0. 0. 0. 0. 0. 0.
      0. 0. 0. 0. 0. 0. 0. 0. 0. 0. 0. 0. 0. 0. 0. 0. 0. 0. 0. 0. 0. 0.
      0. 0. 0. 0. 0. 0. 0. 0. 0. 0. 0. 0. 0. 0. 0. 0. 0. 0. 0. 0. 0. 0.
      0. 0. 0. 0. 0. 0. 0. 0. 0. 0. 0. 0. 0. 0. 0. 0. 0. 0. 0. 0. 0. 0.
      0. 0. 0. 0. 0. 0. 0. 0. 0. 0. 0. 0. 0. 0. 0. 0. 0. 0. 0. 0. 0. 0.
      0. 0. 0. 0. 0. 0. 0. 0. 0. 0. 0. 0. 0. 0. 0. 0. 0. 0. 0. 0. 0. 0.
      0. 0. 0. 0. 0. 0. 0. 0. 0. 0. 0. 0. 2.99033374e-02 0. 0. 0. 0. 0.
      0. 0. 2.99033374e-02 3.31739895e-02 0. 0. 0. 0. 0. 0. 0.
      3.31739895e-02 3.18147004e-01 2.55110472e-01 1.49192974e-01
      1.47195280e-01 2.51851380e-01 1.90273926e-01 1.67098075e-01
      2.25413978e-01 3.18147004e-01 3.18147004e-01 8.60537365e-02
      8.13353658e-02 3.18147004e-01 2.68159688e-01 1.13835447e-01
      9.63009521e-02 3.18147004e-01 3.18147004e-01 1.55654531e-02 0. 0.
      0. 0. 0. 0. 0. 1.55654531e-02 1.21571245e-02 0. 0. 0. 0. 0. 0. 0.
      1.21571245e-02 3.30281466e-01 2.26300489e-02 6.30916581e-02
      3.42417389e-01 1.51371643e-01 0. 1.23019964e-01 3.42417389e-01
      3.42417389e-01 3.42417389e-01 3.42417389e-01 1.42531112e-01
      4.10382496e-03 1.29865274e-01 3.32474530e-01 7.57818893e-02
      7.34917000e-02 3.30230534e-01 2.60120220e-02 0. 0. 0. 0. 0. 0. 0.
      2.60120220e-02 3.41240801e-02 0. 0. 0. 0. 0. 0. 0. 3.41240801e-02
      3.09277415e-01 3.09277415e-01 8.12667757e-02 7.64476657e-02
      2.13990822e-01 3.09277415e-01 5.63741066e-02 4.34905253e-02
      3.09277415e-01 3.09277415e-01 2.45395035e-01 1.75877601e-01
      2.08446354e-01 2.92470902e-01 1.82680592e-01 1.66058794e-01
      2.91416049e-01 3.09277415e-01 2.84408092e-01 2.47379437e-01 0. 0.
      2.84408092e-01 2.84408092e-01 1.27532586e-01 2.80794036e-02
      2.64570862e-01 2.84408092e-01 1.84201583e-01 9.89975687e-03
      9.26281791e-03 2.84408092e-01 2.84408092e-01 4.36957777e-02 0.
      2.84408092e-01 1.01960465e-01 8.87196437e-02 0. 0. 2.84408092e-01
      2.06185877e-01 4.88303974e-02 6.47986215e-03 4.86744866e-02
      5.92116229e-02 4.30498086e-02 0. 0. 2.84408092e-01 1.49679691e-01
      2.13361233e-02 0. 3.33554409e-02 3.49807352e-01 4.16198149e-02
      1.27715888e-02 1.81330908e-02 3.49807352e-01 9.85868797e-02
      1.40530886e-02 0. 3.49807352e-01 3.49807352e-01 2.26373260e-04
      1.28587699e-02 8.54439288e-02 3.49807352e-01 2.09228024e-02
      1.31692421e-02 2.40796190e-02 3.49807352e-01 2.98518091e-02
      8.82097334e-03 0. 0. 3.49807352e-01 4.41781953e-02 6.29738998e-03
      0. 2.45538373e-02 2.86557395e-02 0. 5.26507245e-03 3.69360819e-02
      3.49807352e-01 0. 0. 4.77323448e-03 3.15226018e-02 2.85895407e-01
      0. 3.38457003e-02 2.37437844e-01 2.85895407e-01 1.07068475e-02
      1.01208286e-02 1.43836901e-01 2.85895407e-01 2.85895407e-01
      2.41590645e-02 1.24810904e-01 2.85895407e-01 2.85895407e-01 0.
      5.72974561e-04 2.75199950e-01 2.85895407e-01 2.59740390e-02 0.
      1.57727413e-02 1.10650554e-01 2.85895407e-01 0. 0. 3.25320065e-02
      4.55131568e-02 5.59687540e-02 5.57516888e-03 5.10190390e-02
      2.40579516e-01 2.85895407e-01 0. 0. 9.33344290e-02 1.12026513e-01
      0. 0. 0. 0. 9.99097884e-01 0. 0. 0. 0. 0. 0. 0. 0. 4.25710492e-02
      0. 0. 0. 0. 0. 0. 0. 0. 0. 0. 0. 0. 0. 0. 0. 0. 0. 0. 0. 0. 0. 0.
      0. 0. 0. 0. 0. 0. 0. 0. 0. 0. 0. 0. 0. 0. 0. 0. 0. 0. 0. 0. 0. 0.
      0. 0. 0. 0. 0. 0. 0. 0. 0. 0. 0. 0. 0. 0. 0. 0. 0. 0. 0. 0. 0. 0.
      0. 0. 0. 0. 0. 1. 0. 0. 0. 0. 0. 0. 0. 0. 0. 0. 0. 0. 0. 0. 0. 0.
      0. 0. 0. 0. 0. 0. 0. 0. 0. 0. 0. 0. 0. 0. 0. 0. 0. 0. 0. 0. 0. 0.
