<?xml version="1.0"?>
<opencv_storage>
<opencv_ml_svm>
  <format>3</format>
  <svmType>C_SVC</svmType>
  <kernel>
    <type>RBF</type>
    <gamma>2.2500000000000003e-03</gamma></kernel>
  <C>1.2500000000000000e+01</C>
  <term_criteria><iterations>100</iterations></term_criteria>
  <var_count>5184</var_count>
  <class_count>4</class_count>
  <class_labels type_id="opencv-matrix">
    <rows>4</rows>
    <cols>1</cols>
    <dt>i</dt>
    <data>
      0 1 2 3</data></class_labels>
  <sv_total>75</sv_total>
  <support_vectors>
    <_>
      0. 0. 0. 0. 0. 0. 0. 0. 0. 0. 0. 0. 0. 0. 0. 0. 0. 0. 0. 0. 0. 0.
      0. 0. 0. 0. 0. 0. 0. 0. 0. 0. 0. 0. 0. 0. 0. 0. 0. 0. 0. 0. 0. 0.
      0. 0. 0. 0. 0. 0. 0. 0. 0. 0. 0. 0. 0. 0. 0. 0. 0. 0. 0. 0. 0. 0.
      0. 0. 0. 0. 0. 0. 0. 0. 0. 0. 0. 0. 0. 0. 0. 0. 0. 0. 0. 0. 0. 0.
      0. 0. 0. 0. 0. 0. 0. 0. 0. 0. 0. 0. 0. 0. 0. 0. 0. 0. 0. 0. 0. 0.
      0. 0. 0. 0. 0. 0. 0. 0. 0. 0. 0. 0. 0. 0. 0. 0. 0. 0. 0. 0. 0. 0.
      0. 0. 0. 0. 0. 0. 0. 0. 0. 0. 0. 0. 0. 0. 0. 0. 0. 0. 0. 0. 0. 0.
      0. 0. 0. 0. 0. 0. 0. 0. 0. 0. 0. 0. 0. 0. 0. 0. 0. 0. 0. 0. 0. 0.
      0. 0. 0. 0. 0. 0. 0. 0. 0. 0. 0. 0. 0. 0. 0. 0. 0. 0. 0. 0. 0. 0.
      0. 0. 0. 0. 0. 0. 0. 0. 0. 0. 0. 0. 0. 0. 0. 0. 0. 0. 0. 0. 0. 0.
      0. 0. 0. 0. 0. 0. 0. 0. 0. 0. 0. 0. 0. 0. 0. 0. 0. 0. 0. 0. 0. 0.
      0. 0. 0. 0. 0. 0. 0. 0. 0. 0. 0. 0. 0. 0. 0. 0. 0. 0. 0. 0. 0. 0.
      0. 0. 0. 0. 0. 0. 0. 0. 0. 0. 0. 0. 0. 0. 0. 0. 0. 0. 0. 0. 0. 0.
      0. 0. 0. 0. 0. 0. 0. 0. 0. 0. 0. 0. 0. 0. 0. 0. 0. 0. 0. 0. 0. 0.
      0. 0. 0. 0. 0. 0. 0. 0. 0. 0. 0. 0. 0. 0. 0. 0. 0. 0.
      1.86799932e-02 1.31045803e-01 0. 0. 0. 3.60586733e-01
      2.16572672e-01 0. 0. 0. 0. 0. 0. 0. 6.81353547e-03 4.09229007e-03
      5.46157286e-02 1.76146608e-02 2.04186440e-01 4.57121551e-01
      1.19373918e-01 0. 2.39367962e-01 4.57121551e-01 4.57121551e-01
      1.61036830e-02 2.25219340e-03 1.29647944e-02 4.35525030e-02
      2.75478251e-02 0. 1.18923441e-01 1.95544839e-01 1.09741285e-01 0.
      0. 0. 0. 0. 0. 0. 0. 0. 0. 0. 0. 0. 0. 0. 0. 0. 0. 0. 0. 0. 0. 0.
      0. 0. 0. 0. 0. 0. 0. 0. 0. 0. 0. 0. 0. 6.82329061e-04
      1.13605859e-03 0. 0. 0. 0. 0. 0. 0. 1.88023359e-01 3.13053548e-01
      0. 0. 0. 8.72279406e-02 1.24339247e-02 0. 0. 4.79967222e-02
      9.08253416e-02 8.60216096e-02 0. 1.01383571e-02 7.52956280e-03
      3.55991023e-03 8.28869001e-04 1.06678763e-02 4.77544069e-01
      4.77544069e-01 3.04212272e-01 0. 1.52075350e-01 4.77544069e-01
      2.05873027e-01 1.24330353e-02 5.92985563e-02 8.51682052e-02
      8.88550505e-02 2.26946667e-01 2.73972362e-01 1.40350610e-01
      8.96148104e-03 2.73972362e-01 2.73972362e-01 2.73972362e-01
      2.53890194e-02 1.71391685e-02 4.03488763e-02 4.09120433e-02
      3.34983021e-02 4.07340052e-03 1.95860758e-01 1.40325993e-01
      6.71910942e-02 2.55307496e-01 2.73972362e-01 2.73972362e-01
      8.99933949e-02 1.80575967e-01 2.73972362e-01 2.73972362e-01
      1.79913461e-01 1.10696994e-01 4.24013883e-02 4.82853577e-02
      4.64245677e-02 1.43498713e-02 5.50837256e-02 1.02780819e-01
      2.68467963e-01 9.45277363e-02 2.82448214e-02 0. 0. 0. 0. 0. 0. 0.
      0. 0. 0. 0. 0. 0. 0. 0. 0. 0. 0. 0. 0. 0. 0. 0. 0. 0. 0. 0. 0. 0.
      0. 0. 0. 0. 0. 0. 0. 3.33137289e-02 7.95052946e-02 1.38071731e-01
      2.47337064e-03 1.44150117e-02 9.06902924e-03 1.29365092e-02
      5.64679084e-03 1.41942566e-02 2.87806183e-01 2.87806183e-01
      2.87806183e-01 1.07179387e-02 1.50899023e-01 2.87806183e-01
      2.50417382e-01 9.07690302e-02 8.90509188e-02 1.35375503e-02
      6.44457936e-02 1.83526814e-01 5.11605591e-02 3.20795216e-02
      4.12228564e-03 1.55581646e-02 1.26408422e-02 1.47084901e-02
      1.17889136e-01 2.08768889e-01 2.87806183e-01 2.87806183e-01
      1.84942394e-01 9.86306444e-02 2.87806183e-01 2.87806183e-01
      2.67967016e-01 2.85823286e-01 3.08955520e-01 3.08955520e-01 0.
      1.48235127e-01 3.08955520e-01 3.08955520e-01 1.86883062e-01
      7.94667080e-02 2.48911548e-02 2.63445843e-02 8.45420361e-03 0.
      2.57720072e-02 1.33048043e-01 1.86844006e-01 5.59595451e-02
      1.07608754e-02 2.16527909e-01 3.08955520e-01 1.49842873e-01 0.
      1.89751148e-01 3.08955520e-01 3.08955520e-01 1.40996873e-01
      4.98363748e-02 2.70166143e-04 4.49818937e-04 0. 0. 0.
      3.41331065e-02 8.01732838e-02 2.51025893e-02 0. 0. 0. 0. 0. 0. 0.
      0. 0. 0. 0. 0. 0. 0. 0. 0. 0. 0. 0. 0. 0. 0. 0. 0. 0. 0. 0. 0. 0.
      0. 0. 0. 0. 0. 0. 0. 0. 3.86859989e-03 3.16516310e-02
      1.03502102e-01 5.99613264e-02 1.66773461e-02 0. 3.03933723e-03
      5.21433912e-03 6.39190665e-03 7.32559189e-02 2.24872440e-01
      3.31727535e-01 3.31727535e-01 1.30899355e-01 0. 3.13753605e-01
      3.31727535e-01 2.90650398e-01 0. 9.29083675e-03 2.84432266e-02
      4.00375342e-03 0. 0. 0. 0. 0. 3.10567394e-02 1.64375275e-01
      3.31727535e-01 3.31727535e-01 1.46457940e-01 0. 1.36351347e-01
      2.90141314e-01 1.78020984e-01 0. 0. 0. 0. 0. 0. 0. 0. 0. 0. 0. 0.
      0. 0. 0. 0. 0. 0. 0. 0. 0. 0. 0. 0. 0. 0. 0. 0. 0. 0. 0. 0. 0. 0.
      0. 0. 0. 0. 0. 0. 0. 0. 0. 0. 0. 0. 0. 0. 0. 0. 0. 0. 0. 0. 0. 0.
      0. 0. 0. 0. 0. 0. 0. 0. 0. 0. 0. 0. 0. 0. 0. 0. 0. 0. 0. 0. 0. 0.
      0. 0. 0. 0. 0. 0. 0. 0. 0. 0. 0. 0. 0. 0. 0. 0. 0. 0. 0. 0. 0. 0.
      0. 0. 0. 0. 0. 0. 0. 0. 0. 0. 0. 0. 0. 0. 0. 0. 0. 0. 0. 0. 0. 0.
      0. 0. 0. 0. 0. 0. 0. 0. 0. 0. 0. 0. 0. 0. 0. 0. 0. 0. 0. 0. 0. 0.
      0. 0. 0. 0. 0. 0. 0. 0. 0. 0. 0. 0. 0. 0. 0. 0. 0. 0. 0. 0. 0. 0.
      0. 0. 0. 0. 0. 0. 0. 0. 0. 0. 0. 0. 0. 0. 0. 0. 0. 0. 0. 0. 0. 0.
      0. 0. 0. 0. 0. 0. 0. 0. 0. 0. 0. 0. 0. 0. 0. 0. 0. 0. 0. 0. 0. 0.
      0. 0. 0. 0. 0. 0. 0. 0. 0. 0. 0. 0. 0. 0. 0. 0. 0. 0. 0. 0. 0. 0.
      0. 0. 0. 0. 0. 0. 0. 0. 0. 0. 0. 0. 0. 0. 0. 0. 0. 0. 0. 0. 0. 0.
      0. 0. 0. 0. 0. 0. 0. 0. 0. 0. 0. 0. 0. 0. 0. 0. 0. 0. 0. 0. 0. 0.
      0. 0. 0. 0. 0. 0. 0. 0. 0. 0. 0. 0. 0. 0. 0. 0. 0. 0. 0. 0. 0. 0.
      0. 0. 0. 0. 0. 0. 0. 0. 0. 0. 0. 0. 0. 0. 0. 0. 0. 0. 0. 0. 0. 0.
      0. 0. 0. 0. 0. 0. 0. 0. 0. 0. 0. 0. 0. 0. 0. 0. 0. 0. 0. 0. 0. 0.
      0. 0. 0. 0. 0. 0. 0. 0. 0. 0. 0. 0. 0. 0. 0. 0. 0. 0. 0. 0. 0. 0.
      0. 0. 0. 0. 0. 0. 0. 0. 0. 0. 0. 0. 0. 0. 0. 0. 0. 0. 0. 0. 0. 0.
      0. 0. 0. 0. 0. 0. 0. 0. 0. 0. 0. 0. 0. 0. 0. 0. 0. 0. 0. 0. 0. 0.
      0. 0. 0. 0. 0. 0. 0. 0. 0. 0. 0. 0. 0. 0. 0. 0. 0. 0. 0. 0. 0. 0.
      0. 0. 0. 0. 0. 0. 0. 0. 0. 0. 0. 0. 0. 0. 0. 0. 0. 0. 0. 0. 0. 0.
      0. 0. 0. 0. 0. 0. 0. 0. 0. 0. 0. 0. 0. 0. 0. 0. 0. 0. 0. 0. 0. 0.
      0. 0. 0. 0. 0. 0. 0. 0. 0. 0. 0. 0. 0. 0. 0. 0. 0. 0. 0. 0. 0. 0.
      0. 0. 0. 0. 0. 0. 0. 0. 0. 0. 0. 0. 0. 0. 0. 0. 0. 0. 0. 0. 0. 0.
      0. 0. 0. 0. 0. 0. 0. 0. 0. 0. 0. 0. 0. 0. 0. 0. 0. 0. 0. 0. 0. 0.
      0. 0. 0. 0. 0. 0. 0. 0. 0. 0. 0. 0. 0. 0. 0. 0. 0. 0. 0. 0. 0. 0.
      0. 0. 0. 0. 0. 0. 0. 0. 0. 0. 0. 0. 0. 0. 0. 0. 0. 0. 0. 0. 0. 0.
      0. 0. 0. 0. 0. 0. 0. 0. 0. 0. 0. 0. 0. 0. 0. 0. 0. 0. 0. 0. 0. 0.
      0. 0. 0. 0. 0. 0. 0. 0. 0. 0. 0. 0. 0. 0. 0. 0. 0. 0. 0. 0. 0. 0.
      0. 0. 0. 0. 0. 0. 0. 0. 0. 0. 0. 0. 0. 0. 0. 0. 0. 0. 0. 0.
      2.26338685e-01 2.51163423e-01 1.90406829e-01 2.43355781e-02
      5.34319319e-02 2.51163423e-01 1.83997229e-01 9.10537764e-02
      5.75456731e-02 1.68135375e-01 1.94675982e-01 4.46721911e-02
      2.39347923e-03 5.51104732e-02 2.51163423e-01 2.05801606e-01
      6.81011155e-02 7.01773316e-02 6.98500127e-02 1.51163936e-01
      2.51163423e-01 2.51163423e-01 1.26463577e-01 1.67118698e-01
      1.17692605e-01 2.51163423e-01 2.18023539e-01 1.13359950e-01
      8.98822546e-02 1.02468096e-01 1.53568849e-01 1.30498275e-01
      1.86090603e-01 1.40231565e-01 2.51163423e-01 2.16875255e-01
      1.10031813e-01 7.85874426e-02 1.14024535e-01 0. 2.24736646e-01
      1.50621280e-01 2.43787631e-01 7.41057694e-02 8.56594667e-02
      2.16979042e-01 2.90576428e-01 2.69449890e-01 0. 2.09395006e-01
      1.33725852e-01 1.56884208e-01 4.59407382e-02 6.97501302e-02
      1.94351241e-01 2.46428773e-02 3.81482095e-02 4.11121473e-02
      4.18077148e-02 1.09657139e-01 1.55929983e-01 1.86403349e-01
      2.69882262e-01 1.93686530e-01 2.90576428e-01 2.90576428e-01 0. 0.
      2.09765837e-01 2.79626071e-01 1.05779752e-01 7.72795528e-02
      2.53220260e-01 2.53220260e-01 9.88821909e-02 0. 5.17833382e-02
      2.53220260e-01 1.00273073e-01 1.90614127e-02 7.87556991e-02
      2.53220260e-01 2.53220260e-01 8.93770531e-02 3.43475752e-02
      2.53220260e-01 2.53220260e-01 1.46225467e-01 4.42362055e-02
      2.11409494e-01 1.52216524e-01 2.53220260e-01 2.53220260e-01 0.
      5.30948006e-02 2.53220260e-01 2.53220260e-01 8.89893770e-02
      2.43135579e-02 9.37440023e-02 1.27353728e-01 4.59267646e-02
      1.56125333e-02 1.68554589e-01 2.53220260e-01 1.94830209e-01
      5.24387211e-02 2.78753731e-02 3.98301370e-02 5.82014956e-02
      1.37821689e-01 2.52161682e-01 9.06389132e-02 1.46630183e-02
      4.57376540e-02 2.39735886e-01 1.54682681e-01 1.46262199e-01
      1.00212209e-01 1.40557677e-01 2.52161682e-01 1.39960438e-01
      6.14368878e-02 8.28204155e-02 2.52161682e-01 2.52161682e-01
      2.51851916e-01 2.52161682e-01 7.89729506e-02 9.36200842e-02
      4.95906435e-02 2.52161682e-01 8.94303247e-02 3.30389217e-02
      5.72534613e-02 2.47157022e-01 2.52161682e-01 1.28564999e-01
      1.51730329e-01 2.46147558e-01 2.52161682e-01 1.43164754e-01
      9.94851887e-02 1.28941044e-01 2.24011138e-01 5.71142696e-02
      9.08574611e-02 8.52644071e-02 1.22788571e-01 9.20436010e-02
      1.51484936e-01 2.37465709e-01 2.72806138e-01 7.16043860e-02
      1.65924683e-01 2.72806138e-01 0. 3.69738452e-02 5.90974241e-02
      2.72806138e-01 1.54290095e-01 9.89629850e-02 1.41697213e-01
      1.06829569e-01 1.07364081e-01 6.16206527e-02 2.72806138e-01
      2.72806138e-01 2.14083239e-01 1.56480402e-01 1.57449022e-01
      3.08115408e-02 1.83922872e-01 2.72806138e-01 0. 1.60219982e-01
      8.88815522e-02 2.72806138e-01 1.72141790e-01 5.87225109e-02
      9.17240884e-03 2.36553848e-01 3.47556949e-01 0. 1.23299407e-02
      8.15198123e-02 3.47556949e-01 2.32540593e-01 0. 2.11670971e-03
      1.82763990e-02 4.42564115e-02 0. 1.58527829e-02 4.32018414e-02
      3.10907543e-01 1.01583108e-01 0. 0. 2.53573298e-01 3.47556949e-01
      0. 0. 0. 3.47556949e-01 2.99517870e-01 1.44999744e-02 0.
      1.69048868e-02 5.07146679e-02 0. 0. 0. 3.47556949e-01
      1.30850971e-01 6.59089768e-03 2.27656305e-01 2.57577002e-01
      1.77365378e-01 6.13851026e-02 3.55658233e-02 2.57577002e-01
      1.36086196e-01 9.86950547e-02 1.00120023e-01 1.31852627e-01
      1.44195154e-01 8.10124353e-02 5.23540787e-02 1.43089920e-01
      2.57577002e-01 1.39684156e-01 1.21128567e-01 1.14098281e-01
      6.22816719e-02 1.19933628e-01 2.57577002e-01 2.57577002e-01
      6.21361807e-02 1.30362466e-01 1.50076091e-01 2.57577002e-01
      2.54977137e-01 3.59312817e-02 2.35154759e-02 9.28741843e-02
      2.57577002e-01 1.38655618e-01 5.09708114e-02 1.75808325e-01
      2.57577002e-01 2.12257281e-01 4.22025062e-02 5.18201068e-02
      5.03276736e-02 9.89343226e-03 2.94329941e-01 2.26719618e-01
      1.61521718e-01 9.80359837e-02 5.38866594e-02 0. 2.61535317e-01
      2.94329941e-01 2.21942768e-01 1.32753998e-01 3.85321081e-02
      2.76022643e-01 2.09082291e-01 7.14161173e-02 9.16388333e-02
      3.30669582e-02 1.08649425e-01 6.62843734e-02 1.72968119e-01
      1.76369480e-03 2.34649524e-01 2.08674923e-01 1.70044065e-01
      9.06005427e-02 1.20479316e-01 2.94329941e-01 2.94329941e-01
      1.38278112e-01 0. 1.39196396e-01 1.72312707e-01 1.66225940e-01
      2.03535762e-02 1.07561558e-01 2.63789177e-01 2.06070617e-01
      2.47317981e-02 0. 2.61956334e-01 2.63789177e-01 1.38156146e-01
      6.07783347e-02 1.65684614e-02 4.35100794e-02 9.68700200e-02
      1.47472732e-02 1.45157427e-03 1.33106098e-01 2.15341687e-01
      1.59503341e-01 3.14928629e-02 4.78622541e-02 2.18466699e-01
      2.63789177e-01 1.78759113e-01 0. 8.33010077e-02 2.63789177e-01
      1.96015492e-01 1.78714201e-01 6.20634817e-02 1.54908240e-01
      2.63789177e-01 2.63789177e-01 2.17736159e-02 1.19773924e-01
      2.63789177e-01 2.63789177e-01 2.04830751e-01 2.31636897e-01
      1.11167550e-01 5.97041659e-02 6.24555387e-02 2.31636897e-01
      1.07418008e-01 6.08223490e-02 1.09440140e-01 1.18729174e-01
      5.71531020e-02 1.12144478e-01 1.48980573e-01 9.38275084e-02
      1.18594810e-01 1.29545823e-01 1.81048423e-01 1.88791230e-01
      1.79454312e-01 1.39013022e-01 2.31636897e-01 1.18601561e-01
      1.48289293e-01 2.14186639e-01 1.96584851e-01 1.46593973e-01
      2.08840221e-01 2.04520002e-01 6.25215322e-02 1.91910267e-01
      2.31636897e-01 2.31636897e-01 1.29542768e-01 2.31636897e-01
      2.15291604e-01 2.31636897e-01 1.46468431e-01 2.29484122e-02
      9.58975479e-02 1.89780295e-01 1.97163314e-01 1.64920148e-02
      3.01301539e-01 3.01301539e-01 3.01301539e-01 0. 0. 0. 0. 0. 0.
      1.15431184e-02 3.84770636e-03 0. 2.94298917e-01 3.16498131e-02
      1.44599468e-01 3.01301539e-01 3.01301539e-01 2.54922509e-01
      3.01301539e-01 3.01301539e-01 3.01301539e-01 0. 0. 0. 0. 0. 0.
      2.58793402e-02 8.62644613e-03 0. 0. 0. 0. 0. 0. 0. 0. 0. 0. 0. 0.
      0. 0. 0. 0. 0. 0. 0. 0. 0. 0. 0. 0. 0. 0. 0. 0. 0. 0. 0. 0. 0. 0.
      0. 0. 0. 1.84368461e-01 1.87098846e-01 2.31518283e-01
      8.98804888e-02 2.31518283e-01 1.89320847e-01 2.31518283e-01
      1.61027148e-01 1.75353855e-01 1.63855091e-01 9.50453803e-02
      1.65017188e-01 9.09611285e-02 2.31518283e-01 1.53629065e-01
      2.31518283e-01 1.17156729e-01 1.47601470e-01 1.82204068e-01
      2.04681799e-01 2.31518283e-01 2.42860001e-02 2.31518283e-01
      2.11043775e-01 2.31518283e-01 9.56406817e-02 1.19194746e-01
      9.96418074e-02 9.33156759e-02 1.09874919e-01 0. 1.65754095e-01
      1.12240396e-01 2.31518283e-01 8.04543719e-02 6.60646856e-02
      9.60857049e-02 1.43731087e-02 5.28743640e-02 6.84345290e-02
      2.37512216e-01 1.35086760e-01 2.83581376e-01 1.03017122e-01
      1.05039999e-01 4.33437005e-02 3.79973510e-03 1.13992048e-02 0. 0.
      0. 5.66964783e-03 1.61514487e-02 5.19093685e-02 2.20979109e-01
      1.72114283e-01 2.39509165e-01 0. 4.67258543e-02 4.81676869e-02
      1.21716432e-01 5.25450222e-02 1.74121663e-01 3.01990986e-01
      2.99493164e-01 3.01990986e-01 0. 0. 3.01990986e-01 2.86572576e-01
      2.88976371e-01 3.01990986e-01 5.13858870e-02 2.17350014e-03
      6.52050087e-03 0. 0. 0. 0. 2.21752264e-02 6.47045821e-02
      1.10831484e-03 0. 0. 0. 0. 0. 0. 0. 1.10831484e-03 3.98176223e-01
      1.89159781e-01 3.98176223e-01 0. 0. 3.98176223e-01 3.98176223e-01
      3.98176223e-01 3.98176223e-01 1.66247245e-02 0. 0. 0. 0.
      2.16337051e-02 9.79325473e-02 3.16162556e-02 1.66247245e-02
      1.81764469e-01 1.46194577e-01 1.62385315e-01 0. 2.25543410e-01
      1.33735001e-01 1.99715540e-01 6.02174215e-02 1.26468524e-01
      1.58406168e-01 1.51805609e-01 1.12454243e-01 1.22890975e-02
      1.22187808e-01 9.83633921e-02 1.79100648e-01 5.50264716e-02
      8.93931016e-02 2.32070804e-01 1.97722062e-01 1.96226746e-01
      5.27590998e-02 2.32070804e-01 1.36481404e-01 1.57598153e-01
      1.14448629e-01 2.32070804e-01 2.32070804e-01 2.32070804e-01
      1.89690799e-01 1.02202028e-01 1.98034078e-01 2.15680972e-01
      2.32070804e-01 1.54627174e-01 2.32070804e-01 1.80552587e-01
      1.82479560e-01 1.19728267e-01 1.74509659e-02 9.13282484e-02
      1.16919704e-01 7.58146793e-02 2.31599119e-02 9.64937434e-02
      2.12636888e-01 1.61256447e-01 2.09223807e-01 4.02714638e-03
      1.26034200e-01 2.23660558e-01 1.64942607e-01 8.08174238e-02
      1.82443857e-01 2.13854149e-01 2.23660558e-01 1.82310417e-01
      1.15361258e-01 2.23660558e-01 1.97247565e-01 2.23660558e-01
      1.00569390e-01 1.30564108e-01 2.23660558e-01 2.10002303e-01
      1.84718400e-01 8.26065987e-02 2.23660558e-01 2.23660558e-01
      2.23660558e-01 1.36813194e-01 1.71508491e-01 2.47669756e-01
      1.12810209e-01 2.02525109e-01 0. 9.92230698e-02 2.88861543e-01
      2.88861543e-01 1.93301886e-01 2.68907160e-01 1.06675802e-02
      2.07538571e-04 6.22615684e-04 0. 0. 1.33580724e-02 4.42802012e-02
      1.41253565e-02 1.06675802e-02 2.88861543e-01 2.20332757e-01
      2.43751988e-01 4.85753678e-02 2.88861543e-01 2.88861543e-01
      2.88861543e-01 2.43601114e-01 2.88735598e-01 2.98619792e-02
      3.11307842e-03 9.33923479e-03 0. 3.73569392e-02 1.54674528e-02
      1.07384086e-01 3.50597538e-02 2.98619792e-02 5.00340108e-03
      9.41983610e-02 2.83523738e-01 6.83230534e-02 1.94763057e-02 0.
      1.90876368e-02 3.49418521e-02 2.21684724e-02 4.66205254e-02
      1.39695272e-01 2.83523738e-01 1.17718197e-01 2.28920236e-01 0.
      2.83523738e-01 2.50701249e-01 1.15202196e-01 0. 8.04429799e-02
      2.62255490e-01 1.46806017e-01 7.33632641e-03 0. 2.81338990e-02
      5.80110550e-02 2.92096082e-02 5.84385879e-02 1.69260144e-01
      2.83523738e-01 2.83523738e-01 2.23758340e-01 0. 2.83523738e-01
      2.83523738e-01 2.83523738e-01 6.97871149e-02 4.85247672e-02
      1.51100770e-01 3.87698747e-02 2.60176599e-01 0. 3.15463841e-01
      2.80760884e-01 1.12210184e-01 6.51519047e-03 0. 0. 0.
      4.44245525e-03 0. 4.77402136e-02 1.59134045e-02 6.51519047e-03
      2.19231933e-01 1.24797754e-01 3.15463841e-01 2.77705252e-01
      3.15463841e-01 0. 3.15463841e-01 3.15463841e-01 3.15463841e-01
      1.12363808e-01 1.78667307e-02 5.39150052e-02 2.20848923e-03
      7.32815564e-02 0. 1.77109182e-01 8.34343955e-02 1.27017543e-01 0.
      0. 0. 0. 0. 0. 0. 0. 0. 0. 0. 0. 0. 0. 0. 0. 0. 0. 6.52484536e-01
      0. 0. 0. 0. 0. 3.60683650e-01 1.20227881e-01 6.52484536e-01 0. 0.
      0. 0. 0. 0. 0. 0. 0. 0. 4.66949716e-02 1.61376715e-01
      1.49368390e-01 0. 0. 9.42903105e-03 2.91472524e-02 1.56184603e-02
      4.10899296e-02 1.60379618e-01 3.54412079e-01 3.54412079e-01
      1.21872708e-01 0. 2.34384269e-01 3.54412079e-01 3.54412079e-01 0.
      4.30192100e-03 1.86074954e-02 3.99993770e-02 0. 0. 0.
      2.36814236e-03 1.42233423e-03 1.41716944e-02 8.10933262e-02
      3.38706285e-01 3.54412079e-01 1.62843391e-01 0. 5.74700199e-02
      2.35486999e-01 1.44102246e-01 8.90628323e-02 6.04012571e-02
      2.21938580e-01 2.52421975e-01 1.52782068e-01 0. 1.92158282e-01
      2.52421975e-01 2.52421975e-01 9.89015922e-02 2.49950755e-02
      8.30705985e-02 5.67214116e-02 1.02413617e-01 0. 1.39692247e-01
      1.55279249e-01 1.64197206e-01 6.37122244e-02 4.67909835e-02
      2.06120983e-01 2.52421975e-01 2.24364981e-01 0. 8.73885378e-02
      2.52421975e-01 2.16390163e-01 1.79228291e-01 2.23365035e-02
      1.17197059e-01 2.52421975e-01 2.52421975e-01 0. 1.06968068e-01
      2.52421975e-01 2.52421975e-01 7.61427060e-02 6.37658825e-03
      2.49057058e-02 4.05199751e-02 4.09080386e-02 0. 7.44881332e-02
      1.09515764e-01 1.27006352e-01 5.27748540e-02 7.11226230e-03
      3.09669459e-03 0. 0. 0. 3.37662944e-03 1.12554303e-03
      4.91231121e-02 3.53781760e-01 8.19846988e-03 4.93267737e-02
      1.73498020e-01 3.53781760e-01 0. 1.29969969e-01 2.83937305e-01
      3.53781760e-01 3.53781760e-01 1.09345593e-01 8.31131488e-02
      2.01183215e-01 3.53781760e-01 0. 6.91696629e-02 1.12015747e-01
      3.53781760e-01 0. 0. 0. 0. 0. 0. 0. 0. 0. 3.87327112e-02
      2.51123846e-01 5.48717737e-01 5.48717737e-01 5.48717737e-01 0.
      5.45790270e-02 1.43772647e-01 1.14157327e-01 0. 0. 0. 0. 0. 0. 0.
      0. 0. 0. 0. 0. 0. 0. 0. 0. 0. 0. 3.78671512e-02 2.93171145e-02
      1.74094871e-01 3.62821311e-01 3.62821311e-01 0. 1.57698654e-02
      2.02400237e-01 1.56273946e-01 2.28116706e-01 7.55279651e-03
      1.24590486e-01 3.62821311e-01 3.62821311e-01 0. 3.60344648e-02
      3.62821311e-01 3.62821311e-01 0. 0. 2.25440995e-03 1.58153698e-02
      3.32168192e-02 0. 0. 0. 0. 0. 0. 3.74173699e-03 2.62494162e-02
      2.17555374e-01 0. 0. 0. 0. 3.07583034e-01 1.08365086e-03
      1.67463180e-02 9.46740806e-02 3.50508779e-01 0. 2.42829304e-02
      9.91183594e-02 3.50508779e-01 3.50508779e-01 7.02634081e-02
      1.01326436e-01 3.50508779e-01 3.50508779e-01 0. 7.73894787e-02
      1.22612879e-01 3.50508779e-01 0. 0. 5.75833430e-04 4.03964613e-03
      2.23774344e-01 0. 0. 0. 0. 0. 3.21195088e-03 2.62758825e-02
      1.16734870e-01 2.32536703e-01 0. 1.15034981e-02 1.44316684e-02
      6.36478467e-03 0. 0. 0. 0. 0. 0. 0. 0. 0. 0. 0. 0. 0. 0. 0. 0. 0.
      0. 0. 0. 0. 0. 0. 0. 0. 0. 0. 0. 0. 0. 0. 0. 0. 0. 0. 0. 0. 0. 0.
      0. 0. 0. 0. 0. 0. 0. 0. 0. 0. 0. 0. 0. 0. 0. 0. 0. 0. 0. 0. 0. 0.
      0. 0. 0. 0. 0. 0. 0. 0. 0. 0. 0. 0. 0. 0. 0. 0. 0. 0. 0. 0. 0. 0.
      0. 0. 0. 0. 0. 0. 0. 0. 0. 0. 0. 0. 0. 0. 0. 0. 0. 0. 0. 0. 0. 0.
      0. 0. 0. 0. 0. 0. 0. 0. 0. 0. 0. 0. 0. 0. 0. 0. 0. 0. 0. 0. 0. 0.
      0. 0. 0. 0. 0. 0. 0. 0. 0. 0. 0. 0. 0. 0. 0. 0. 0. 0. 0. 0. 0. 0.
      0. 0. 0. 0. 0. 0. 0. 0. 0. 0. 0. 0. 0. 0. 0. 0. 0. 0. 0. 0. 0. 0.
      0. 0. 0. 0. 0. 0. 0. 0. 0. 0. 0. 0. 0. 0. 0. 0. 0. 0. 0. 0. 0. 0.
      0. 0. 0. 0. 0. 0. 0. 0. 0. 0. 0. 0. 0. 0. 0. 0. 0. 0. 0. 0. 0. 0.
      0. 0. 0. 0. 0. 0. 0. 0. 0. 0. 0. 0. 0. 0. 0. 0. 0. 0. 0. 0. 0. 0.
      0. 0. 0. 0. 0. 0. 0. 0. 0. 0. 0. 0. 0. 0. 0. 0. 0. 0. 0. 0. 0. 0.
      0. 0. 0. 0. 0. 0. 0. 0. 0. 0. 0. 0. 0. 0. 0. 0. 0. 0. 0. 0. 0. 0.
      0. 0. 0. 0. 0. 0. 0. 0. 0. 0. 0. 0. 0. 0. 0. 0. 0. 0. 0. 0. 0. 0.
      0. 0. 0. 0. 0. 0. 0. 0. 0. 0. 0. 0. 0. 0. 0. 0. 0. 0. 0. 0. 0.
      3.10038686e-01 3.10038686e-01 1.37543557e-02 3.76645103e-02
      2.96539783e-01 3.10038686e-01 1.02545857e-01 6.07341416e-02
      1.41376495e-01 2.78375894e-01 3.10038686e-01 1.84479896e-02 0.
      1.07652262e-01 3.10038686e-01 2.12368965e-01 3.05537488e-02
      3.83590572e-02 1.08825862e-01 1.17739804e-01 4.17581620e-03
      2.92946193e-02 3.10038686e-01 2.69116938e-01 3.95293050e-02
      2.53412519e-02 5.30964732e-02 3.44370082e-02 5.51759005e-02 0. 0.
      6.35729134e-02 2.36010313e-01 3.87033932e-02 1.68708456e-03
      1.29775726e-03 3.02338690e-01 3.87791634e-01 4.02627848e-02 0.
      3.94510567e-01 5.19847035e-01 5.19847035e-01 1.42387688e-01
      7.74875581e-02 0. 0. 0. 0. 7.71470219e-02 8.67424998e-03
      1.15019064e-02 3.42181115e-03 0. 3.71888513e-03 6.19183760e-03 0.
      0. 0. 1.75685316e-01 4.32551987e-02 6.07070141e-03 0. 0. 0. 0. 0.
      0. 0. 0. 0. 0. 0. 0. 0. 0. 0. 0. 0. 0. 0. 0. 0. 0. 0. 0. 0. 0. 0.
      0. 0. 0. 0. 0. 0. 0. 0. 0. 0. 0. 0. 0. 0. 0. 0. 0. 0. 0. 0. 0. 0.
      0. 9.27457333e-01 0. 0. 0. 0. 0. 0. 0. 0. 3.74897748e-01 0. 0. 0.
      0. 0. 0. 0. 0. 0. 0. 0. 0. 0. 0. 0. 0. 0. 0. 0. 0. 0. 0. 0. 0. 0.
      0. 0. 0. 0. 0. 0. 0. 0. 0. 0. 0. 0. 0. 0. 0. 0. 0. 0. 0. 0. 0. 0.
      0. 0. 0. 0. 0. 0. 0. 0. 0. 0. 0. 0. 0. 0. 0. 0. 0. 0. 0. 0. 0. 0.
      0. 0. 0. 0. 0. 0. 0. 0. 0. 0. 0. 0. 0. 0. 0. 0. 0. 0. 0. 0. 0. 0.
      0. 0. 0. 1.65125445e-01 1.62451956e-02 1.22070778e-02
      8.56363550e-02 4.74480428e-02 2.28110515e-02 3.25160613e-03
      1.30367398e-01 2.33668610e-01 2.68890280e-02 0. 4.86281980e-03
      3.41141596e-02 1.69376086e-03 0. 0. 1.03348039e-01 8.89610797e-02
      2.26211190e-01 3.82267535e-02 1.26532286e-01 3.40990663e-01
      2.66579866e-01 9.88478884e-02 3.31450999e-02 3.40990663e-01
      3.40990663e-01 5.61790168e-02 5.47211198e-03 1.02203794e-01
      3.40990663e-01 7.42720664e-02 0. 9.65795889e-02 3.40990663e-01
      3.40990663e-01 0. 0. 0. 0. 0. 0. 0. 5.79087026e-02 3.47806551e-02
      0. 0. 0. 0. 0. 0. 0. 0. 0. 8.31546485e-02 1.27729587e-02
      1.06539607e-01 4.78589088e-01 1.56233147e-01 0. 4.64315474e-01
      5.06359339e-01 5.06359339e-01 0. 0. 0. 0. 0. 0. 9.76981223e-03
      3.25660431e-03 0. 0. 0. 0. 0. 0. 0. 0. 0. 0. 0. 0. 0. 0. 0. 0. 0.
      0. 0. 0. 0. 0. 0. 0. 0. 0. 0. 0. 0. 0. 0. 0. 0. 0. 0. 0. 0.
      2.41539180e-02 3.70824151e-02 4.49841423e-03 4.98334551e-03
      2.55481061e-03 4.53294860e-03 6.46150147e-04 0. 2.64020381e-03
      2.29017913e-01 3.48814040e-01 1.36029527e-01 6.55415431e-02
      6.91148788e-02 2.49828160e-01 9.99148116e-02 3.53056416e-02
      1.50356926e-02 3.33451122e-01 3.48814040e-01 4.87563610e-02 0.
      4.91670445e-02 2.41810903e-01 6.61968291e-02 1.05759474e-02
      9.95396003e-02 3.48814040e-01 3.48814040e-01 4.21120599e-02 0.
      5.44224642e-02 3.48814040e-01 1.83055431e-01 1.11439042e-02
      1.22496128e-01 2.63271153e-01 3.22062433e-01 2.09598109e-01
      8.06293860e-02 6.97899163e-02 3.22062433e-01 3.22062433e-01
      1.43927380e-01 3.10964473e-02 3.37493084e-02 6.00654297e-02
      3.44048403e-02 1.22526102e-02 2.65133148e-03 1.44476652e-01
      2.66390473e-01 9.22139958e-02 1.03871692e-02 3.22062433e-01
      3.22062433e-01 3.58078144e-02 0. 1.46649042e-02 3.22062433e-01
      2.58780181e-01 5.24212532e-02 1.26142457e-01 7.59523585e-02
      2.36466806e-02 3.14589939e-03 0. 0. 1.37631342e-01 8.88538733e-02
      6.25030249e-02 8.60586241e-02 0. 0. 0. 0. 0. 0. 0. 0. 0. 0. 0. 0.
      0. 0. 0. 0. 0. 0. 3.45928192e-01 0. 0. 0. 0. 0. 0. 6.11271977e-01
      7.13065445e-01 0. 0. 0. 0. 0. 0. 0. 0. 0. 2.65518546e-01
      2.65518546e-01 9.76399481e-02 6.51350841e-02 1.86461598e-01
      2.65518546e-01 1.29444391e-01 2.49261111e-02 1.41880229e-01
      2.65518546e-01 2.65518546e-01 1.88382939e-02 2.07735505e-03
      2.65518546e-01 2.65518546e-01 9.91367847e-02 4.51404322e-03
      1.95401177e-01 1.61782160e-01 1.59630582e-01 7.70037696e-02
      1.12234548e-01 2.65518546e-01 2.65518546e-01 8.73870254e-02
      1.49917919e-02 7.81197697e-02 1.25823706e-01 6.57985434e-02
      4.93042264e-03 4.57018102e-03 2.65518546e-01 2.33280867e-01
      3.92942429e-02 2.01372569e-03 8.71610492e-02 2.60932088e-01
      7.17847049e-02 1.73746496e-02 1.21888436e-01 2.60932088e-01
      2.60932088e-01 4.82671708e-02 6.75172061e-02 2.60932088e-01
      1.94978505e-01 5.39062836e-04 3.56845967e-02 2.50338256e-01
      1.76137343e-01 1.24180233e-02 5.09903813e-03 2.58426189e-01
      2.60932088e-01 1.16378061e-01 0. 2.71769091e-02 1.90654263e-01
      2.60932088e-01 1.81169715e-02 2.58248765e-03 5.94417416e-02
      1.52079448e-01 1.37892261e-01 0. 6.01704344e-02 2.60932088e-01
      2.60932088e-01 0. 0. 2.59275049e-01 2.60932088e-01 2.14801699e-01
      1.49643316e-03 1.96184292e-02 1.06135435e-01 1.45247385e-01 0.
      1.85538940e-02 1.64996907e-01 2.69264489e-01 1.33735150e-01
      1.92398531e-03 1.05344737e-02 3.34105045e-02 4.21926230e-02 0.
      8.04002136e-02 7.85146356e-02 1.64795518e-01 2.59735078e-01
      6.32202923e-02 2.26246014e-01 2.56655753e-01 2.69264489e-01 0.
      1.21519752e-01 2.36918539e-01 2.69264489e-01 1.71945184e-01
      8.12832341e-02 2.64487296e-01 1.44778848e-01 1.82834715e-01 0.
      2.69264489e-01 2.69264489e-01 2.40278050e-01 1.57274723e-01
      1.28454849e-01 1.55118406e-01 3.28342408e-01 4.48155820e-01
      4.48155820e-01 9.82548222e-02 0. 1.01808317e-01 4.06685397e-02
      4.19772565e-02 2.25047977e-03 1.57877970e-02 4.48155820e-01
      4.48155820e-01 7.15326741e-02 0. 1.54565414e-02 0. 0. 0. 0. 0. 0.
      0. 0. 0. 0. 0. 0. 0. 0. 0. 0. 0. 0. 0. 0. 2.24216059e-02
      1.57294363e-01 3.00384194e-01 7.23460596e-03 1.03125861e-03
      1.44253112e-02 8.66401289e-03 6.88286796e-02 4.17254083e-02
      8.11196938e-02 3.73554736e-01 4.16352928e-01 0. 0. 9.66472179e-02
      1.07395306e-01 8.70744418e-03 1.95730403e-02 1.52261816e-02 0. 0.
      0. 0. 0. 0. 4.16352928e-01 4.16352928e-01 1.27296641e-01 0. 0.
      4.16352928e-01 7.91387260e-02 0. 0. 7.66150057e-02 1.58714741e-01
      2.23102212e-01 5.02779931e-02 1.67307988e-01 4.21476923e-02
      1.10087827e-01 5.27985245e-02 3.53944488e-02 7.45996162e-02
      1.84360355e-01 2.69934803e-01 3.84849869e-02 4.86009642e-02
      8.78302827e-02 2.96474457e-01 1.67083800e-01 2.78315432e-02
      2.96474457e-01 2.96474457e-01 1.22594520e-01 0. 0. 2.96474457e-01
      1.67332575e-01 2.95026619e-02 0. 2.00496733e-01 2.96474457e-01
      1.22136883e-01 0. 0. 2.96474457e-01 2.96474457e-01 1.03890315e-01
      0. 6.91296831e-02 9.35229510e-02 3.69254462e-02 0. 2.64335866e-03
      3.24033909e-02 1.93294920e-02 4.90351487e-03 2.03514006e-02
      2.69085586e-01 2.69085586e-01 1.11531876e-01 0. 6.97563067e-02
      2.69085586e-01 9.92243960e-02 1.64153595e-02 6.24744706e-02
      2.69085586e-01 2.69085586e-01 2.09966421e-01 4.64372151e-02
      6.76756129e-02 2.22240463e-01 1.84933215e-01 5.10846339e-02
      1.03560060e-01 2.69085586e-01 2.69085586e-01 1.74540848e-01
      3.61178368e-02 2.69085586e-01 2.69085586e-01 2.69085586e-01
      6.45983815e-02 2.26894364e-01 2.79038191e-01 2.79038191e-01
      6.45748675e-02 0. 7.61988908e-02 2.79038191e-01 1.50165245e-01
      1.77537911e-02 2.93814223e-02 1.50789827e-01 2.58664846e-01
      1.10940330e-01 8.48001800e-03 4.91315387e-02 2.79038191e-01
      1.27544209e-01 2.28235386e-02 2.10286826e-02 2.79038191e-01
      1.28307462e-01 3.18398364e-02 0. 2.79038191e-01 2.79038191e-01
      1.20157890e-01 2.34127063e-02 2.32692167e-01 2.39254043e-01
      7.02408105e-02 1.60984218e-01 8.25125948e-02 2.06308916e-01
      7.93125257e-02 7.11912885e-02 7.09683150e-02 2.57576585e-01
      1.60300836e-01 1.98621929e-01 1.78174883e-01 2.31006611e-02
      7.19720572e-02 1.97793946e-01 1.02912538e-01 5.21728694e-02
      9.23951641e-02 2.29526535e-01 2.29526535e-01 7.56858587e-02
      2.09146645e-02 2.29526535e-01 2.29526535e-01 9.99417230e-02
      7.16239810e-02 1.80856436e-01 1.56579390e-01 1.09202690e-01
      2.29526535e-01 2.14223266e-01 2.22269341e-01 7.25751743e-02
      8.67433026e-02 1.80812493e-01 2.28678852e-01 1.28079399e-01
      6.34560734e-02 1.58421382e-01 2.29526535e-01 2.19334662e-01
      1.03661120e-01 1.86519966e-01 2.29526535e-01 2.29526535e-01
      2.64044106e-01 2.64044106e-01 2.25108415e-01 1.01436235e-01
      2.51483887e-01 2.64044106e-01 2.64044106e-01 7.35076368e-02
      1.15712270e-01 2.64044106e-01 1.27161711e-01 1.14542559e-01
      7.88948536e-02 2.64044106e-01 1.95358232e-01 1.77655026e-01
      4.99358736e-02 2.43168086e-01 1.05627038e-01 8.37785453e-02
      8.85427818e-02 1.10695109e-01 1.56654581e-01 2.17639640e-01
      1.64974913e-01 2.05459207e-01 1.66459903e-01 1.85028687e-02
      3.03212227e-03 1.16916234e-02 1.82065051e-02 2.64044106e-01
      3.17146839e-03 2.76891962e-02 1.21326633e-02 2.03369111e-02
      3.10139269e-01 7.53605692e-03 4.53600707e-03 0. 3.10139269e-01
      6.97421059e-02 3.91288735e-02 9.72915720e-03 3.10139269e-01
      3.10139269e-01 3.26269008e-02 1.46562219e-01 3.10139269e-01
      3.10139269e-01 1.07583276e-03 8.10223818e-02 1.65808186e-01
      3.10139269e-01 2.35687979e-02 0. 0. 0. 3.10139269e-01 0.
      6.51875103e-04 2.17291730e-04 2.35687979e-02 2.81711407e-02
      2.59828568e-02 1.14309713e-01 2.55084485e-01 2.93439776e-01 0.
      1.81793384e-02 5.91053404e-02 6.00309260e-02 9.55275074e-02
      4.51436937e-02 1.73995525e-01 2.39075691e-01 1.68652654e-01
      3.74985102e-04 6.79008961e-02 2.39075691e-01 2.34530300e-01
      4.58209291e-02 8.78156424e-02 2.39075691e-01 2.39075691e-01
      7.37481564e-02 5.62477624e-03 2.39075691e-01 2.39075691e-01
      1.82010710e-01 4.12941910e-02 8.27432126e-02 2.09778070e-01
      2.39075691e-01 8.03183690e-02 2.59963796e-02 7.20882937e-02
      1.51147500e-01 1.01356827e-01 1.09702818e-01 2.07699865e-01
      2.39075691e-01 2.03968376e-01 9.85256061e-02 2.20858037e-01
      2.39075691e-01 2.26643622e-01 1.03304878e-01 7.53316954e-02
      4.39461097e-02 1.71959013e-01 2.81458676e-01 1.63636059e-01
      8.17180984e-03 2.90005684e-01 2.90005684e-01 2.81677753e-01
      4.64110728e-03 0. 0. 0. 9.22766048e-03 0. 7.68735632e-02
      3.23782079e-02 8.69745109e-03 1.18378639e-01 9.40139964e-02
      2.90005684e-01 2.90005684e-01 2.77090937e-01 0. 2.90005684e-01
      2.90005684e-01 2.90005684e-01 1.02804139e-01 2.46920343e-02
      7.90763125e-02 3.50779966e-02 6.38561994e-02 0. 1.41804576e-01
      1.43090174e-01 1.60355985e-01 0. 0. 0. 0. 0. 0. 0. 0. 0. 0.
      1.58490002e-01 4.29116219e-01 2.26699725e-01 0. 0. 0. 0. 0.
      4.29116219e-01 9.39362496e-02 2.81808704e-01 0. 2.15680853e-01 0.
      4.29116219e-01 2.36293718e-01 4.29116219e-01 0. 4.76217829e-03
      1.42865349e-02 0. 0. 0. 4.04990762e-02 1.34996939e-02 0.
      4.25367244e-02 8.67375359e-02 1.60737336e-01 1.34538338e-01
      1.44630462e-01 4.62045819e-02 3.54801677e-02 1.72919389e-02
      2.33830009e-02 2.52684832e-01 3.10571581e-01 1.84937611e-01
      1.40547410e-01 3.10571581e-01 3.10571581e-01 2.23704308e-01
      6.50038570e-02 9.34615508e-02 9.54832584e-02 1.88866869e-01
      1.14601880e-01 5.34411799e-03 4.29683030e-02 7.21517950e-02
      1.74958147e-02 7.03359116e-03 7.61977443e-03 3.10571581e-01
      3.10571581e-01 1.55207500e-01 6.87100971e-03 2.02447325e-01
      3.10571581e-01 1.39755517e-01 3.04788966e-02 1.33954227e-01
      3.22016850e-02 4.69657034e-03 1.40791908e-01 3.38352084e-01
      2.18990728e-01 0. 3.57495062e-02 3.38352084e-01 2.31582910e-01
      2.41304144e-01 2.46179989e-03 8.33211467e-02 3.38352084e-01
      3.38352084e-01 0. 6.82980195e-02 3.38352084e-01 3.38352084e-01
      1.22951006e-03 0. 9.83614381e-03 6.90035224e-02 8.01757500e-02 0.
      0. 7.56471185e-03 5.77296643e-03 1.56700034e-02 0. 8.94302595e-03
      6.27380311e-02 3.31376612e-01 0. 0. 1.25554604e-02 2.32109576e-02
      3.22649896e-01 1.22029185e-01 4.97258129e-03 3.48841660e-02
      3.22649896e-01 1.16639614e-01 4.44834381e-02 7.04579204e-02
      3.22649896e-01 3.22649896e-01 2.14029506e-01 3.87964882e-02
      3.02957185e-02 3.22649896e-01 3.22649896e-01 6.61289841e-02
      5.67316962e-03 3.19730729e-01 2.37072259e-02 8.13527964e-03
      6.23644562e-04 4.37505590e-03 3.22649896e-01 2.69168336e-02
      3.83686577e-03 2.47017061e-03 2.03047022e-02 1.35770217e-02
      2.04845853e-02 2.19429750e-02 6.99131982e-03 2.77619958e-01
      7.95043036e-02 1.24675902e-02 3.78211320e-04 5.46730030e-03
      1.38212368e-01 5.74134812e-02 1.44821241e-01 1.54211059e-01
      2.56696701e-01 4.56515066e-02 8.40400755e-02 1.10297129e-01
      1.79045454e-01 1.45640165e-01 8.45566988e-02 2.56696701e-01
      2.56696701e-01 2.54992187e-01 0. 2.48059213e-01 2.56696701e-01
      2.56696701e-01 7.46498117e-03 3.13409790e-02 1.13275252e-01
      1.58165202e-01 9.24711674e-02 1.05349626e-02 2.64948867e-02
      5.63337915e-02 3.56366336e-02 7.59157911e-02 8.91057774e-02
      2.56696701e-01 2.56696701e-01 2.15002432e-01 0. 1.62321016e-01
      2.56696701e-01 2.56696701e-01 0. 0. 0. 0. 0. 0. 0. 0. 0. 0. 0. 0.
      0. 0. 0. 0. 0. 0. 0. 0. 0. 0. 0. 0. 0. 0. 0. 0. 0. 0. 0. 0. 0. 0.
      0. 0. 0. 0. 0. 0. 0. 0. 0. 0. 0. 0. 0. 0. 0. 0. 0. 0. 0. 0. 0. 0.
      0. 0. 0. 0. 0. 0. 0. 0. 0. 0. 0. 0. 0. 0. 0. 0. 2.92382250e-03
      2.34022234e-02 1.00282341e-01 2.10990041e-01 5.99064305e-02 0.
      7.87582994e-03 2.99128648e-02 1.93130691e-02 6.69565573e-02
      1.59642324e-01 4.23118621e-01 4.23118621e-01 4.23118621e-01 0.
      2.61348873e-01 4.23118621e-01 3.45317423e-01 0. 0. 0. 0.
      1.49092055e-03 0. 0. 0. 0. 0. 2.93893926e-03 1.19873993e-02
      2.22425871e-02 1.06943011e-01 0. 2.88330205e-03 9.61100741e-04 0.
      0. 0. 0. 0. 0. 0. 0. 0. 0. 0. 0. 0. 0. 0. 0. 0. 0. 0. 0. 0. 0. 0.
      0. 0. 0. 0. 0. 0. 0. 0. 0. 0. 0. 0. 0. 0. 0. 0. 0. 0. 0. 0. 0. 0.
      0. 0. 0. 0. 0. 0. 0. 0. 0. 0. 0. 0. 0. 0. 0. 0. 0. 0. 0. 0.
      3.11495006e-01 9.34485018e-01 0. 0. 0. 0. 0. 0. 4.10484476e-03
      3.94331990e-03 0. 0. 0. 0. 0. 0. 1.73644396e-03 1.12423241e-01
      7.02490583e-02 2.09880136e-02 3.16028949e-03 0. 9.66381654e-03
      1.70445703e-02 5.22234570e-03 7.43425861e-02 1.44390792e-01
      2.23262861e-01 1.11337565e-01 0. 7.80741218e-03 6.89559877e-02
      2.88683735e-02 6.34634169e-03 3.25868763e-02 3.90211880e-01
      3.90211880e-01 3.90211880e-01 4.74043451e-02 1.68016270e-01
      3.90211880e-01 3.90211880e-01 9.46823135e-02 3.02487969e-01 0. 0.
      0. 0. 0. 0. 0. 0. 0. 0. 0. 0. 0. 0. 0. 0. 0. 0. 0. 0. 0. 0. 0. 0.
      0. 0. 0. 0. 0. 0. 0. 0. 0. 0. 0. 0. 0. 0. 0. 0. 0. 0. 0. 0. 0. 0.
      0. 0. 0. 0. 0. 0. 0. 0. 0. 0. 0. 0. 0. 0. 0. 0. 0. 0. 0. 0. 0. 0.
      0. 0. 0. 0. 0. 0. 0. 0. 0. 0. 0. 0. 0. 0. 0. 0. 0. 0. 0. 0. 0. 0.
      0. 0. 0. 0. 0. 0. 0. 0. 0. 0. 0. 0. 0. 0. 0. 0. 0. 0. 0. 0. 0. 0.
      0. 0. 0. 0. 0. 0. 0. 0. 0. 0. 0. 0. 0. 0. 0. 0. 0. 0. 0. 0. 0. 0.
      0. 0. 0. 0. 0. 0. 0. 0. 0. 0. 0. 0. 0. 0. 0. 0. 0. 0. 0. 0. 0. 0.
      0. 0. 0. 0. 0. 0. 0. 0. 0. 0. 0. 0. 0. 0. 0. 0. 0. 0. 0. 0. 0. 0.
      0. 0. 0. 0. 0. 0. 0. 0. 0. 0. 0. 0. 0. 0. 0. 0. 0. 0. 0. 0. 0. 0.
      0. 0. 0. 0. 0. 0. 0. 0. 0. 0. 0. 0. 0. 0. 0. 0. 0. 0. 0. 0. 0. 0.
      0. 0. 0. 0. 0. 0. 0. 0. 0. 0. 0. 0. 0. 0. 0. 0. 0. 0. 0. 0. 0. 0.
      0. 0. 0. 0. 0. 0. 0. 0. 0. 0. 0. 0. 0. 0. 0. 0. 0. 0. 0. 0. 0. 0.
      0. 0. 0. 0. 0. 0. 0. 0. 0. 0. 0. 0. 0. 0. 0. 0. 0. 0. 0. 0. 0. 0.
      0. 0. 0. 0. 0. 0. 0. 0. 0. 0. 0. 0. 0. 0. 0. 0. 0. 0. 0. 0. 0. 0.
      0. 0. 0. 0. 0. 0. 0. 0. 0. 0. 0. 0. 0. 0. 0. 0. 0. 0. 0. 0. 0. 0.
      0. 0. 0. 0. 0. 0. 0. 0. 0. 0. 0. 0. 0. 0. 0. 0. 0. 0. 0. 0. 0. 0.
      0. 0. 0. 0. 0. 0. 0. 0. 0. 0. 0. 0. 0. 0. 0. 0. 0. 0. 0. 0. 0. 0.
      0. 0. 0. 0. 0. 0. 0. 0. 0. 0. 0. 0. 0. 0. 0. 0. 0. 0. 0. 0. 0. 0.
      0. 0. 0. 0. 0. 0. 0. 0. 0. 0. 0. 0. 0. 0. 0. 0. 0. 0. 0. 0. 0. 0.
      0. 0. 0. 0. 0. 0. 0. 0. 0. 0. 0. 0. 0. 0. 0. 0. 0. 0. 0. 0. 0. 0.
      0. 0. 0. 0. 0. 0. 0. 0. 0. 0. 0. 0. 0. 0. 0. 0. 0. 0. 0. 0. 0. 0.
      0. 0. 0. 0. 0. 0. 0. 0. 0. 0. 0. 0. 0. 0. 0. 0. 0. 0. 0. 0. 0. 0.
      0. 0. 0. 0. 0. 0. 0. 0. 0. 0. 0. 0. 0. 0. 0. 0. 0. 0. 0. 0. 0. 0.
      0. 0. 0. 0. 0. 0. 0. 0. 0. 0. 0. 0. 0. 0. 0. 0. 0. 0. 0. 0. 0. 0.
      0. 0. 0. 0. 0. 0. 0. 0. 0. 0. 0. 0. 0. 0. 0. 0. 0. 0. 0. 0. 0. 0.
      0. 0. 0. 0. 0. 0. 0. 0. 0. 0. 0. 0. 0. 0. 0. 0. 0. 0. 0. 0. 0. 0.
      0. 0. 0. 0. 0. 0. 0. 0. 0. 0. 0. 0. 0. 0. 0. 0. 0. 0. 0. 0. 0. 0.
      0. 0. 0. 0. 0. 0. 0. 0. 0. 0. 0. 0. 0. 0. 0. 0. 0. 0. 0. 0. 0. 0.
      0. 0. 0. 0. 0. 0. 0. 0. 0. 0. 0. 0. 0. 0. 0. 0. 0. 0. 0. 0. 0. 0.
      0. 0. 0. 0. 0. 0. 0. 0. 3.31399255e-02 9.38122123e-02
      2.98487067e-01 1.19614162e-01 0. 1.82797350e-02 3.42688650e-01
      3.42688650e-01 1.00450084e-01 0. 0. 0. 0. 0. 0. 4.71462794e-02
      1.64296143e-02 4.28949716e-04 0. 1.21115528e-01 3.42688650e-01
      3.42688650e-01 0. 0. 3.42688650e-01 3.42688650e-01 3.42688650e-01
      0. 0. 5.69147104e-03 3.99273932e-02 0. 0. 8.58726799e-02
      1.66656747e-01 8.29039663e-02 0. 0. 0. 0. 0. 0. 0. 0. 0. 0. 0. 0.
      0. 0. 0. 0. 0. 0. 0. 0. 0. 0. 0. 0. 0. 0. 0. 0. 0. 0. 0. 0. 0. 0.
      0. 0. 0. 0. 0. 0. 0. 0. 0. 0. 0. 0. 0. 0. 0. 0. 0. 0. 0. 0. 0. 0.
      0. 0. 0. 0. 0. 0. 0. 0. 3.15349907e-01 9.46049809e-01 0. 0. 0. 0.
      0. 0. 5.84407859e-02 1.34008616e-01 2.05064550e-01 2.94201553e-01
      0. 4.81943786e-02 2.65650809e-01 2.94201553e-01 2.68278986e-01
      9.72586684e-03 2.00092997e-02 2.05505360e-02 6.38568848e-02 0.
      1.99309140e-02 1.67589173e-01 1.72870919e-01 7.08450899e-02
      2.94201553e-01 2.94201553e-01 9.79691893e-02 2.26865157e-01
      9.15013701e-02 2.94201553e-01 2.94201553e-01 1.73817679e-01
      8.63136873e-02 3.26776132e-02 5.93135841e-02 1.97149161e-02
      3.50486413e-02 3.47615313e-03 1.81577325e-01 2.33299315e-01
      1.00049488e-01 1.85653344e-02 0. 0. 0. 0. 0. 0. 0. 0. 0. 0. 0. 0.
      0. 0. 0. 0. 0. 0. 0. 0. 0. 0. 0. 0. 0. 0. 0. 0. 0. 0. 0. 0. 0. 0.
      0. 0. 0. 0. 0. 0. 0. 0. 0. 0. 0. 0. 3.38124573e-01 5.91931283e-01
      0. 0. 0. 0. 0. 0. 0. 0. 0. 0. 0. 0. 0. 0. 0. 0. 4.34731632e-01
      5.91931283e-01 0. 0. 0. 0. 0. 0. 4.02609497e-01 4.02609497e-01
      2.44259462e-02 0. 4.02609497e-01 4.02609497e-01 4.02609497e-01
      7.19326809e-02 6.17463961e-02 3.13338079e-02 5.40488176e-02
      5.63675677e-03 0. 1.62177030e-02 3.05561036e-01 1.51946306e-01
      3.61300185e-02 0. 7.14293774e-03 1.18927900e-02 0. 0.
      9.85135362e-02 2.05262169e-01 1.05997674e-01 2.55795140e-02 0. 0.
      0. 0. 0. 3.74254724e-03 5.87318372e-03 8.37194268e-04 0. 0. 0. 0.
      0. 0. 0. 0. 0. 0. 0. 0. 0. 0. 0. 0. 0. 0. 0. 0. 0. 0. 0. 0. 0. 0.
      0. 0. 0. 0. 0. 0. 0. 0. 0. 0. 0. 0. 0. 0. 0. 0. 0. 0. 0. 0. 0. 0.
      3.15976918e-01 9.47930872e-01 0. 0. 0. 0. 0. 0. 0. 0. 0. 0. 0. 0.
      0. 0. 0. 0. 0. 0. 0. 0. 0. 0. 0. 0. 1.81957647e-01 4.46482301e-02
      1.43843278e-01 1.98585957e-01 2.04483926e-01 0. 2.42860898e-01
      2.61983633e-01 2.61983633e-01 6.36039525e-02 1.06241722e-02
      2.86700930e-02 3.62360701e-02 1.90483388e-02 0. 1.61515981e-01
      1.08330823e-01 9.46573615e-02 1.80933088e-01 2.38886788e-01
      2.61983633e-01 2.61544138e-01 2.27615714e-01 6.90917149e-02
      2.61983633e-01 2.61983633e-01 2.21770152e-01 5.59263565e-02
      8.51435438e-02 1.40947893e-01 7.73993805e-02 2.44907215e-02 0.
      2.61983633e-01 2.05554083e-01 5.52960485e-02 0. 0. 0. 0. 0. 0.
      5.40391028e-01 1.80130363e-01 0. 0. 0. 0. 0. 0. 0. 0. 0. 0. 0. 0.
      0. 0. 0. 0. 6.35617673e-01 5.24564564e-01 0. 0. 0. 0. 0. 0. 0. 0.
      0. 0. 0. 0. 0. 0. 0. 0. 0. 0. 0. 1.70739830e-01 3.36749256e-01
      5.29782772e-01 0. 0. 0. 0. 0. 8.73925164e-02 0. 0. 0. 0. 0. 0. 0.
      0. 0. 1.04549557e-01 5.29782772e-01 5.29782772e-01 0. 0. 0. 0. 0.
      3.97238731e-02 1.25619680e-01 1.96630791e-01 2.70374745e-01
      1.64511696e-01 7.78642744e-02 1.42853454e-01 2.70374745e-01
      2.70374745e-01 1.63760766e-01 2.12244131e-02 5.51974289e-02
      1.12748072e-01 4.74053733e-02 1.51869124e-02 0. 2.70374745e-01
      1.35353506e-01 1.55339353e-02 1.39445603e-01 2.10484192e-01
      2.70374745e-01 1.35673493e-01 1.88482746e-01 2.19827771e-01
      2.70374745e-01 2.70374745e-01 2.10806683e-01 2.12931037e-02
      4.13974747e-02 1.19246930e-01 1.51169142e-02 4.13396955e-02
      7.42770312e-03 2.70374745e-01 1.44365981e-01 2.78969910e-02 0. 0.
      0. 0. 0. 0. 5.79127967e-01 3.79667550e-01 0. 0. 0. 0. 0. 0. 0. 0.
      0. 0. 0. 0. 0. 0. 0. 0. 5.79127967e-01 4.35071677e-01 0. 0. 0. 0.
      0. 0. 0. 0. 0. 0. 0. 0. 0. 0. 0. 0. 0. 0. 0. 0. 4.67594832e-01
      5.17204344e-01 0. 0. 0. 0. 0. 0. 0. 0. 0. 0. 0. 0. 0. 0. 0. 0.
      5.01186788e-01 5.17204344e-01 0. 0. 0. 0. 0. 0. 1.34585932e-01
      2.40344629e-01 2.67984748e-01 6.22009151e-02 1.80162311e-01
      2.39686221e-01 2.67984748e-01 2.59493351e-01 1.43389747e-01
      2.68627200e-02 5.22326939e-02 1.03138588e-01 4.41901060e-03
      2.99072694e-02 2.03498192e-02 2.67984748e-01 1.19716212e-01
      1.71084981e-02 1.24680884e-01 2.62623340e-01 2.67984748e-01
      1.45047888e-01 1.56643420e-01 1.88045159e-01 2.67984748e-01
      2.54050940e-01 1.01476088e-01 3.17351781e-02 8.31686109e-02
      1.28878519e-01 4.62495722e-02 1.45681426e-02 2.14745048e-02
      2.67984748e-01 1.45489156e-01 6.26528077e-03 0. 0. 0. 0. 0. 0.
      5.79127967e-01 3.79667550e-01 0. 0. 0. 0. 0. 0. 0. 0. 0. 0. 0. 0.
      0. 0. 0. 0. 5.79127967e-01 4.35071677e-01 0. 0. 0. 0. 0. 0. 0. 0.
      0. 0. 0. 0. 0. 0. 0. 0. 0. 0. 0. 0. 4.39087778e-01 5.19898236e-01
      0. 0. 0. 0. 0. 0. 0. 0. 0. 0. 0. 0. 0. 0. 0. 0. 5.19898236e-01
      5.19898236e-01 3.35606411e-02 0. 0. 0. 0. 0.</_>
    <_>
      1.92136124e-01 2.19869435e-01 3.23431134e-01 1.00357041e-01
      2.36315250e-01 2.18453646e-01 3.42244387e-01 3.42244387e-01
      1.64994046e-01 0. 0. 0. 0. 0. 0. 4.51559313e-02 1.50519758e-02 0.
      1.27753362e-01 1.65953770e-01 1.57414526e-01 0. 2.83721238e-01
      3.26789737e-01 3.42244387e-01 2.50247568e-01 5.95946871e-02 0. 0.
      0. 0. 0. 0. 9.26833600e-03 3.08944541e-03 0. 0. 0. 0. 0. 0. 0. 0.
      0. 0. 0. 0. 0. 0. 0. 0. 0. 0. 0. 0. 0. 0. 0. 0. 0. 0. 0. 0. 0. 0.
      0. 0. 0. 0. 0. 0. 0. 0. 0. 0. 0. 0. 0. 0. 0. 0. 1.59990534e-01
      3.63164455e-01 3.63164455e-01 2.19186485e-01 2.36207128e-01
      9.84281301e-02 3.12620997e-01 2.13607430e-01 1.85284883e-01 0. 0.
      0. 0. 0. 0. 0. 0. 0. 3.92803438e-02 2.58549601e-01 3.63164455e-01
      3.24344367e-01 2.47917518e-01 0. 1.50109395e-01 1.59150392e-01
      1.04815453e-01 7.12526962e-02 9.93255749e-02 5.78949153e-02 0.
      3.76873255e-01 3.23645592e-01 3.76873255e-01 2.27445632e-01
      2.31874492e-02 0. 0. 0. 0. 0. 0. 0. 0. 0. 3.20807636e-01
      1.04427701e-02 4.48506884e-02 9.48635787e-02 8.20146576e-02 0.
      3.76873255e-01 3.76873255e-01 3.76873255e-01 0. 0. 0. 0. 0. 0. 0.
      0. 0. 0. 0. 0. 0. 0. 0. 0. 0. 0. 0. 0. 0. 0. 0. 0. 0. 0. 0. 0. 0.
      0. 0. 0. 0. 0. 0. 0. 0. 0. 0. 0. 0. 0. 0. 0. 0. 0. 0. 0. 0. 0. 0.
      0. 0. 0. 0. 2.34798282e-01 3.86295170e-01 3.26200157e-01
      3.86295170e-01 0. 5.64229116e-02 9.68001112e-02 4.68432084e-02 0.
      0. 0. 0. 0. 0. 0. 0. 0. 3.86295170e-01 3.85186434e-01
      3.86295170e-01 0. 3.59610841e-02 9.24516618e-02 4.37103175e-02
      1.01772584e-02 2.69708097e-01 1.28230810e-01 3.74180637e-02
      1.29617050e-01 1.21805638e-01 9.26923826e-02 0. 3.55086237e-01
      3.55086237e-01 2.42064923e-01 0. 0. 0. 0. 0. 0. 4.44468576e-03
      1.48156192e-03 0. 1.79860815e-01 1.80204704e-01 3.55086237e-01
      2.09424287e-01 2.62037069e-01 8.71770605e-02 3.55086237e-01
      3.55086237e-01 2.67726362e-01 0. 0. 0. 0. 0. 0. 4.94391918e-02
      1.64797306e-02 0. 0. 0. 0. 0. 0. 0. 0. 0. 0. 0. 0. 0. 0. 0. 0. 0.
      0. 0. 0. 0. 0. 0. 0. 0. 0. 0. 0. 0. 0. 0. 0. 0. 0. 0. 0. 0. 0. 0.
      0. 0. 0. 0. 0. 0. 0. 2.18473345e-01 3.71375412e-01 3.71375412e-01
      0. 5.65335453e-02 1.14624664e-01 1.21029153e-01 3.48966457e-02
      1.07726067e-01 0. 0. 0. 0. 0. 0. 0. 0. 0. 2.61839569e-01
      3.71375412e-01 3.71375412e-01 8.59409571e-02 2.40091026e-01
      2.00381234e-01 3.59648257e-01 1.71707824e-01 1.74666643e-01
      9.14142802e-02 1.81353822e-01 3.27286661e-01 4.98927385e-02
      1.56790420e-01 9.32202712e-02 3.27286661e-01 3.27286661e-01
      9.73892137e-02 0. 0. 0. 0. 0. 0. 5.78362942e-02 1.92787666e-02 0.
      1.55095994e-01 2.03600019e-01 3.27286661e-01 0. 2.49435931e-01
      3.27286661e-01 3.27286661e-01 3.27286661e-01 1.93892732e-01 0. 0.
      0. 0. 0. 0. 3.54019813e-02 1.18006598e-02 0. 0. 0. 0. 0. 0. 0. 0.
      0. 0. 0. 0. 0. 0. 0. 0. 0. 0. 0. 0. 0. 0. 0. 0. 0. 0. 0. 0. 0. 0.
      0. 0. 0. 0. 0. 0. 0. 0. 0. 0. 0. 0. 0. 0. 0. 0. 9.23671275e-02
      3.40511501e-01 3.40511501e-01 8.89132544e-02 1.48462623e-01
      4.64612581e-02 3.40511501e-01 1.68421283e-01 8.58674198e-02 0. 0.
      0. 0. 0. 0. 0. 0. 0. 1.78109989e-01 3.40511501e-01 3.40511501e-01
      3.40511501e-01 2.35437870e-01 0. 3.04547668e-01 1.87533438e-01
      1.39531776e-01 2.06864208e-01 2.17181221e-01 3.08382720e-01 0.
      3.54816169e-01 3.54816169e-01 3.54816169e-01 3.54816169e-01
      2.08689958e-01 0. 0. 0. 0. 0. 0. 1.68654807e-02 5.62182721e-03 0.
      4.37334403e-02 5.03569245e-02 2.34886501e-02 0. 3.22613508e-01
      1.86161220e-01 3.44468683e-01 1.05977431e-01 1.81910358e-02 0. 0.
      0. 0. 0. 0. 0. 0. 0. 0. 0. 0. 0. 0. 0. 0. 0. 0. 0. 0. 0. 0. 0. 0.
      0. 0. 0. 0. 0. 0. 0. 0. 0. 0. 0. 0. 0. 0. 0. 0. 0. 0. 0. 0. 0. 0.
      0. 0. 0. 0. 0. 0. 0. 0. 1.86898127e-01 3.77280623e-01
      3.77280623e-01 3.77280623e-01 3.36763740e-01 0. 3.07416350e-01
      2.15956300e-01 1.81398973e-01 0. 0. 0. 0. 0. 0. 0. 0. 0.
      5.98446373e-03 1.10682689e-01 3.59190017e-01 1.90409064e-01
      2.74397969e-01 0. 2.31591221e-02 4.96504270e-02 3.11685484e-02 0.
      0. 0. 0. 9.97953296e-01 0. 0. 0. 0. 0. 0. 0. 0. 0. 0. 0. 0. 0. 0.
      0. 0. 0. 0. 0. 0. 0. 0. 0. 0. 0. 0. 0. 0. 0. 0. 0. 0. 0. 0. 0. 0.
      0. 0. 0. 0. 0. 0. 0. 0. 0. 0. 0. 0. 0. 0. 0. 0. 0. 0. 0. 0. 0. 0.
      0. 0. 0. 0. 0. 0. 0. 0. 0. 0. 0. 0. 0. 0. 0. 0. 0. 0. 0. 0. 0. 0.
      9.95455861e-01 0. 0. 0. 0. 0. 0. 0. 0. 0. 0. 0. 0. 0. 0. 0. 0. 0.
      0. 0. 0. 0. 0. 0. 0. 0. 0. 0. 0. 0. 0. 0. 0. 0. 0. 0. 0. 0. 0. 0.
      0. 0. 0. 0. 0. 0. 0. 0. 0. 0. 0. 0. 0. 0. 0. 0. 0. 0. 0. 0. 0. 0.
      0. 0. 0. 0. 0. 0. 0. 0. 0. 0. 0. 0. 0. 0. 0. 0. 0. 0. 0. 0. 0. 0.
      0. 0. 0. 0. 0. 0. 0. 0. 0. 0. 0. 0. 0. 0. 0. 0. 0. 0. 0. 0. 0. 0.
      0. 0. 0. 0. 0. 0. 0. 0. 0. 0. 0. 0. 0. 0. 0. 0. 0. 0. 0. 0. 0. 0.
      0. 0. 0. 0. 0. 0. 0. 0. 0. 0. 0. 0. 0. 0. 0. 0. 0. 0. 0. 0. 0. 0.
      0. 0. 0. 0. 0. 0. 0. 0. 0. 0. 0. 0. 0. 0. 0. 0. 0. 0. 0. 0. 0. 0.
      0. 0. 0. 0. 0. 0. 0. 0. 0. 0. 0. 0. 0. 0. 0. 0. 0. 0. 0. 0. 0. 0.
      0. 0. 0. 0. 0. 0. 0. 0. 0. 0. 0. 0. 0. 0. 0. 0. 0. 0. 0. 0. 0. 0.
      0. 0. 0. 0. 0. 0. 0. 0. 0. 0. 0. 0. 0. 0. 0. 0. 0. 0. 0. 0. 0. 0.
      0. 0. 0. 0. 0. 0. 0. 0. 0. 0. 0. 0. 0. 0. 0. 0. 0. 0. 0. 0. 0. 0.
      0. 0. 0. 0. 0. 0. 0. 0. 0. 0. 0. 0. 0. 0. 0. 0. 0. 0. 0. 0. 0. 0.
      0. 0. 0. 0. 0. 0. 0. 0. 0. 0. 0. 0. 0. 0. 0. 0. 0. 0. 0. 0. 0. 0.
      0. 0. 0. 0. 0. 0. 0. 0. 0. 0. 0. 0. 0. 0. 0. 0. 0. 0. 0. 0. 0. 0.
      0. 0. 0. 0. 0. 0. 0. 0. 0. 0. 0. 0. 0. 0. 0. 0. 0. 0. 0. 0. 0. 0.
      0. 0. 0. 0. 0. 0. 0. 0. 0. 0. 0. 0. 0. 0. 0. 0. 0. 0. 0. 0. 0. 0.
      0. 0. 0. 0. 0. 0. 0. 0. 0. 0. 0. 0. 0. 0. 0. 0. 0. 0. 0. 0. 0. 0.
      0. 0. 0. 0. 0. 0. 0. 0. 0. 0. 0. 0. 0. 0. 0. 0. 0. 0. 0. 0. 0. 0.
      0. 0. 0. 0. 0. 0. 0. 0. 0. 0. 0. 0. 0. 0. 0. 0. 0. 0. 0. 0. 0. 0.
      0. 0. 0. 0. 0. 0. 0. 0. 0. 0. 0. 0. 0. 0. 0. 0. 0. 0. 0. 0. 0. 0.
      0. 0. 0. 0. 0. 0. 0. 0. 0. 0. 0. 0. 0. 0. 0. 0. 0. 0. 0. 0. 0. 0.
      0. 0. 0. 0. 0. 0. 0. 0. 0. 0. 0. 0. 0. 0. 0. 0. 0. 0. 0. 0. 0. 0.
      0. 0. 0. 0. 0. 0. 0. 0. 0. 0. 0. 0. 0. 0. 0. 0. 0. 0. 0. 0. 0. 0.
      0. 0. 0. 0. 0. 0. 0. 0. 0. 0. 0. 0. 0. 0. 0. 0. 0. 0. 0. 0. 0. 0.
      0. 0. 0. 0. 0. 0. 0. 0. 0. 0. 0. 0. 0. 0. 0. 0. 0. 0. 0. 0. 0. 0.
      0. 0. 0. 0. 0. 0. 0. 0. 0. 0. 0. 0. 0. 0. 0. 0. 0. 0. 0. 0. 0. 0.
      0. 0. 0. 0. 0. 0. 0. 0. 0. 0. 0. 0. 0. 0. 0. 0. 0. 0. 0. 0. 0. 0.
      0. 0. 0. 0. 0. 0. 0. 0. 0. 0. 0. 0. 0. 0. 0. 0. 0. 0. 0. 0. 0. 0.
      0. 0. 0. 0. 0. 0. 0. 0. 0. 0. 0. 0. 0. 0. 0. 0. 0. 0. 0. 0. 0. 0.
      0. 0. 0. 0. 0. 0. 0. 0. 0. 0. 0. 0. 0. 0. 0. 9.70674008e-02
      3.18124034e-02 8.83384496e-02 5.00873961e-02 1.12072766e-01
      7.80162215e-03 5.89701673e-03 2.73521710e-02 1.09686859e-01
      8.89107212e-02 1.25363022e-01 1.20105758e-01 1.10192262e-01
      3.12259287e-01 3.12259287e-01 6.73664510e-02 1.57218929e-02
      3.98088396e-02 3.12259287e-01 2.67800875e-02 1.60786942e-01
      3.12259287e-01 2.64327347e-01 0. 2.66217858e-01 3.12259287e-01
      3.12259287e-01 3.25832069e-02 6.18002005e-03 3.23630795e-02
      9.69726667e-02 0. 0. 2.07058311e-01 2.71349311e-01 1.54104948e-01
      2.59700060e-01 3.67732406e-01 9.64069664e-02 1.34424180e-01
      5.58611512e-01 5.58611512e-01 3.01535070e-01 1.39011322e-02
      5.43007664e-02 4.24056081e-03 7.06041325e-03 0. 0. 0.
      2.34602928e-01 3.34415212e-02 0. 0. 0. 0. 0. 0. 0. 0. 0. 0. 0. 0.
      0. 0. 0. 0. 0. 0. 0. 0. 0. 0. 0. 0. 0. 0. 0. 0. 0. 2.65048474e-01
      3.97023201e-01 3.97023201e-01 0. 2.96982955e-02 1.20543249e-01
      4.58743647e-02 9.56383441e-03 1.11477360e-01 0. 0. 0. 0. 0. 0. 0.
      0. 0. 2.14436054e-01 3.97023201e-01 3.97023201e-01 0.
      6.53362572e-02 2.16648966e-01 3.96553069e-01 1.21890247e-01
      7.70901740e-02 8.28379244e-02 9.66644585e-02 2.69090027e-01
      2.69090027e-01 1.47908241e-01 0. 2.69090027e-01 2.69090027e-01
      2.09128767e-01 7.71155069e-03 2.23071836e-02 7.13482946e-02
      6.62437603e-02 0. 0. 2.69090027e-01 1.82871893e-01 5.72307520e-02
      2.40306184e-01 2.69090027e-01 2.69090027e-01 4.61678170e-02
      1.42683506e-01 2.69090027e-01 2.69090027e-01 1.64190933e-01
      7.74131864e-02 3.04089412e-02 7.71609619e-02 8.09346661e-02
      9.41323023e-03 1.13508645e-02 1.09467164e-01 2.69090027e-01
      1.25842497e-01 1.57230103e-03 0. 0. 0. 0. 0. 0. 0. 0. 0. 0. 0. 0.
      0. 0. 0. 0. 0. 0. 0. 0. 0. 0. 0. 0. 0. 0. 0. 0. 0. 0. 0. 0. 0. 0.
      0. 0. 0. 0. 0. 0. 0. 0. 0. 0. 0. 9.15367436e-03 3.79327863e-01
      4.02989507e-01 0. 1.10173477e-02 3.20030041e-02 4.02989507e-01
      1.35272324e-01 0. 0. 0. 0. 0. 0. 0. 0. 0. 0. 4.50709648e-03
      4.02989507e-01 4.02989507e-01 0. 0. 0. 4.02989507e-01
      1.74246684e-01 1.32838134e-02 3.04230422e-01 3.04230422e-01
      1.14791609e-01 0. 3.04230422e-01 3.04230422e-01 3.04230422e-01
      1.03481524e-01 1.33282498e-01 4.41222079e-02 8.22923481e-02
      2.64903735e-02 0. 5.56076057e-02 2.60953009e-01 2.78654486e-01
      8.04856271e-02 0. 8.83298144e-02 6.99940771e-02 5.83127402e-02
      3.62838060e-03 3.04230422e-01 1.23708293e-01 2.55512390e-02
      7.39113940e-03 6.07156344e-02 2.40807354e-01 9.49588865e-02
      8.20666850e-02 5.44257089e-02 6.98288009e-02 4.39505205e-02
      1.24227684e-02 1.82248339e-01 3.04230422e-01 0. 0. 0. 0. 0. 0. 0.
      0. 0. 0. 0. 0. 0. 0. 0. 0. 0. 0. 5.45391619e-01 1.31898656e-01
      1.06233120e-01 2.37557143e-01 1.17947847e-01 0. 0. 5.45391619e-01
      5.45391619e-01 0. 0. 0. 0. 0. 0. 0. 9.83704925e-02 5.90824857e-02
      0. 0. 0. 0. 0. 0. 0. 0. 0. 2.63342895e-02 3.84157211e-01
      3.84157211e-01 2.32063755e-01 1.05459914e-01 0. 3.59786600e-01
      2.42653057e-01 1.00043900e-01 0. 0. 0. 0. 0. 0. 0. 0. 0.
      2.04822272e-02 2.25579098e-01 3.84157211e-01 3.84157211e-01
      2.66113371e-01 0. 6.05154894e-02 1.34591803e-01 8.92042145e-02
      1.45237753e-02 1.21831514e-01 2.75680333e-01 1.03491626e-03
      1.16677815e-02 4.11765650e-03 1.20703705e-01 4.00389209e-02
      2.40258244e-03 1.70593895e-02 1.53953180e-01 2.75680333e-01
      1.76123962e-01 2.56691203e-02 9.05884430e-03 2.75680333e-01
      1.99968979e-01 1.89854130e-02 2.75680333e-01 2.75680333e-01
      1.84939340e-01 0. 6.77430481e-02 2.75680333e-01 1.71436146e-01
      4.12574336e-02 5.98843470e-02 2.02621743e-01 2.75680333e-01
      2.12753728e-01 1.32885890e-03 1.19043171e-01 2.75680333e-01
      2.75680333e-01 1.40220448e-01 4.63355146e-02 1.82039523e-03
      6.81194812e-02 2.68965632e-01 2.75135487e-01 5.28118247e-03
      1.86377321e-03 2.64387995e-01 2.75135487e-01 1.15823843e-01 0.
      6.35418594e-02 2.41604358e-01 2.75135487e-01 0. 0. 2.75135487e-01
      2.75135487e-01 1.48361966e-01 1.20001091e-02 1.27878979e-01
      2.75135487e-01 2.63505932e-02 2.28851251e-02 4.69824038e-02
      2.68644243e-01 8.94934013e-02 7.09006935e-03 0. 1.40032008e-01
      2.75135487e-01 3.10900547e-02 0. 0. 2.75135487e-01 1.90197095e-01
      2.87749176e-03 0. 4.42548022e-02 1.50301889e-01 1.23030707e-01 0.
      0. 3.69439602e-01 3.69439602e-01 1.17901072e-01 0. 1.41263098e-01
      3.69439602e-01 0. 0. 0. 0. 0. 0. 0. 9.75276530e-02 2.95245469e-01
      1.86785236e-02 0. 0. 3.69439602e-01 3.56510997e-01 3.30416509e-03
      0. 1.61877349e-01 3.69439602e-01 0. 0. 0. 0. 0. 0. 3.10077518e-01
      3.10077518e-01 1.07217394e-01 0. 3.10077518e-01 3.10077518e-01
      2.36344099e-01 4.27755825e-02 1.13134630e-01 1.99104577e-01
      2.86558300e-01 4.83888946e-02 0. 1.04137644e-01 3.10077518e-01
      2.62725204e-01 5.69674671e-02 3.66821699e-02 9.86284614e-02
      1.13033667e-01 3.85466218e-02 0. 3.10077518e-01 2.75848895e-01
      9.68886241e-02 1.91892292e-02 3.84563841e-02 1.54877277e-02
      2.87517495e-02 8.89537390e-03 0. 4.20142151e-02 1.55699208e-01
      3.16143446e-02 3.14005581e-03 0. 8.26789532e-03 1.47604570e-01
      3.33152801e-01 0. 1.20126186e-02 5.83061390e-02 2.17163920e-01
      6.96175545e-02 5.00401435e-03 0. 1.81105494e-01 3.33152801e-01 0.
      0. 0. 3.33152801e-01 2.30858415e-01 0. 0. 1.61415219e-01
      3.33152801e-01 0. 0. 5.17883617e-03 1.85180992e-01 6.14809170e-02
      0. 0. 2.07533866e-01 3.33152801e-01 0. 0. 0. 3.33152801e-01
      2.64547139e-01 0. 0. 8.79270807e-02 2.63781250e-01 0. 0. 0.
      3.78861338e-01 3.04671049e-01 0. 0. 1.40507087e-01 3.78861338e-01
      0. 0. 0. 0. 0. 0. 0. 1.00758106e-01 3.02274317e-01 0. 0. 0.
      3.78861338e-01 3.49131137e-01 0. 0. 1.37056574e-01 3.78861338e-01
      0. 0. 0. 0. 0. 0. 0. 0. 0. 0. 5.96188664e-01 0. 0. 0. 0. 0. 0. 0.
      0. 2.25127637e-02 0. 0. 0. 0. 0. 0. 0. 0. 0. 0. 0. 0. 0.
      2.99742460e-01 5.96188664e-01 4.50342000e-01 0. 0. 0. 0. 0. 0. 0.
      1.28734082e-01 3.02440584e-01 0. 0. 0. 1.46066681e-01
      4.86888923e-02 0. 0. 1.65515214e-01 3.02440584e-01 0. 0. 0.
      3.02440584e-01 2.10985228e-01 0. 1.09332465e-01 3.02440584e-01
      3.02440584e-01 0. 0. 1.14736609e-01 1.71757385e-01 5.18007353e-02
      0. 1.16086476e-01 3.02440584e-01 3.02440584e-01 0. 0.
      2.04626724e-01 3.02440584e-01 2.24469885e-01 0. 0. 1.10453323e-01
      3.31359982e-01 0. 0. 0. 4.36612010e-01 3.82725447e-01 0. 0.
      6.23973310e-02 1.87191978e-01 0. 0. 0. 0. 0. 0. 5.24492189e-02
      1.80130094e-01 2.78410912e-01 0. 0. 1.96042910e-01 4.36612010e-01
      4.07186538e-01 0. 0. 1.59130828e-03 4.77392506e-03 0. 0. 0. 0. 0.
      0. 0. 1.88965406e-02 5.66896349e-02 0. 0. 0. 0. 0. 0.
      1.21665418e-01 3.52703303e-01 3.52703303e-01 1.43159991e-02
      5.87115176e-02 1.73657537e-01 3.52703303e-01 1.43693149e-01
      5.99949807e-02 0. 1.79644972e-02 5.38934991e-02 0. 0. 0. 0. 0. 0.
      0. 2.69467503e-01 3.52703303e-01 3.52703303e-01 3.64792324e-03
      7.52534950e-03 2.50087917e-01 3.52703303e-01 2.12608919e-01
      9.89814550e-02 2.25730658e-01 3.00482601e-01 9.13018920e-03
      1.06273472e-01 2.34912246e-01 3.00482601e-01 1.72534958e-01
      5.62298931e-02 1.78971477e-02 1.95699036e-02 4.42642858e-03
      6.08679315e-04 5.19948676e-02 8.91352892e-02 1.55269831e-01
      5.79939522e-02 1.33020403e-02 0. 1.04235888e-01 3.00482601e-01
      3.00482601e-01 6.32409425e-03 7.91283324e-03 2.62965083e-01
      3.00482601e-01 3.00482601e-01 0. 0. 2.71831900e-02 1.90698296e-01
      2.87458790e-03 1.82603847e-03 6.06842451e-02 3.00482601e-01
      2.34089687e-01 0. 0. 0. 0. 0. 0. 4.36070487e-02 1.45356851e-02 0.
      0. 0. 0. 0. 0. 0. 0. 0. 0. 0. 0. 1.63932871e-02 1.15003869e-01 0.
      0. 0. 7.19642818e-01 6.85063720e-01 0. 0. 0. 0. 0. 0. 0. 0. 0. 0.
      1.15960846e-02 3.47882584e-02 0. 0. 0. 0. 0. 0. 0. 1.73941299e-01
      4.88011539e-01 4.88011539e-01 0. 0. 6.71877041e-02 4.88011539e-01
      3.54888201e-01 0. 0. 0. 0. 0. 0. 0. 0. 0. 0. 0. 5.03860563e-02
      3.53473395e-01 0. 0. 0. 2.86689121e-02 1.72188897e-02 0.
      1.52145838e-02 1.38379350e-01 3.13682675e-01 0. 0. 1.59750301e-02
      3.13682675e-01 2.25857347e-01 0. 0. 6.98456690e-02 3.13682675e-01
      0. 0. 1.28516722e-02 3.13682675e-01 3.13426673e-01 0.
      1.71385892e-03 5.60111590e-02 3.13682675e-01 0. 0. 0.
      1.00540467e-01 6.03858046e-02 6.41330751e-03 2.83794310e-02
      1.93751752e-01 3.13682675e-01 3.26771848e-02 0. 8.59127194e-02
      3.13682675e-01 2.83619910e-01 0. 0. 3.49284597e-02 2.45033786e-01
      0. 0. 4.84441109e-02 3.77758414e-01 2.91069895e-01 0. 0. 0. 0. 0.
      0. 1.11794099e-02 1.14957504e-02 4.66632145e-03 3.38988230e-02
      5.85538261e-02 3.01125020e-01 3.77758414e-01 1.04761086e-01 0.
      3.77758414e-01 3.77758414e-01 3.77758414e-01 7.82280602e-03
      5.70988050e-04 3.95688368e-03 1.57417767e-02 6.98407274e-03 0.
      1.04794376e-01 1.45107880e-01 7.39960745e-02 0. 0. 0. 0. 0. 0. 0.
      0. 0. 0. 0. 0. 0. 0. 0. 0. 0. 0. 0. 0. 0. 0. 0. 0. 0. 0. 0. 0. 0.
      0. 0. 0. 0. 0. 0. 0. 0. 7.83520006e-03 4.35715578e-02
      1.40768766e-01 0. 0. 0. 1.15224402e-02 6.92051416e-03
      6.34264499e-02 1.61089107e-01 3.94344866e-01 3.94344866e-01
      1.96013436e-01 0. 1.97835788e-01 3.94344866e-01 3.77502888e-01 0.
      1.18954037e-03 3.56862065e-03 0. 0. 0. 0. 0. 0. 2.88302079e-02
      5.17239384e-02 2.51005501e-01 3.94344866e-01 4.52338681e-02 0.
      5.94440755e-03 1.65295139e-01 1.26918346e-01 3.09461616e-02
      3.39862145e-02 1.66670069e-01 3.13818008e-01 5.80062717e-02 0.
      9.65253115e-02 3.13818008e-01 2.48530343e-01 7.14142201e-03
      8.59402178e-04 2.35884078e-02 1.47392929e-01 3.86708439e-03 0.
      2.22750735e-02 2.64786720e-01 1.61715910e-01 1.40664373e-02
      1.32290274e-02 1.38973221e-01 3.13818008e-01 2.36241333e-02 0.
      6.24682847e-03 3.13818008e-01 2.14872852e-01 3.71451452e-02
      9.46406834e-03 1.30818561e-01 3.13818008e-01 8.01774189e-02 0.
      5.08670360e-02 3.13818008e-01 3.13818008e-01 0. 0. 0. 0. 0. 0. 0.
      0. 0. 0. 0. 0. 0. 0. 0. 0. 0. 0. 0. 0. 0. 0. 0. 0. 0. 0. 0. 0. 0.
      0. 0. 0. 0. 0. 0. 0. 0. 0. 0. 0. 0. 0. 0. 0. 0. 0. 0. 0. 0. 0. 0.
      0. 0. 0. 0. 0. 0. 0. 0. 0. 0. 0. 0. 0. 0. 0. 0. 0. 0. 0. 0. 0. 0.
      0. 0. 0. 0. 0. 0. 0. 0. 0. 0. 0. 0. 0. 0. 0. 0. 0. 0. 0. 0. 0. 0.
      0. 0. 0. 0. 0. 0. 0. 0. 0. 0. 0. 0. 0. 0. 0. 0. 0. 0. 0. 0. 0. 0.
      0. 0. 0. 0. 0. 0. 0. 0. 0. 0. 0. 0. 0. 0. 0. 0. 0. 0. 0. 0. 0. 0.
      0. 0. 0. 0. 0. 0. 0. 0. 0. 0. 0. 0. 0. 0. 0. 0. 0. 0. 0. 0. 0. 0.
      0. 0. 0. 0. 0. 0. 0. 0. 0. 0. 0. 0. 0. 0. 0. 0. 0. 0. 0. 0. 0. 0.
      0. 0. 0. 0. 0. 0. 0. 0. 0. 0. 0. 0. 0. 0. 0. 0. 0. 0. 0. 0. 0. 0.
      0. 0. 0. 0. 0. 0. 0. 0. 0. 0. 0. 0. 0. 0. 0. 0. 0. 0. 0. 0. 0. 0.
      0. 0. 0. 0. 0. 0. 0. 0. 0. 0. 0. 0. 0. 0. 0. 0. 0. 0. 0. 0. 0. 0.
      0. 0. 0. 0. 0. 0. 0. 0. 0. 0. 0. 0. 0. 0. 0. 0. 0. 0. 0. 0. 0. 0.
      0. 0. 0. 0. 0. 0. 0. 0. 0. 0. 0. 0. 0. 0. 0. 0. 0. 0. 0. 0. 0. 0.
      0. 0. 0. 0. 0. 0. 0. 0. 0. 0. 0. 0. 0. 0. 0. 0. 0. 0. 0. 0. 0. 0.
      0. 0. 0. 0. 0. 0. 0. 0. 0. 0. 0. 0. 0. 2.49414027e-01
      3.05400878e-01 5.97939551e-01 5.16848087e-01 0. 0. 0. 0. 0. 0. 0.
      0. 0. 0. 0. 0. 0. 0. 5.75570837e-02 1.38818577e-01 4.27578747e-01
      1.35930285e-01 0. 0. 0. 0. 0. 0. 0. 0. 0. 0. 0. 0. 0. 0. 0. 0. 0.
      0. 0. 0. 0. 0. 0. 0. 0. 0. 0. 0. 0. 0. 0. 0. 0. 0. 0. 0. 0. 0. 0.
      0. 0. 0. 0. 0. 0. 0. 0. 0. 0. 0. 0. 0. 0. 0. 0. 0. 0. 0. 0. 0. 0.
      0. 0. 0. 0. 0. 0. 0. 0. 0. 0. 0. 0. 0. 0. 0. 0. 0. 0. 0. 0. 0. 0.
      0. 0. 0. 0. 0. 9.07846630e-01 3.02615553e-01 0. 0. 0. 0. 0. 0. 0.
      0. 0. 0. 0. 0. 0. 0. 0. 0. 0. 0. 0. 0. 0. 0. 0. 0. 0. 0. 0. 0. 0.
      0. 0. 0. 0. 0. 0. 0. 0. 0. 0. 0. 0. 0. 0. 0. 0. 0. 0. 0. 0. 0. 0.
      0. 0. 0. 0. 0. 0. 0. 0. 0. 0. 0. 0. 0. 0. 0. 0. 0. 0. 0. 0. 0. 0.
      0. 0. 0. 0. 0. 0. 0. 0. 0. 0. 0. 0. 0. 0. 0. 0. 0. 0. 0. 0. 0. 0.
      0. 0. 0. 0. 0. 1.00210197e-02 0. 0. 0. 0. 0. 2.65257299e-01
      1.50527537e-01 4.73240875e-02 0. 0. 0. 0. 0. 0. 0. 0. 0.
      1.50315285e-01 0. 0. 0. 0. 0. 6.27873361e-01 6.27873361e-01
      3.11961949e-01 0. 0. 0. 0. 0. 0. 0. 0. 0. 0. 0. 0. 0. 0. 0. 0. 0.
      0. 0. 0. 0. 0. 0. 0. 0. 0. 0. 0. 0. 0. 0. 0. 0. 0. 0. 0. 0. 0. 0.
      0. 0. 0. 0. 0. 0. 0. 0. 0. 0. 0. 0. 0. 0. 0. 0. 0. 0. 0. 0. 0. 0.
      0. 0. 0. 0. 0. 0. 0. 0. 0. 0. 0. 0. 0. 0. 0. 0. 0. 0. 0. 0. 0. 0.
      0. 0. 0. 0. 5.37336230e-01 4.29733396e-01 0. 0. 0. 0. 0. 0. 0. 0.
      0. 0. 0. 0. 0. 0. 0. 0. 5.37336230e-01 4.92443591e-01 0. 0. 0. 0.
      0. 0. 0. 0. 0. 0. 0. 0. 0. 0. 0. 0. 0. 0. 0. 0. 0. 0. 0. 0. 0. 0.
      0. 0. 0. 0. 0. 0. 0. 0. 0. 0. 0. 0. 0. 0. 0. 0. 0. 0. 0. 0. 0. 0.
      0. 0. 0. 0. 0. 0. 0. 0. 0. 0. 0. 0. 0. 0. 0. 0. 0. 0. 0. 0. 0. 0.
      0. 0. 0. 0. 0. 0. 0. 0. 0. 0. 0. 0. 0. 0. 0. 0. 0. 0.
      3.22111845e-01 1.15372188e-01 2.67183362e-03 0. 0. 0. 0. 0. 0. 0.
      0. 0. 3.22111845e-01 2.95090619e-02 1.16424747e-01 1.95709795e-01
      3.22111845e-01 0. 3.22111845e-01 3.22111845e-01 3.22111845e-01
      2.94225067e-01 9.25652683e-03 3.97558883e-02 8.40875655e-02
      7.29299933e-02 0. 2.57143468e-01 2.18415663e-01 3.22111845e-01 0.
      0. 0. 0. 0. 0. 0. 0. 0. 0. 0. 0. 0. 0. 0. 0. 0. 0. 2.30658695e-01
      0. 0. 0. 0. 0. 7.02757537e-01 5.50609589e-01 3.90809625e-01 0. 0.
      0. 0. 0. 0. 0. 0. 0. 0. 0. 0. 0. 0. 0. 0. 0. 0. 0. 0. 0. 0. 0. 0.
      0. 0. 0. 0. 0. 0. 0. 0. 0. 0. 0. 0. 0. 0. 0. 0. 0. 0. 0. 0. 0.
      2.43878514e-01 6.55691251e-02 2.18708098e-01 1.54342085e-01
      2.77035564e-01 0. 1.97090328e-01 1.79865539e-01 2.77035564e-01
      1.09860308e-01 4.25673947e-02 1.39867961e-01 8.53468254e-02
      7.40221590e-02 0. 2.77035564e-01 2.03055009e-01 1.58925906e-01
      1.62585676e-02 1.61881343e-01 2.77035564e-01 5.78162298e-02
      1.86311841e-01 0. 2.77035564e-01 1.14421710e-01 2.64873840e-02
      7.32402084e-03 1.23962134e-01 2.77035564e-01 3.87940109e-02
      3.36464383e-02 0. 2.77035564e-01 2.32281670e-01 1.86468530e-02
      6.34961650e-02 0. 0. 0. 0. 0. 5.18820286e-01 4.17441458e-01
      1.36182755e-01 0. 0. 0. 0. 0. 0. 0. 0. 0. 4.23307763e-03 0. 0. 0.
      0. 0. 5.18820286e-01 5.18820286e-01 2.10069045e-02 0. 0. 0. 0. 0.
      0. 0. 0. 0. 0. 0. 0. 0. 0. 0. 0. 0. 0. 0. 0. 0. 0. 0. 0. 0. 0. 0.
      0. 0. 0. 0. 0. 0. 0. 0. 0. 0. 0. 0. 0. 0. 0. 0. 0. 0. 0.
      2.15705521e-02 1.13778338e-01 3.44217718e-01 0. 0. 5.60144801e-03
      8.39106292e-02 4.92762849e-02 1.58149078e-02 3.23064253e-02
      3.02310109e-01 3.98401469e-01 6.56914413e-02 0. 6.71013147e-02
      3.98401469e-01 3.98401469e-01 0. 0. 3.47827096e-03 2.44011227e-02
      0. 0. 0. 5.11827529e-04 3.07409646e-04 2.03334522e-02
      6.29883185e-02 2.72159755e-01 3.98401469e-01 5.10933474e-02 0.
      5.12693115e-02 1.75082624e-01 1.15225814e-01 2.97367442e-02
      1.77105609e-02 1.31741732e-01 2.95642465e-01 7.49183670e-02 0.
      1.31590709e-01 2.95642465e-01 2.95642465e-01 1.35167008e-02
      4.08705231e-03 1.69496294e-02 3.28910537e-02 1.72888543e-02 0.
      8.08746442e-02 1.22879952e-01 7.11284429e-02 4.58065011e-02
      7.48167485e-02 2.95642465e-01 2.95642465e-01 9.47341844e-02 0.
      1.79229617e-01 2.95642465e-01 2.93034911e-01 3.40404101e-02
      2.04103719e-02 1.00072637e-01 2.72485048e-01 6.03296049e-02 0.
      2.05567330e-01 2.95642465e-01 2.42438704e-01 0. 0. 0. 0. 0. 0. 0.
      1.89129245e-02 1.13593275e-02 0. 0. 0. 0. 0. 0. 0. 0. 0.
      9.88967940e-02 1.37988916e-02 5.92649020e-02 1.25351056e-01
      1.68781891e-01 0. 5.61610341e-01 5.61610341e-01 5.61610341e-01 0.
      0. 0. 0. 0. 0. 0. 0. 0. 0. 0. 0. 0. 0. 0. 0. 0. 0. 3.19901370e-02
      2.94740319e-01 6.14700377e-01 6.14700377e-01 0. 0. 7.72331804e-02
      3.06217790e-01 2.00445801e-01 0. 0. 0. 0. 0. 0. 0. 0. 0. 0. 0.
      2.01239455e-02 1.41175583e-01 0. 0. 0. 0. 0. 2.47372836e-02
      6.30222261e-02 2.48358727e-01 2.65596867e-01 5.77297807e-02 0.
      1.02511913e-01 2.25776300e-01 1.39817953e-01 4.57495749e-02
      5.17372265e-02 1.98047832e-01 2.65596867e-01 7.42240027e-02 0.
      2.65596867e-01 2.65596867e-01 1.93907082e-01 8.98576993e-03
      8.58029872e-02 2.65596867e-01 1.70739695e-01 1.33222565e-02 0.
      7.24941865e-02 8.40474367e-02 4.49520238e-02 2.51278523e-02
      1.10318132e-01 2.65596867e-01 2.65596867e-01 1.71286147e-02 0.
      2.65596867e-01 2.65596867e-01 2.65596867e-01 4.16413359e-02
      2.63244957e-02 8.64970461e-02 5.27801290e-02 4.31043543e-02 0.
      3.96684498e-01 2.91292667e-01 1.29629567e-01 0. 0. 0. 0. 0. 0. 0.
      0. 0. 8.14389288e-02 6.40654191e-02 2.79349774e-01 3.96684498e-01
      9.94715840e-03 0. 3.96684498e-01 3.96684498e-01 3.96684498e-01
      2.84141172e-02 0. 7.51184125e-04 5.26978401e-03 0. 0.
      3.57179232e-02 8.34448189e-02 7.13811889e-02 0. 0. 0. 0. 0. 0. 0.
      0. 0. 0. 0. 0. 0. 0. 0. 0. 0. 0. 0. 0. 1.64123960e-02
      1.15137935e-01 0. 0. 0. 7.20323265e-01 6.85862362e-01 0. 0. 0. 0.
      0. 0. 0. 0. 0. 0. 5.38900830e-02 1.97591960e-01 2.52001852e-01 0.
      0. 2.00985782e-02 7.13862106e-02 3.88515890e-02 2.24436596e-02
      7.86239877e-02 3.87007892e-01 3.87007892e-01 8.43633264e-02 0.
      1.03581838e-01 3.87007892e-01 3.87007892e-01 0. 1.37434958e-03
      1.32710692e-02 6.41761348e-02 0. 0. 0. 4.31636628e-03
      2.59246072e-03 1.02016628e-02 2.23078579e-02 1.69879079e-01
      3.87007892e-01 1.34556472e-01 0. 1.28239878e-02 2.20465288e-01
      1.40048310e-01 4.67032827e-02 1.51795242e-02 1.15974315e-01
      2.86514193e-01 5.57568111e-02 0. 7.02769831e-02 2.86514193e-01
      2.86514193e-01 3.74917947e-02 2.17691041e-03 1.75855104e-02
      7.75526166e-02 7.43238069e-03 0. 5.84480911e-02 1.76889464e-01
      1.32032171e-01 3.85612473e-02 4.94587496e-02 2.41556063e-01
      2.86514193e-01 1.43338770e-01 0. 9.48446766e-02 2.86514193e-01
      2.51134634e-01 6.88622221e-02 4.15079072e-02 1.69694453e-01
      2.86514193e-01 6.52848259e-02 0. 2.85768270e-01 2.86514193e-01
      2.69441009e-01 3.21131945e-02 1.26595860e-02 1.12631746e-01
      3.74144167e-01 1.49645701e-01 0. 2.59740241e-02 2.16693088e-01
      1.57061517e-01 2.27674227e-02 9.84634552e-03 1.82532385e-01
      3.74144167e-01 1.66666918e-02 0. 1.18063744e-02 3.74144167e-01
      3.74144167e-01 0. 0. 1.48107456e-02 1.03901848e-01 0. 0. 0.
      1.16364397e-02 6.98898314e-03 0. 0. 1.25294596e-01 3.74144167e-01
      0. 0. 0. 3.16758335e-01 1.90248802e-01 1.76322053e-03 0.
      5.76325282e-02 3.29438210e-01 0. 0. 0. 3.29438210e-01
      2.89359719e-01 0. 0. 5.36053721e-03 3.76057960e-02 0. 0. 0.
      1.14291020e-01 6.86445460e-02 0. 4.62303491e-04 1.36243045e-01
      3.29438210e-01 1.28800571e-02 0. 8.10713787e-03 3.29438210e-01
      3.29438210e-01 3.80140543e-02 6.93455152e-03 8.85340348e-02
      3.29438210e-01 5.33845760e-02 0. 3.51309329e-02 3.29438210e-01
      3.29438210e-01 0. 2.69825989e-03 1.16453143e-02 2.49080770e-02
      1.99976470e-02 0. 0. 1.77798346e-02 1.06787793e-02 1.43908914e-02
      7.01547489e-02 3.36044788e-01 3.58427346e-01 3.19682032e-01 0.
      1.84201282e-02 1.91409752e-01 1.25666067e-01 2.88530886e-01
      2.07719430e-02 1.13457285e-01 3.58427346e-01 1.34059757e-01 0.
      6.38265163e-02 3.58427346e-01 3.58427346e-01 7.34327883e-02
      6.84942910e-03 3.22461352e-02 8.20639431e-02 3.30959372e-02 0. 0.
      2.11658686e-01 2.00557500e-01 0. 0. 2.40902905e-03 1.69000700e-02
      0. 0. 0. 0. 0. 0. 0. 4.09973055e-01 7.61154354e-01 0. 0. 0.
      4.32202816e-01 2.59586126e-01 0. 0. 0. 0. 0. 0. 0. 0. 0. 0. 0.
      3.09325499e-03 2.17001196e-02 0. 0. 0. 0. 0. 0. 2.11055577e-03
      1.19839273e-01 3.46765608e-01 6.17863014e-02 0. 2.24486403e-02
      3.03621739e-01 1.77864507e-01 1.05260789e-01 3.16583402e-02
      2.33662114e-01 3.46765608e-01 3.35334748e-01 0. 9.72774401e-02
      3.46765608e-01 3.46765608e-01 8.46350158e-04 9.59343568e-04
      1.26444250e-02 6.85142130e-02 3.05367764e-02 0. 5.18045528e-03
      8.09355080e-03 4.67028469e-03 7.72398785e-02 5.33161312e-02
      8.76860246e-02 3.12290162e-01 2.37729371e-01 5.40251564e-03
      2.32187435e-02 8.54748189e-02 1.00703388e-01 1.03391252e-01
      1.53945619e-02 9.67899114e-02 2.40037888e-01 1.52365237e-01 0.
      4.60279509e-02 2.40037888e-01 2.40037888e-01 1.00023955e-01
      1.02178520e-02 5.58291338e-02 1.76614314e-01 6.56839237e-02 0.
      5.70638627e-02 2.37983331e-01 2.31535137e-01 1.38564721e-01
      1.11617707e-01 1.09758742e-01 2.40037888e-01 2.10375831e-01
      4.02516983e-02 5.54006025e-02 1.67185619e-01 1.74161896e-01
      2.40037888e-01 1.77489400e-01 1.99975416e-01 2.40037888e-01
      2.40037888e-01 1.03294663e-01 2.19291419e-01 2.40037888e-01
      2.40037888e-01 0. 0. 0. 0. 0. 0. 0. 0. 0. 2.99157351e-02
      4.98088524e-02 0. 0. 0. 0. 0. 0. 0. 2.99157351e-02 4.98088524e-02
      0. 0. 0. 0. 0. 0. 0. 5.72351813e-01 5.72351813e-01 0. 0. 0.
      5.72351813e-01 1.21529378e-01 0. 0. 7.41899759e-02 9.68225673e-02
      3.26581625e-03 0. 0. 3.30896676e-02 1.26467478e-02 2.64332443e-03
      1.66911166e-02 2.70532846e-01 2.80248731e-01 4.99644205e-02
      6.85520098e-03 7.81824812e-02 1.87600151e-01 6.11047223e-02
      1.14544062e-02 1.12019844e-01 3.37516874e-01 3.37516874e-01
      4.19890648e-03 0. 0. 3.37516874e-01 1.02856874e-01 5.81531413e-03
      2.00819001e-02 3.37516874e-01 3.37516874e-01 6.29835948e-02 0.
      1.63606688e-01 3.37516874e-01 2.06434637e-01 2.51996946e-02
      9.84414145e-02 2.58425862e-01 2.58425862e-01 7.35206529e-02
      4.19577137e-02 1.79637596e-01 2.58425862e-01 1.10137619e-01
      2.36060154e-02 1.28300130e-01 2.58425862e-01 2.58425862e-01
      1.36612102e-01 8.21903944e-02 2.58425862e-01 2.58425862e-01
      2.32798800e-01 8.28510746e-02 1.39817819e-01 1.98021591e-01
      2.41497934e-01 4.37569991e-02 0. 2.56619066e-01 2.58425862e-01
      1.15586437e-01 1.52074369e-02 6.17356189e-02 6.50669709e-02
      9.12152380e-02 1.45151671e-02 0. 1.75056934e-01 2.58425862e-01
      7.31162280e-02 1.13829561e-02 1.31881032e-02 0. 0. 0. 0. 0. 0. 0.
      0. 0. 0. 0. 0. 0. 0. 0. 0. 0. 0. 0. 0. 0. 0. 0. 0. 0. 0. 0. 0. 0.
      0. 0. 0. 0. 0. 0. 0. 0. 0. 0. 0. 0. 0. 0. 0. 0. 0. 0. 0. 0. 0. 0.
      0. 0. 0. 0. 0. 0. 0. 0. 0. 0. 0. 0. 0. 0. 0. 0. 0. 0. 0. 0. 0. 0.
      0. 0. 0. 0. 0. 0. 0. 0. 0. 0. 0. 0. 0. 0. 0. 0. 0. 0. 0. 0. 0. 0.
      0. 0. 0. 0. 0. 0. 0. 0. 0. 0. 0. 0. 0. 0. 0. 0. 0. 0. 0. 0. 0. 0.
      0. 0. 0. 0. 0. 0. 0. 0. 0. 0. 0. 0. 0. 0. 0. 0. 0. 0. 0. 0. 0. 0.
      0. 0. 0. 0. 0. 0. 0. 0. 0. 0. 0. 0. 0. 0. 0. 0. 0. 0. 0. 0. 0. 0.
      0. 0. 0. 0. 0. 0. 0. 0. 0. 0. 0. 0. 0. 0. 0. 0. 0. 0. 0. 0. 0. 0.
      0. 0. 0. 0. 0. 0. 0. 0. 0. 0. 0. 0. 0. 0. 0. 0. 0. 0. 0. 0. 0. 0.
      0. 0. 0. 0. 0. 0. 0. 0. 0. 0. 0. 0. 0. 0. 0. 0. 0. 0. 0. 0. 0. 0.
      0. 0. 0. 0. 0. 0. 0. 0. 0. 0. 0. 0. 0. 0. 0. 0. 0. 0. 0. 0. 0. 0.
      0. 0. 0. 0. 0. 0. 0. 0. 0. 0. 0. 0. 0. 0. 0. 0. 0. 0. 0. 0. 0. 0.
      0. 0. 0. 0. 0. 0. 0. 0. 0. 0. 0. 0. 0. 0. 0. 0. 0. 0. 0. 0. 0. 0.
      0. 0. 0. 0. 0. 0. 0. 0. 0. 0. 0. 0. 0. 0. 0. 0. 0. 0. 0. 0. 0. 0.
      0. 0. 0. 0. 0. 0. 0. 0. 0. 0. 0. 0. 0. 0. 0. 0. 0. 0. 0. 0. 0. 0.
      0. 0. 0. 0. 0. 0. 0. 0. 0. 0. 0. 0. 0. 0. 0. 0. 0. 0. 0. 0. 0. 0.
      0. 0. 0. 0. 0. 0. 0. 0. 0. 0. 0. 0. 0. 0. 0. 0. 0. 0. 0. 0. 0. 0.
      0. 0. 0. 0. 0. 0. 0. 0. 0. 0. 0. 0. 0. 0. 0. 0. 0. 0. 0. 0. 0. 0.
      0. 0. 0. 0. 0. 0. 0. 0. 0. 0. 0. 0. 0. 0. 0. 0. 0. 0. 0. 0. 0. 0.
      0. 0. 0. 0. 0. 0. 0. 0. 0. 0. 0. 0. 0. 0. 0. 0. 0. 0. 0. 0. 0. 0.
      0. 0. 0. 0. 0. 0. 0. 0. 0. 0. 0. 0. 0. 0. 0. 0. 0. 0. 0. 0. 0. 0.
      0. 0. 0. 0. 0. 0. 0. 0. 0. 0. 0. 0. 0. 0. 0. 0. 0. 0. 0. 0. 0. 0.
      0. 0. 0. 0. 0. 0. 0. 0. 0. 0. 0. 0. 0. 0. 0. 0. 0. 0. 0. 0. 0. 0.
      0. 0. 0. 0. 0. 0. 0. 0. 0. 0. 0. 0. 0. 0. 0. 0. 0. 0. 0. 0. 0. 0.
      0. 0. 0. 0. 0. 0. 0. 0. 0. 0. 0. 0. 0. 0. 0. 0. 0. 0. 0. 0. 0. 0.
      0. 0. 0. 0. 0. 0. 0. 0. 0. 0. 0. 0. 0. 0. 0. 0. 0. 0. 0. 0. 0. 0.
      0. 0. 0. 0. 0. 0. 0. 0. 0. 0. 0. 0. 0. 0. 0. 0. 0. 0. 0. 0. 0. 0.
      0. 0. 0. 0. 0. 0. 0. 0. 0. 0. 0. 0. 0. 0. 0. 0. 0. 0. 0. 0. 0. 0.
      0. 0. 0. 0. 0. 0. 0. 0. 0. 0. 0. 0. 0. 0. 0. 0. 0. 0. 0. 0. 0. 0.
      0. 0. 0. 0. 0. 0. 0. 0. 0. 0. 0. 0. 0. 0. 0. 0. 0. 0. 0. 0. 0. 0.
      0. 0. 0. 0. 0. 0. 0. 0. 0. 0. 0. 0. 0. 0. 0. 0. 0. 0. 0. 0. 0. 0.
      0. 0. 0. 0. 0. 0. 0. 0. 0. 0. 0. 0. 0. 0. 0. 0. 0. 0. 0. 0. 0. 0.
      0. 0. 0. 0. 0. 0. 0. 0. 0. 0. 0. 0. 0. 0. 0. 0. 0. 0. 0. 0. 0. 0.
      0. 0. 0. 0. 0. 0. 0. 0. 0. 0. 0. 0. 0. 0. 0. 0. 0. 0. 0. 0. 0. 0.
      0. 0. 0. 0. 0. 0. 0. 0. 0. 0. 0. 0. 0. 0. 0. 0. 0. 0. 0. 0. 0. 0.
      0. 0. 0. 0. 0. 0. 0. 0. 0. 0. 0. 0. 0. 0. 0. 0. 0. 0. 0. 0. 0. 0.
      0. 0. 0. 0. 0. 0. 0. 0. 0. 0. 0. 0. 0. 0. 0. 0. 0. 0. 0. 0. 0. 0.
      0. 0. 0. 0. 0. 0. 0. 0. 0. 0. 0. 0. 0. 0. 0. 0. 0. 0. 0. 0. 0. 0.
      0. 0. 0. 0. 0. 0. 0. 0. 0. 0. 0. 0. 0. 0. 0. 0. 0. 0. 0. 0. 0. 0.
      0. 0. 0. 0. 0. 0. 0. 0. 0. 0. 0. 0. 0. 0. 0. 0. 0. 0. 0. 0. 0. 0.
      0. 0. 0. 0. 0. 0. 0. 0. 0. 0. 0. 0. 0. 0. 0. 0. 0. 0. 0. 0. 0. 0.
      0. 0. 0. 0. 0. 0. 0. 0. 0. 0. 0. 0. 0. 0. 0. 0. 0. 0. 0. 0. 0. 0.
      0. 0. 0. 0. 0. 0. 0. 0. 0. 0. 0. 0. 0. 0. 0. 0. 0. 0. 0. 0. 0. 0.
      0. 0. 0. 0. 0. 0. 0. 0. 0. 0. 0. 0. 0. 0. 0. 0. 0. 0. 0.
      1.02445692e-01 2.25099921e-02 8.31915662e-02 1.09870821e-01
      5.73210530e-02 0. 3.45040768e-01 3.43429357e-01 2.34751791e-01
      1.99290342e-03 0. 0. 0. 0. 0. 3.18215205e-03 2.06479081e-03
      2.59596179e-03 1.94634393e-01 1.05956912e-01 3.45040768e-01
      3.45040768e-01 1.21364295e-01 0. 3.45040768e-01 3.45040768e-01
      3.45040768e-01 8.63591488e-03 0. 0. 0. 0. 0. 1.34437397e-01
      5.98735660e-02 1.76817924e-02 0. 0. 0. 0. 0. 0. 0. 0. 0. 0. 0. 0.
      0. 0. 0. 0. 0. 0. 0. 0. 0. 0. 0. 0. 0. 0. 0. 0. 0. 0. 0. 0. 0. 0.
      0. 0. 0. 0. 0. 0. 0. 0. 0. 0. 0. 0. 0. 0. 0. 0. 0. 0. 0. 0. 0. 0.
      0. 0. 0. 0. 0. 0. 0. 0. 0. 0. 0. 0. 0. 0. 0. 0. 1.11776203e-01
      8.16344693e-02 2.85482168e-01 2.84672260e-01 7.55767152e-02 0.
      3.34596395e-01 3.34596395e-01 2.18923360e-01 1.95137691e-03 0. 0.
      0. 0. 0. 1.57318100e-01 5.80503158e-02 5.32138301e-03
      1.76940560e-01 1.99864864e-01 2.65637159e-01 2.71913052e-01
      1.27637967e-01 0. 3.34596395e-01 3.34596395e-01 1.17388099e-01 0.
      0. 0. 0. 0. 0. 2.11141855e-01 7.03806132e-02 0. 0. 0. 0. 0. 0. 0.
      0. 0. 0. 0. 0. 0. 0. 0. 0. 0. 0. 0. 0. 0. 0. 0. 0. 0. 0. 0. 0. 0.
      0. 0. 0. 0. 0. 0. 0. 0. 0. 0. 0. 0. 0. 0. 0. 0. 0. 0. 0. 0. 0. 0.
      0. 0. 0. 0. 0. 0. 0. 0. 0. 0. 0. 0. 0. 0. 0. 0. 0. 0. 0. 0. 0. 0.
      1.63792610e-01 2.73059279e-01 2.34271809e-01 7.43211880e-02
      2.04365820e-01 6.93439022e-02 3.21847886e-01 2.96603918e-01
      4.45713326e-02 0. 0. 0. 0. 0. 8.71936092e-04 1.84460342e-01
      6.14453405e-02 0. 1.70730934e-01 3.08629364e-01 2.68997967e-01 0.
      2.69703835e-01 3.21847886e-01 3.21847886e-01 2.51582801e-01
      3.92191634e-02 0. 0. 0. 0. 8.49048328e-03 1.30790398e-02
      1.51159972e-01 4.97652031e-02 0. 0. 0. 0. 0. 0. 0. 0. 0. 0. 0. 0.
      0. 0. 0. 0. 0. 0. 0. 0. 0. 0. 0. 0. 0. 0. 0. 0. 0. 0. 0. 0. 0. 0.
      0. 0. 0. 0. 0. 0. 0. 0. 0. 0. 0. 0. 0. 0. 0. 0. 0. 0. 0. 0. 0. 0.
      0. 0. 0. 0. 0. 0. 0. 0. 0. 0. 0. 0. 0. 0. 0. 0. 0.</_>
    <_>
      4.24449481e-02 2.07375094e-01 2.64666796e-01 6.83315704e-03
      9.64227840e-02 2.30567344e-02 2.64666796e-01 1.11310884e-01
      1.28932893e-02 4.90468256e-02 1.52130559e-01 2.64666796e-01
      8.78548902e-03 8.21668804e-02 4.68530916e-02 2.64666796e-01
      1.80311739e-01 1.83242448e-02 1.82242170e-01 2.64666796e-01
      2.64666796e-01 0. 1.51821464e-01 2.61182606e-01 2.41623327e-01
      6.81309998e-02 2.41611395e-02 1.42995358e-01 2.34560892e-01
      1.44596785e-01 0. 1.18301913e-01 2.64666796e-01 2.64666796e-01
      1.13572292e-01 3.10643241e-02 4.31264341e-02 1.11164361e-01
      2.25550294e-01 8.87359772e-03 8.04689676e-02 7.44549409e-02
      3.74840319e-01 3.10731292e-01 2.12626569e-02 5.72801102e-03
      2.62652963e-01 3.74840319e-01 5.64183034e-02 6.58382550e-02 0. 0.
      0. 5.72801102e-03 5.94864339e-02 6.75038621e-02 6.21016957e-02 0.
      1.03460103e-01 3.00472051e-01 3.74840319e-01 1.83126494e-01
      3.13758627e-02 0. 1.53120726e-01 3.74840319e-01 1.24120273e-01
      8.46491829e-02 0. 0. 0. 0. 1.45372413e-02 1.45007834e-01
      2.74052531e-01 3.84187736e-02 6.03211336e-02 6.88773626e-03
      2.08378658e-01 1.08048484e-01 3.79107706e-02 1.69296265e-02
      1.48943871e-01 2.74052531e-01 3.20494026e-02 1.19694926e-01
      8.85566045e-03 2.74052531e-01 2.54328460e-01 5.43118007e-02
      2.43541151e-02 9.15850550e-02 2.74052531e-01 2.49524936e-01
      8.52116719e-02 0. 8.96173045e-02 1.61078662e-01 1.03158131e-01
      3.13124321e-02 9.15694758e-02 2.74052531e-01 2.74052531e-01
      1.87069178e-01 0. 2.74052531e-01 2.74052531e-01 2.24677339e-01
      1.35709047e-01 2.60368824e-01 2.60368824e-01 0. 3.78330499e-02
      2.60368824e-01 2.60368824e-01 8.75984207e-02 1.09555153e-02
      8.69621411e-02 1.60243064e-01 9.59194154e-02 0. 2.67459005e-02
      2.60368824e-01 2.60368824e-01 8.84963125e-02 1.24406936e-02
      1.16518727e-02 1.57963783e-01 2.60368824e-01 2.60368824e-01
      1.26277888e-02 3.36018763e-02 2.60368824e-01 2.60368824e-01
      1.52821332e-01 5.29630575e-03 3.96840908e-02 1.33902535e-01
      1.50303692e-01 1.62357297e-02 2.86088083e-02 2.60368824e-01
      2.60368824e-01 1.48947403e-01 4.11649235e-02 2.41312496e-02 0. 0.
      5.33428602e-02 4.36650753e-01 4.36650753e-01 1.45058200e-01
      2.66714301e-02 0. 1.19345784e-01 3.73077303e-01 1.05509907e-01
      4.36441638e-02 0. 0. 0. 0. 0. 0. 0. 0. 4.36441638e-02
      1.68341585e-02 3.15193564e-01 4.36650753e-01 2.24316403e-01
      3.70104201e-02 1.46928743e-01 2.55922288e-01 0. 0. 0. 0. 0. 0.
      9.57161654e-03 6.68718889e-02 2.28445977e-01 2.58650512e-01
      1.87823437e-02 0. 3.64583768e-02 9.82498229e-02 5.94728440e-02
      1.39609165e-02 1.10248983e-01 2.79323101e-01 2.79323101e-01
      4.61729132e-02 0. 2.79323101e-01 2.79323101e-01 1.64496079e-01
      1.11874320e-01 2.49438927e-01 2.04498321e-01 2.09538564e-02
      1.27013717e-02 9.92280841e-02 5.53727411e-02 1.50653850e-02
      3.19630117e-03 1.91652566e-01 2.79323101e-01 2.79323101e-01
      4.16193157e-02 1.63303334e-02 2.79323101e-01 2.79323101e-01
      1.83734193e-01 1.38506377e-02 6.16379678e-02 8.53829905e-02
      2.69620210e-01 2.69620210e-01 4.03497815e-02 0. 1.66609466e-01
      2.38817498e-01 1.71718717e-01 4.75807898e-02 3.66426706e-02
      1.42443389e-01 2.28105187e-01 5.18782847e-02 0. 2.67402053e-01
      2.69620210e-01 1.77860528e-01 6.50376976e-02 1.75402284e-01
      2.69620210e-01 1.21964790e-01 3.13831642e-02 0. 2.69620210e-01
      1.57751307e-01 8.54702443e-02 5.47157004e-02 1.11731865e-01
      2.69620210e-01 1.13666691e-01 4.03497815e-02 0. 2.69620210e-01
      2.61567652e-01 9.05852094e-02 3.88589688e-02 1.17222862e-02
      4.21877243e-02 4.92534973e-02 4.95870560e-02 0. 3.67138177e-01
      3.09821635e-01 1.47300407e-01 7.38437325e-02 1.77878857e-01
      3.23600292e-01 0. 0. 0. 0. 0. 3.17937024e-02 4.99615334e-02
      7.67757595e-02 2.39354104e-01 6.33259267e-02 3.85677107e-02 0.
      3.67138177e-01 3.67138177e-01 9.85959172e-02 7.35832006e-02
      3.32221091e-01 3.67138177e-01 0. 0. 0. 0. 0. 4.08776216e-02
      1.35889485e-01 2.40999803e-01 2.15893552e-01 0. 4.08690199e-02
      1.60442322e-01 8.78644288e-02 2.16647107e-02 3.43650468e-02
      2.18188047e-01 2.80345529e-01 2.23703027e-01 0. 5.25458790e-02
      2.80345529e-01 2.80345529e-01 1.01931229e-01 7.62591809e-02
      6.94607496e-02 2.11844295e-01 2.80345529e-01 0. 3.17870155e-02
      8.52964669e-02 2.42606759e-01 7.68160522e-02 4.02579978e-02
      1.08860224e-01 2.12870717e-01 2.80345529e-01 0. 4.08690199e-02
      1.53367281e-01 2.80345529e-01 2.14013085e-01 8.10364336e-02
      1.74812123e-01 2.62810916e-01 2.62810916e-01 0. 1.37275934e-01
      2.62810916e-01 2.33526289e-01 6.23387657e-02 7.10429717e-03
      1.11966290e-01 1.94210142e-01 6.89924136e-02 0. 7.11890683e-02
      2.62810916e-01 2.62810916e-01 9.50360820e-02 9.13409609e-03
      2.23029613e-01 2.62810916e-01 2.62810916e-01 0. 5.02380170e-03
      2.62810916e-01 2.62810916e-01 9.88973603e-02 0. 4.72313985e-02
      9.90868807e-02 6.13438487e-02 0. 2.28354614e-03 2.40141675e-01
      2.62810916e-01 8.11412185e-02 0. 3.78610529e-02 2.21944954e-02 0.
      0. 4.90616038e-02 5.05230069e-01 5.05230069e-01 3.23847860e-01
      2.45308019e-02 0. 2.65575111e-01 5.05230069e-01 9.70417783e-02
      4.01413180e-02 0. 0. 0. 0. 0. 0. 0. 0. 0. 1.70445547e-01
      1.11030348e-01 2.89113838e-02 0. 0. 2.36547701e-02 7.09643066e-02
      0. 0. 0. 0. 0. 0. 7.09280977e-03 7.52423704e-02 2.62808502e-01
      2.60137171e-01 4.50579748e-02 0. 2.29602866e-02 1.22375049e-01
      7.59959817e-02 9.11932625e-03 8.18780214e-02 2.78766870e-01
      2.78766870e-01 1.63069993e-01 0. 2.78766870e-01 2.78766870e-01
      2.10319012e-01 0. 5.85415810e-02 1.97874695e-01 1.56090289e-01
      1.36791228e-03 0. 2.04148851e-02 4.21839394e-02 2.12490298e-02 0.
      1.21205874e-01 2.78766870e-01 2.78766870e-01 5.92761999e-03 0.
      2.78766870e-01 2.78766870e-01 2.40506917e-01 3.30934048e-01
      3.30934048e-01 2.21277654e-01 0. 0. 3.30934048e-01 3.30934048e-01
      1.16675064e-01 0. 3.40699926e-02 6.26918226e-02 1.78987719e-02 0.
      0. 2.31653035e-01 2.05517516e-01 5.74988350e-02 0. 1.19091198e-01
      2.76067048e-01 2.33350784e-01 0. 6.24210574e-03 3.30934048e-01
      3.30934048e-01 1.78111881e-01 0. 2.22836575e-03 3.71016562e-03 0.
      0. 0. 5.77018932e-02 4.76515479e-02 1.31421387e-02 0. 0. 0. 0. 0.
      0. 0. 0. 0. 0. 0. 0. 0. 0. 0. 0. 0. 0. 0. 0. 0. 0. 0. 0. 0. 0. 0.
      0. 0. 0. 0. 0. 0. 0. 0. 0. 0. 0. 4.05510850e-02 1.37744054e-01
      1.12881757e-01 0. 0. 6.22843625e-03 1.70614254e-02 9.00033861e-03
      0. 1.38022617e-01 3.55836660e-01 3.55836660e-01 0. 0.
      2.20376462e-01 3.55836660e-01 3.50266159e-01 0. 1.03416748e-03
      6.24142913e-03 2.20205225e-02 0. 0. 0. 5.69293508e-04
      3.41924402e-04 0. 1.86352402e-01 3.55836660e-01 3.55836660e-01
      5.33160521e-03 0. 2.02242509e-01 2.47726470e-01 1.08297713e-01
      2.77637959e-01 3.92532051e-01 1.99842244e-01 0. 7.49224871e-02
      3.92532051e-01 3.92532051e-01 2.93598384e-01 1.53915975e-02 0. 0.
      0. 0. 0. 0. 5.51773719e-02 1.83924567e-02 0. 8.92712846e-02
      1.20536782e-01 1.45532535e-02 0. 9.82822254e-02 3.92532051e-01
      3.67987841e-01 9.54164267e-02 1.97891984e-02 0. 0. 0. 0. 0. 0.
      4.71538119e-03 1.57179381e-03 0. 0. 0. 0. 0. 0. 0. 0. 0. 0. 0. 0.
      0. 0. 0. 0. 0. 0. 0. 0. 0. 0. 0. 0. 0. 0. 0. 0. 0. 0. 0. 0. 0. 0.
      0. 0. 0. 0. 0. 0. 0. 0. 0. 0. 0. 0. 0. 3.36994171e-01
      4.04424191e-01 4.04424191e-01 7.11410791e-02 0. 1.64802864e-01
      4.04424191e-01 2.34645575e-01 0. 0. 0. 0. 0. 0. 0. 0. 0. 0.
      9.55755711e-02 3.58618945e-01 4.04424191e-01 5.53319640e-02 0. 0.
      8.60706195e-02 5.16950376e-02 0. 0. 0. 0. 0. 0. 0. 0. 0. 0. 0. 0.
      0. 0. 0. 0. 0. 0. 0. 0. 0. 0. 0. 0. 0. 0. 0. 0. 0. 0. 0. 0. 0. 0.
      0. 0. 0. 0. 0. 0. 0. 0. 0. 0. 0. 0. 0. 0. 0. 0. 0. 0. 0. 0. 0. 0.
      0. 0. 0. 0. 0. 0. 0. 0. 0. 0. 0. 0. 0. 0. 0. 0. 0. 0. 0. 0. 0. 0.
      0. 0. 0. 0. 0. 0. 0. 0. 0. 0. 0. 0. 0. 0. 0. 0. 0. 0. 0. 0. 0. 0.
      0. 0. 0. 0. 0. 0. 0. 0. 0. 0. 0. 0. 0. 0. 0. 0. 0. 0. 0. 0. 0. 0.
      0. 0. 0. 0. 0. 0. 0. 0. 0. 0. 0. 0. 0. 0. 0. 0. 0. 0. 0. 0. 0. 0.
      0. 0. 0. 0. 0. 0. 0. 0. 0. 0. 0. 0. 0. 0. 0. 0. 0. 0. 0. 0. 0. 0.
      0. 0. 0. 0. 0. 0. 0. 0. 0. 0. 0. 0. 0. 0. 0. 0. 0. 0. 0. 0. 0. 0.
      0. 0. 0. 0. 0. 0. 0. 0. 0. 0. 0. 0. 0. 0. 0. 0. 0. 0. 0. 0. 0. 0.
      0. 0. 0. 0. 0. 0. 0. 0. 0. 0. 0. 0. 0. 0. 0. 0. 0. 0. 0. 0. 0. 0.
      0. 0. 0. 0. 0. 0. 0. 0. 0. 0. 0. 0. 0. 0. 0. 0. 0. 0. 0. 0. 0. 0.
      0. 0. 0. 0. 0. 0. 0. 0. 0. 0. 0. 0. 0. 0. 0. 0. 0. 0. 0. 0. 0. 0.
      0. 0. 0. 0. 0. 0. 0. 0. 0. 0. 0. 0. 0. 0. 0. 0. 0. 0. 0. 0. 0. 0.
      0. 0. 0. 0. 0. 0. 0. 0. 0. 0. 0. 0. 0. 0. 0. 0. 0. 0. 0. 0. 0. 0.
      0. 0. 0. 0. 0. 0. 0. 0. 0. 0. 0. 0. 0. 0. 0. 0. 0. 0. 0. 0. 0. 0.
      0. 0. 0. 0. 0. 0. 0. 0. 0. 0. 0. 0. 0. 0. 0. 0. 0. 0. 0. 0. 0. 0.
      0. 0. 0. 0. 0. 0. 0. 0. 0. 0. 0. 0. 0. 0. 0. 0. 0. 0. 0. 0. 0. 0.
      0. 0. 0. 0. 0. 0. 0. 0. 0. 0. 0. 0. 0. 0. 0. 0. 0. 0. 0. 0. 0. 0.
      0. 0. 0. 0. 0. 0. 0. 0. 0. 0. 0. 0. 0. 0. 0. 0. 0. 0. 0. 0. 0. 0.
      0. 0. 0. 0. 0. 0. 0. 0. 0. 0. 0. 0. 0. 0. 0. 0. 0. 0. 0. 0. 0. 0.
      0. 0. 0. 0. 0. 0. 0. 0. 0. 0. 0. 0. 0. 0. 0. 0. 0. 0. 0. 0. 0. 0.
      0. 0. 0. 0. 0. 0. 0. 0. 0. 0. 0. 0. 0. 0. 0. 0. 0. 0. 0. 0. 0. 0.
      0. 0. 0. 0. 0. 0. 0. 0. 0. 0. 0. 0. 0. 0. 0. 0. 0. 0. 0. 0. 0. 0.
      0. 0. 0. 0. 0. 0. 0. 0. 0. 0. 0. 0. 0. 0. 0. 0. 0. 0. 0. 0. 0. 0.
      0. 0. 0. 0. 0. 0. 0. 0. 0. 0. 0. 0. 0. 0. 0. 0. 0. 0. 0. 0. 0. 0.
      0. 0. 0. 0. 0. 0. 0. 0. 0. 0. 0. 0. 0. 0. 0. 0. 0. 0. 0. 0. 0. 0.
      0. 0. 0. 0. 0. 0. 0. 0. 0. 0. 0. 0. 0. 0. 0. 0. 0. 0. 0. 0. 0. 0.
      0. 0. 0. 0. 0. 0. 0. 0. 0. 0. 0. 0. 0. 0. 0. 0. 0. 0. 0. 0. 0. 0.
      0. 0. 0. 0. 0. 0. 0. 0. 0. 0. 0. 0. 0. 0. 0. 0. 0. 0. 0. 0.
      2.05944434e-01 2.63090163e-01 2.51949698e-01 0. 6.20134771e-02
      2.63090163e-01 2.20373437e-01 6.07297458e-02 3.47211249e-02
      1.05491810e-01 1.83822781e-01 1.59435049e-01 0. 7.97316134e-02
      2.16821074e-01 2.63090163e-01 1.20466225e-01 2.70053186e-02
      2.13290274e-01 2.63090163e-01 2.63090163e-01 0. 2.81879436e-02
      2.63090163e-01 2.63090163e-01 9.30554196e-02 2.70053186e-02
      9.07952711e-02 1.28120258e-01 3.57600637e-02 0. 3.62416431e-02
      2.63090163e-01 2.51940519e-01 6.83010295e-02 2.10041385e-02 0. 0.
      0. 0. 2.26933002e-01 2.52408594e-01 5.87779045e-01 5.35195708e-01
      0. 0. 0. 0. 0. 0. 0. 0. 0. 0. 0. 0. 0. 0. 1.03151366e-01
      1.96317822e-01 4.35194045e-01 1.35736629e-01 0. 0. 0. 0. 0. 0. 0.
      0. 0. 0. 0. 0. 0. 0. 0. 0. 0. 0. 0. 0. 0. 0. 0. 0. 0. 0. 0. 0. 0.
      0. 0. 0. 0. 0. 0. 0. 0. 0. 0. 0. 0. 0. 0. 0. 0. 0. 3.51818018e-02
      2.69969255e-01 3.31012487e-01 0. 0. 1.66210800e-01 3.31012487e-01
      2.06019536e-01 0. 1.00944079e-02 3.08997389e-02 4.22785096e-02 0.
      0. 9.32126790e-02 3.01700830e-01 9.61379334e-02 0. 0.
      2.46707276e-01 3.31012487e-01 3.32626179e-02 0. 0. 3.31012487e-01
      3.31012487e-01 5.26679829e-02 0. 1.64471511e-02 5.04356436e-02
      7.67598907e-03 0. 0. 3.31012487e-01 1.57770380e-01 2.80375555e-02
      0. 0. 0. 0. 0. 0. 9.07846630e-01 3.02615553e-01 0. 0. 0. 0. 0. 0.
      0. 0. 0. 0. 0. 0. 0. 0. 0. 0. 0. 0. 0. 0. 0. 0. 0. 0. 0. 0. 0. 0.
      0. 0. 0. 0. 0. 0. 0. 0. 0. 0. 0. 0. 0. 0. 0. 0. 0. 0. 0. 0. 0. 0.
      0. 0. 0. 0. 0. 0. 0. 0. 0. 0. 0. 0. 0. 0. 8.46984144e-03
      1.09668046e-01 2.62577295e-01 2.62577295e-01 3.86404321e-02 0.
      2.62577295e-01 2.62577295e-01 1.78236768e-01 1.08897965e-02
      8.38118326e-03 4.22126874e-02 1.19745195e-01 3.00536640e-02 0.
      1.69681996e-01 2.43615717e-01 1.23237282e-01 3.67026478e-02
      9.28157195e-02 2.62577295e-01 2.62577295e-01 8.50089490e-02 0.
      2.06356406e-01 2.62577295e-01 1.92415476e-01 4.71891239e-02
      5.13915196e-02 1.86484024e-01 2.26660728e-01 6.61180615e-02 0.
      2.62577295e-01 2.62577295e-01 1.69644594e-01 3.27824652e-02 0. 0.
      0. 0. 0. 2.53440171e-01 1.90518752e-01 9.64705646e-02 0. 0. 0. 0.
      0. 0. 0. 0. 0. 1.42057344e-01 0. 0. 0. 0. 0. 6.29680634e-01
      6.29680634e-01 2.82171190e-01 0. 0. 0. 0. 0. 0. 0. 0. 0. 0. 0. 0.
      0. 0. 0. 0. 0. 0. 0. 0. 0. 0. 0. 0. 0. 0. 0. 0. 0. 0. 0. 0. 0. 0.
      0. 0. 0. 0. 0. 0. 0. 0. 0. 0. 0. 4.17812075e-03 5.75280599e-02
      2.13642195e-01 2.88034379e-01 3.72579955e-02 0. 2.41389032e-02
      8.50387365e-02 5.04206903e-02 1.40753955e-01 1.89548537e-01
      2.94031531e-01 2.94031531e-01 2.94031531e-01 2.14019977e-02
      2.93221146e-01 2.94031531e-01 2.94031531e-01 3.24964966e-03
      1.78257637e-02 5.96786104e-02 4.35041673e-02 2.50384752e-02 0.
      2.06272886e-03 4.42224741e-03 5.49273752e-03 1.05362318e-01
      1.08347170e-01 2.11921215e-01 2.92497069e-01 2.94031531e-01
      2.75168493e-02 3.48633341e-02 1.35546252e-01 1.49584100e-01
      2.43914515e-01 2.43914515e-01 1.22130498e-01 1.41935647e-01
      2.42368236e-01 2.27064714e-01 1.72497183e-01 2.01628923e-01
      2.12545589e-01 2.43914515e-01 2.07033232e-01 6.74384609e-02
      5.37518039e-02 2.43914515e-01 2.43914515e-01 1.02044880e-01
      3.76705974e-02 2.43914515e-01 1.31512493e-01 1.48747966e-01
      6.00606836e-02 9.56320390e-02 2.43914515e-01 2.18963891e-01
      6.43814951e-02 7.94274583e-02 9.25325155e-02 7.88808241e-02
      1.09789953e-01 5.22019118e-02 3.01444624e-02 2.43914515e-01
      2.43914515e-01 8.27314779e-02 2.15374455e-02 2.63334587e-02
      2.09403947e-01 3.22808139e-02 9.93064940e-02 1.87428236e-01
      2.87757427e-01 4.00288180e-02 1.00807220e-01 1.66601002e-01
      2.85571307e-01 7.90409967e-02 1.91006660e-02 7.63043985e-02
      1.33307666e-01 7.17550069e-02 0. 1.46952912e-01 2.39330620e-01
      1.93365246e-01 3.13774012e-02 5.38424030e-02 2.10981652e-01
      2.97035992e-01 1.30798832e-01 2.81641129e-02 6.63021728e-02
      1.78812861e-01 1.25183821e-01 2.66383979e-02 5.23055755e-02
      2.67546147e-01 2.97035992e-01 3.26159075e-02 0. 1.19637601e-01
      2.97035992e-01 2.97035992e-01 0. 2.27116346e-02 7.27049708e-02
      3.20604779e-02 5.05887903e-02 0. 0. 0. 0. 0. 9.84170735e-02
      3.63802373e-01 4.80907202e-01 7.71282792e-01 8.26693624e-02
      1.17841223e-02 0. 0. 0. 0. 0. 0. 0. 0. 9.19065699e-02
      8.96463916e-02 3.54426242e-02 0. 0. 0. 0. 0. 0. 0. 0. 0. 0.
      2.09768079e-02 8.70201066e-02 1.68996423e-01 5.69295228e-01
      3.86916369e-01 5.51530719e-02 0. 0. 0. 6.20892122e-02
      1.86267644e-01 0. 5.46261489e-01 3.88430625e-01 5.53689189e-02 0.
      0. 0. 0. 0. 0. 0. 0. 0. 0. 0. 0. 0. 0. 0. 0. 0. 0. 0. 0. 0.
      1.97817106e-02 1.04342721e-01 3.15671772e-01 0. 2.13077920e-03
      5.44065330e-03 7.69519359e-02 4.51898091e-02 1.12935398e-02
      9.57087800e-02 3.63569498e-01 3.63569498e-01 0. 2.11015879e-03
      1.08044006e-01 3.63569498e-01 3.63569498e-01 0. 0. 3.18981847e-03
      2.23775432e-02 0. 0. 0. 4.69381717e-04 2.81916204e-04
      3.65479067e-02 1.52829334e-01 3.63569498e-01 3.63569498e-01
      1.00532860e-01 3.16523835e-02 1.35605693e-01 1.18261032e-01
      6.85534030e-02 3.35851051e-02 2.87536508e-03 8.88071768e-03
      1.78624946e-03 0. 0. 5.31966425e-02 5.29474393e-02 5.47357835e-02
      1.40968869e-02 1.30698399e-03 3.92095232e-03 0. 0. 0. 0.
      9.42146685e-03 1.97555311e-02 2.77702302e-01 9.76320952e-02
      3.17272156e-01 3.17272156e-01 9.51286554e-02 3.36235575e-02
      1.98529407e-01 3.17272156e-01 3.17272156e-01 3.17272156e-01
      6.59776405e-02 2.36150324e-01 2.68106639e-01 1.14755601e-01
      7.39718303e-02 6.91294670e-02 3.17272156e-01 3.17272156e-01 0. 0.
      0. 0. 0. 0. 0. 4.16766899e-03 2.50315131e-03 0. 0. 0. 0. 0. 0. 0.
      0. 0. 3.90926659e-01 9.29823145e-03 7.95058832e-02 3.62068176e-01
      9.96429473e-02 5.39496131e-02 2.75926173e-01 3.90926659e-01
      3.90926659e-01 3.84735882e-01 0. 1.96071854e-03 1.37550337e-02 0.
      0. 9.17508975e-02 1.08043455e-01 3.90926659e-01 0. 0. 0. 0. 0. 0.
      0. 0. 0. 7.11095631e-02 2.85615057e-01 3.62139195e-01
      3.60010296e-01 3.62139195e-01 1.17731683e-01 2.16222152e-01
      6.64800182e-02 5.36250100e-02 3.62139195e-01 0. 0. 0. 0. 0. 0. 0.
      3.62139195e-01 3.13027561e-01 0. 0. 0. 4.11008671e-02 0. 0. 0.
      3.13027561e-01 5.54655213e-03 2.02356856e-02 1.11447148e-01
      3.55957091e-01 2.54757881e-01 0. 2.19977330e-02 5.95573969e-02
      3.69133912e-02 1.07295312e-01 4.38385978e-02 2.97901601e-01
      4.23666030e-01 4.23666030e-01 0. 2.82827988e-02 4.23666030e-01
      3.87327433e-01 0. 0. 0. 0. 1.57497078e-03 0. 0. 0. 0. 0. 0. 0. 0.
      6.65382966e-02 0. 0. 0. 0. 1.91308454e-01 1.27264000e-02
      7.64227062e-02 2.68289834e-01 4.85734403e-01 0. 2.25613872e-03
      1.73916698e-01 2.95313179e-01 3.27272326e-01 3.36042009e-02
      1.19269535e-01 1.29480913e-01 4.85734403e-01 0. 0. 2.85332482e-02
      3.44409764e-01 0. 0. 0. 0. 7.31234103e-02 0. 0. 0. 0. 0.
      5.29378764e-02 1.61165416e-01 1.64985601e-02 9.04193521e-02 0. 0.
      0. 0. 1.31026894e-01 6.51828200e-02 2.25414336e-01 2.09518343e-01
      2.61605740e-01 0. 1.63500860e-01 1.65569112e-01 1.97736129e-01
      7.90147558e-02 5.06977439e-02 1.73839837e-01 1.52558982e-01
      1.93858907e-01 0. 2.61605740e-01 2.60100871e-01 1.63474604e-01
      2.05119960e-02 1.16174236e-01 2.61605740e-01 1.63666785e-01
      7.93000683e-02 0. 1.22867569e-01 1.11386634e-01 6.28135651e-02
      6.74481764e-02 1.07896894e-01 2.61605740e-01 2.38312930e-01
      7.78664798e-02 0. 2.61605740e-01 2.61605740e-01 1.88801318e-01 0.
      0. 0. 0. 0. 0. 0. 0. 0. 0. 0. 0. 0. 0. 0. 0. 0. 0. 0. 0. 0. 0. 0.
      0. 0. 0. 0. 0. 0. 0. 0. 0. 0. 0. 0. 0. 0. 0. 0. 0. 0. 0. 0. 0. 0.
      0. 4.06646907e-01 9.14055765e-01 0. 0. 0. 0. 0. 0. 0. 0. 0. 0. 0.
      0. 0. 0. 0. 0. 0. 0. 0. 0. 0. 0. 0. 0. 6.56716339e-03
      9.95820612e-02 3.17860603e-01 1.34093627e-01 7.48606175e-02 0.
      5.49345352e-02 5.84368743e-02 3.06669325e-02 2.84577105e-02
      1.65542617e-01 3.22648823e-01 2.31057301e-01 9.62493643e-02 0.
      3.22648823e-01 3.22648823e-01 1.05672225e-01 0. 1.08925454e-01
      3.22648823e-01 4.27665142e-03 4.99070808e-03 0. 5.13023622e-02
      1.71007887e-02 0. 0. 2.39636019e-01 3.22648823e-01 9.40863322e-03
      6.41662441e-03 0. 3.22648823e-01 2.56511837e-01 0. 0. 0. 0. 0. 0.
      0. 0. 0. 0. 0. 0. 0. 0. 0. 0. 0. 0. 0. 0. 0. 0. 0. 0. 0. 0. 0. 0.
      0. 0. 0. 0. 0. 0. 0. 0. 0. 0. 0. 0. 0. 0. 0. 0. 0. 0. 0. 0. 0. 0.
      0. 0. 0. 0. 0. 0. 0. 0. 0. 0. 0. 0. 0. 0. 0. 0. 0. 0. 0. 0. 0. 0.
      0. 1.15444488e-03 8.99831951e-02 2.71494567e-01 1.08384443e-02
      1.48233660e-02 0. 3.86078842e-02 1.66034829e-02 3.39724147e-03
      1.73166730e-02 1.99194416e-01 3.20986480e-01 5.56580648e-02
      6.42345920e-02 0. 3.20986480e-01 2.85236686e-01 7.26914257e-02
      5.00259455e-03 5.58717474e-02 1.76948965e-01 6.54790327e-02
      3.26114036e-02 0. 1.50883971e-02 1.32446773e-02 9.93674714e-03
      7.50389174e-02 1.55888215e-01 3.20986480e-01 3.20986480e-01
      1.41316101e-01 0. 2.83948064e-01 3.20986480e-01 3.20986480e-01 0.
      0. 0. 0. 0. 0. 0. 0. 0. 0. 0. 0. 0. 0. 0. 0. 0. 0. 0. 0. 0. 0. 0.
      0. 0. 0. 0. 0. 0. 0. 0. 0. 0. 0. 0. 0. 0. 0. 0. 0. 0. 0. 0. 0. 0.
      0. 0. 0. 0. 0. 0. 0. 0. 0. 0. 0. 0. 0. 0. 0. 0. 0. 0. 0. 0. 0. 0.
      0. 0. 0. 0. 0. 0. 0. 0. 0. 0. 0. 0. 0. 0. 0. 3.61325055e-01
      5.25205612e-01 5.25205612e-01 1.21912420e-01 0. 0. 1.48837209e-01
      8.93933922e-02 0. 0. 0. 0. 0. 0. 0. 0. 0. 0. 1.66586205e-01
      4.99758571e-01 0. 0. 0. 0. 0. 0. 0. 0. 0. 0. 0. 0. 0. 0. 0. 0. 0.
      0. 0. 0. 0. 0. 0. 0. 0. 0. 0. 0. 0. 0. 0. 0. 0. 0. 0. 0. 0. 0. 0.
      0. 0. 0. 0. 0. 0. 0. 0. 0. 0. 0. 0. 0. 0. 0. 0. 0. 0. 0. 0. 0. 0.
      0. 0. 0. 0. 0. 0. 0. 0. 0. 0. 0. 0. 0. 0. 0. 0. 0. 0. 0. 0. 0. 0.
      0. 0. 0. 0. 0. 3.08016211e-01 9.24048662e-01 0. 0. 0. 0. 0. 0. 0.
      0. 0. 0. 0. 0. 0. 0. 0. 0. 0. 0. 0. 0. 0. 0. 0. 0. 0. 0. 0. 0. 0.
      0. 0. 0. 0. 0. 0. 0. 0. 0. 0. 0. 0. 0. 0. 0. 0. 0. 0. 0. 0. 0. 0.
      0. 0. 0. 0. 0. 0. 0. 0. 0. 0. 0. 0. 0. 0. 0. 0. 0. 0. 0. 0. 0. 0.
      0. 0. 0. 0. 0. 0. 0. 0. 0. 0. 0. 0. 0. 0. 0. 0. 0. 0. 0. 0. 0. 0.
      0. 0. 0. 0. 0. 0. 0. 0. 0. 0. 0. 0. 0. 0. 0. 0. 0. 0. 0. 0. 0. 0.
      0. 0. 0. 0. 0. 0. 0. 3.15349907e-01 9.46049809e-01 0. 0. 0. 0. 0.
      0. 0. 0. 0. 0. 0. 0. 0. 0. 0. 0. 0. 0. 0. 0. 0. 0. 0. 0. 0. 0. 0.
      0. 0. 0. 0. 0. 0. 0. 0. 0. 0. 0. 0. 0. 0. 0. 0. 0. 0. 0. 0. 0. 0.
      0. 0. 0. 0. 0. 0. 0. 0. 0. 0. 0. 0. 0. 0. 0. 0. 0. 0. 0. 0. 0. 0.
      0. 0. 0. 0. 0. 0. 0. 0. 0. 0. 0. 0. 0. 0. 0. 0. 0. 0. 0. 0. 0. 0.
      0. 0. 0. 0. 0. 0. 0. 0. 0. 0. 0. 0. 0. 0. 0. 0. 0. 0. 0. 0. 0. 0.
      0. 0. 0. 0. 0. 0. 0. 0. 0. 0. 0. 0. 0. 0. 0. 0. 0. 0. 0. 0. 0. 0.
      0. 0. 0. 0. 0. 0. 0. 0. 0. 0. 0. 0. 0. 0. 0. 0. 0. 0. 0. 0. 0. 0.
      0. 0. 0. 0. 0. 0. 0. 0. 0. 0. 0. 0. 0. 0. 0. 0. 0. 0. 0. 0. 0. 0.
      0. 0. 0. 0. 0. 0. 0. 0. 0. 0. 0. 0. 0. 0. 0. 0. 0. 0. 0. 0. 0. 0.
      0. 0. 0. 0. 0. 0. 0. 0. 0. 0. 0. 0. 0. 0. 0. 0. 0. 0. 0. 0. 0. 0.
      0. 0. 0. 0. 0. 0. 0. 0. 0. 0. 0. 0. 0. 0. 0. 0. 0. 0. 0. 0. 0. 0.
      0. 0. 0. 0. 0. 0. 0. 0. 0. 0. 0. 0. 0. 0. 0. 0. 0. 0. 0. 0. 0. 0.
      0. 0. 0. 0. 0. 0. 0. 0. 0. 0. 0. 0. 0. 0. 0. 0. 0. 0. 0. 0. 0. 0.
      0. 0. 0. 0. 0. 0. 0. 0. 0. 0. 0. 0. 0. 0. 0. 0. 0. 0. 0. 0. 0. 0.
      0. 0. 0. 0. 0. 0. 0. 0. 0. 0. 0. 0. 0. 0. 0. 0. 0. 2.55957842e-01
      1.20365739e-01 8.88893604e-02 9.62537900e-02 2.55957842e-01
      1.68401778e-01 9.03897658e-02 5.13005517e-02 2.53775835e-01
      1.91674814e-01 2.56487578e-02 1.36415273e-01 2.55957842e-01
      2.25885496e-01 6.03195978e-03 1.03633538e-01 2.55957842e-01
      2.55957842e-01 7.69164413e-02 1.00351945e-01 5.98698519e-02
      7.16790184e-02 1.60454005e-01 2.37188652e-01 1.84533507e-01
      6.08062521e-02 3.29300873e-02 2.80570518e-02 9.65984836e-02
      2.55957842e-01 2.55957842e-01 1.81945622e-01 2.74179992e-03
      1.56020060e-01 2.47899652e-01 1.45790935e-01 1.19932443e-01
      1.97841357e-02 1.08396284e-01 3.12123716e-01 6.90337867e-02 0.
      2.47271463e-01 3.12123716e-01 3.12123716e-01 1.51166189e-02
      7.89600017e-04 3.16255051e-03 5.56840003e-03 0. 0. 7.72341564e-02
      5.43352589e-02 3.22884321e-02 5.45770787e-02 1.57126456e-01
      3.12123716e-01 3.12123716e-01 1.20287530e-01 0. 3.12123716e-01
      3.12123716e-01 2.46658236e-01 1.17573701e-02 1.00633856e-02
      3.19364071e-02 1.22504802e-02 0. 0. 3.12123716e-01 1.39531329e-01
      3.16527188e-02 0. 0. 0. 0. 0. 0. 0. 0. 0. 0. 0. 0. 0. 0. 0. 0. 0.
      0. 0. 0. 0. 0. 0. 0. 0. 0. 0. 0. 0. 0. 0. 0. 0. 0. 0. 0.
      3.33933607e-02 5.71598224e-02 6.25796616e-03 1.10523654e-02
      5.85020380e-03 2.34702125e-01 2.84510165e-01 8.36848319e-02 0. 0.
      3.08373988e-01 3.44669014e-01 1.92968652e-01 5.80375381e-02 0.
      3.40645283e-01 1.90903753e-01 4.64605242e-02 5.40553145e-02 0. 0.
      0. 2.97155119e-02 4.11161482e-02 1.77302778e-01 5.71472906e-02
      5.40553145e-02 6.02037553e-03 2.27312282e-01 3.44669014e-01
      3.44669014e-01 0. 0. 1.33128032e-01 2.79324114e-01 1.47132993e-01
      0. 1.38847888e-01 2.93174207e-01 9.10996571e-02 1.58497803e-02 0.
      2.93174207e-01 2.41545364e-01 6.16048872e-02 0. 9.25652590e-03
      2.99055427e-02 1.49844317e-02 0. 0. 1.89511552e-01 1.19488373e-01
